tree
version=v4
num_class=1
num_tree_per_iteration=1
label_index=0
max_feature_idx=31
objective=binary sigmoid:1
feature_names=zipf_frequency_lead2 zipf_frequency_lag1 starts_sentence word_len_lead1 contextual_surprisal_lead1 is_stopword NE_type case_encoded zipf_frequency_lead1 POS_tag is_content_word ends_punct contextual_surprisal_lead2 vowel_consonant_ratio has_non_alpha word_len_lag2 n_diacritics morph_count zipf_frequency zipf_frequency_lag2 n_syllables is_capitalized verb_form word_len_sq word_len_lag1 is_NE word_len contextual_surprisal_lag1 contextual_surprisal_lag2 is_inflected contextual_surprisal word_len_lead2
feature_infos=[0:7.7199999999999998] [0:7.7199999999999998] [0:1] [0:47] [0:99.693730383073543] [0:1] -1:9:13:0:5:14:11:8:3:7:10:15:2:6:1:16:4 -1:0:1:3:2 [0:7.7199999999999998] -1:7:1:3:14:0:5:2:10:4:9:11:13:8:12:15 [0:1] [0:1] [0:99.693730383073543] [0:1] [0:1] [0:47] [0:5] [0:8] [0:7.7199999999999998] [0:7.7199999999999998] [0:15] [0:1] -1:0:1:3:2 [1:2209] [0:47] [0:1] [1:47] [0:99.693730383073543] [0:99.693730383073543] [0:1] [0:99.693730383073543] [0:47]
tree_sizes=26648 27372 27501 27525 27442 27445 27490 27553 27462 27511 27475 27507 27475 27464 27461 27469 27538 27478 27499 27545 27511 27488 27517 27531 27446 27536 27509 27448 27506 27503 27404 27507 27520 27551 27580 27570 27480 27529 27583 27559 27435 27462 27486 27584 27556 27547 27499 27549 27506 27511 27580 27498 27570 27646 27530 27428 27529 27639 27541 27640 27655 27522 27474 27538 27526 27634 27540 27450 27562 27575 27600 27449 27655 27556 27490 27499 27497 27585 27505 27603 27450 27633 27549 27485 27671 27597 27503 27564 27695 27488 27592 27530 27519 27519 27546 27617 27716 27632 27560 27463 27805 27762 27793 27768 27494 27570 27316 27809 27755 27661 27401 27467

Tree=0
num_leaves=255
num_cat=5
split_feature=23 23 24 23 23 23 1 23 23 18 18 1 18 23 21 27 1 24 9 2 18 24 30 8 14 27 19 14 1 24 30 9 27 4 18 1 9 19 30 30 19 30 27 27 2 2 18 4 24 12 2 18 31 0 15 30 27 30 18 0 18 0 0 0 30 15 18 9 19 30 4 4 13 15 12 31 27 15 0 27 18 27 15 4 2 12 4 4 2 30 15 0 4 12 0 15 18 8 1 9 30 13 1 11 4 4 1 0 30 0 27 30 31 27 18 19 19 12 0 30 0 27 18 30 1 11 1 2 4 30 1 30 0 30 8 4 23 4 17 12 0 19 12 27 27 27 0 30 27 1 8 15 4 19 1 1 12 8 12 4 4 27 12 0 24 24 24 27 1 0 8 8 27 0 8 19 15 12 27 27 19 16 0 24 24 21 8 0 18 27 15 19 0 18 30 1 8 4 24 15 27 8 0 27 13 27 30 27 4 8 19 1 15 31 8 30 15 10 16 24 13 4 30 1 4 27 27 8 4 24 19 1 31 30 8 19 17 4 13 30 27 2 12 27 0 12 8 4 8 4 12 30 23 12
split_gain=29866.2 2142.95 2066.29 732.5 412.276 254.284 248.206 139.822 119.959 119.598 88.3898 66.6375 63.6919 60.1328 55.2113 53.3152 49.936 46.4696 43.6071 40.3368 38.6543 35.5788 38.7254 34.1601 32.9128 31.0405 30.2112 30.1159 29.8397 29.5479 28.1337 27.6979 27.1741 26.4767 26.398 29.7698 26.0239 24.3541 24.2161 23.8042 23.6774 23.6456 22.7302 21.6034 21.5101 21.2459 21.0597 20.9595 22.996 20.674 20.6488 20.6148 20.2616 20.2122 23.3505 20.1379 20.2683 20.0172 19.8989 19.7686 19.7044 19.492 19.4413 19.4209 19.3267 19.2855 18.9713 18.8701 18.1173 17.5047 16.6104 16.5903 20.8359 16.5854 16.5797 16.3998 15.7799 25.713 17.5157 15.8737 15.7328 15.5665 15.4967 15.4869 15.0851 15.0202 20.3615 15.0144 14.532 15.003 14.3937 14.2411 14.1002 14.0355 14.0287 14.0272 14.0011 13.6295 19.0091 14.9415 16.3038 15.1122 13.4759 13.4539 13.4276 13.3577 14.7358 13.2922 13.2887 13.3889 13.1122 16.0499 13.0065 12.7937 12.7265 14.4901 12.5695 12.5065 17.889 12.468 12.4046 12.3393 19.6012 13.1697 12.3065 14.4846 15.0056 12.1131 13.7989 15.5792 14.7838 13.043 12.1698 12.0536 12.0494 12.0397 12.001 12.3636 11.9611 11.907 13.5982 11.8868 11.6543 11.3488 14.5393 12.8576 11.1512 11.1262 12.2993 11.1064 11.0898 11.4698 11.0051 14.577 15.3388 10.9686 10.8786 14.2055 14.0043 10.7617 10.7563 10.6264 15.4614 10.6119 10.6 10.5186 10.3942 10.6078 10.5686 10.3878 10.3301 15.1594 10.6026 10.2935 10.2874 16.7839 11.962 12.3204 16.1574 10.2248 10.0174 9.98644 13.5633 9.93058 19.3558 18.0848 11.2634 9.84904 9.80826 9.72409 9.51524 9.47258 10.7178 13.2947 9.42884 9.28442 9.19517 9.19103 9.16324 9.13832 9.13373 9.05445 10.1367 9.01813 12.7692 9.01072 8.98022 8.96063 16.2107 8.94585 9.90799 8.83322 8.80828 8.79239 8.76046 10.9942 8.6376 8.49424 10.9136 11.493 8.54966 9.22759 8.4354 8.42642 8.41796 8.39641 8.32894 8.28969 8.27195 8.24397 8.22656 8.16385 8.1554 8.13294 8.50295 11.0438 8.0962 8.08031 10.3807 8.07223 7.88361 7.87627 7.87175 7.60978 8.8916 8.36372 7.81823 7.54531 8.16388 7.53959 11.3975 7.53531 13.3311 9.24736
threshold=12.500000000000002 20.500000000000004 4.5000000000000009 6.5000000000000009 42.500000000000007 6.5000000000000009 5.5150000000000006 2.5000000000000004 2.5000000000000004 6.0150000000000006 5.9250000000000007 5.6500000000000012 6.705000000000001 30.500000000000004 1.0000000180025095e-35 0.48500416761241733 6.4000000000000012 5.5000000000000009 0 1.0000000180025095e-35 4.0650000000000004 3.5000000000000004 3.7201238721270995 6.2100000000000009 1.0000000180025095e-35 0.054765257806293557 3.9550000000000005 1.0000000180025095e-35 7.330000000000001 6.5000000000000009 10.253819229090132 1 2.4007480451347329 29.862954159251171 6.2100000000000009 3.8950000000000005 2 3.7050000000000005 10.253819229090132 2.1699082016237727 5.2950000000000008 8.8318326369944522 0.041378417140241409 36.780713859163434 1.0000000180025095e-35 1.0000000180025095e-35 3.5150000000000001 1.5544016830043035 6.5000000000000009 11.03659879824305 1.0000000180025095e-35 5.8050000000000006 4.5000000000000009 4.3750000000000009 9.5000000000000018 5.2708819759112471 4.2482287623570647 1.7512166960722413 4.6950000000000012 4.6350000000000007 5.0250000000000012 1.0000000180025095e-35 5.0850000000000009 7.5950000000000006 0.89362353071399969 11.500000000000002 7.5950000000000006 3 7.4650000000000007 4.8268821053980231 0.0041920840008050006 4.3019485752499689 0.48529411764705882 2.5000000000000004 13.535384521606222 11.500000000000002 4.3942566514649126 3.5000000000000004 4.7750000000000012 12.83060549063743 5.6350000000000007 4.1995308428693559 1.5000000000000002 2.1790455081898967 1.0000000180025095e-35 7.1947992644223238 4.0385022829879516 3.4440394347664296 1.0000000180025095e-35 0.083124818034293016 3.5000000000000004 5.9250000000000007 0.13109609738596253 0.28670661257482555 7.1350000000000007 6.5000000000000009 7.1350000000000007 4.6250000000000009 5.9850000000000012 4 8.1790131516301141 0.48529411764705882 6.3400000000000007 1.0000000180025095e-35 12.448327158965609 14.848503972626947 6.9600000000000009 3.9850000000000008 6.7758003398823758 3.3950000000000005 15.721267761712012 5.5535037065284429 8.5000000000000018 0.18023757087916284 6.0950000000000006 7.1750000000000007 3.6350000000000002 8.6997076533997024 3.3950000000000005 11.124622571646688 3.9350000000000005 10.1564423260092 7.120000000000001 1.1216597560462576 7.0850000000000009 1.0000000180025095e-35 4.1150000000000011 1.0000000180025095e-35 9.9807046059474533 4.332804326606567 5.4450000000000012 8.0546258394803338 7.0300000000000002 0.017174401149859155 7.455000000000001 8.0922690581358836 90.500000000000014 10.814116365659444 4.5000000000000009 6.9830924847735858 3.9150000000000005 5.1150000000000011 0.017174401149859155 5.1799497743393497 9.2484066921485617 7.8593701523374664 3.7750000000000004 0.28670661257482555 7.3621008914939488 6.3000000000000007 3.6950000000000007 9.5000000000000018 3.7959427670534627 7.4650000000000007 4.285000000000001 6.0150000000000006 1.6035354517503235 4.5450000000000008 0.13109609738596253 6.8140603098217509 16.495306294831938 7.3621008914939488 8.4043085324512337 4.0050000000000008 5.5000000000000009 1.5000000000000002 2.5000000000000004 10.06933681097418 4.1050000000000013 3.5950000000000002 6.7600000000000007 6.660000000000001 10.72136612204913 6.1250000000000009 4.1250000000000009 4.8550000000000013 9.5000000000000018 7.4994280063119962 5.7029263004670927 3.1103096805069117 4.2650000000000006 2.5000000000000004 6.9600000000000009 12.500000000000002 13.500000000000002 1.0000000180025095e-35 6.2600000000000007 4.3950000000000005 6.3150000000000004 1.1216597560462576 3.5000000000000004 3.4850000000000008 5.6150000000000011 6.3000000000000007 0.28670661257482555 7.0300000000000002 3.8550000000000004 12.448327158965609 8.5000000000000018 6.5000000000000009 1.4293772203541004 4.3250000000000011 3.3150000000000004 4.4478405980636344 0.48529411764705882 3.5965462542975808 4.0353056414563655 0.92797934399396975 5.8088419678293883 3.7850000000000006 5.0850000000000009 3.4550000000000005 1.0000000180025095e-35 9.5000000000000018 4.4450000000000012 1.7512166960722413 9.5000000000000018 1.0000000180025095e-35 1.5000000000000002 2.5000000000000004 0.48529411764705882 2.2567590237890083 3.8408066779772949 4.8350000000000009 1.9665718236387921 9.698775854145163 0.16021655454427067 5.1150000000000011 3.3211772647645001 10.500000000000002 6.1350000000000007 5.5950000000000006 14.500000000000002 0.028844626545842304 6.1250000000000009 7.5950000000000006 2.5000000000000004 2.6196756823163319 0.91666666666666685 1.2188683972806702 4.1554166049924417 1.0000000180025095e-35 3.7330536998016162 4.0900232976895738 5.4650000000000007 11.928917969537245 6.0950000000000006 0.61141876825490615 7.0850000000000009 8.35437413294623 1.3046231122056919 36.780713859163434 132.50000000000003 13.535384521606222
decision_type=2 2 2 2 2 2 2 2 2 2 2 2 2 2 2 2 2 2 9 2 2 2 2 2 2 2 2 2 2 2 2 9 2 2 2 2 9 2 2 2 2 2 2 2 2 2 2 2 2 2 2 2 2 2 2 2 2 2 2 2 2 2 2 2 2 2 2 9 2 2 2 2 2 2 2 2 2 2 2 2 2 2 2 2 2 2 2 2 2 2 2 2 2 2 2 2 2 2 2 9 2 2 2 2 2 2 2 2 2 2 2 2 2 2 2 2 2 2 2 2 2 2 2 2 2 2 2 2 2 2 2 2 2 2 2 2 2 2 2 2 2 2 2 2 2 2 2 2 2 2 2 2 2 2 2 2 2 2 2 2 2 2 2 2 2 2 2 2 2 2 2 2 2 2 2 2 2 2 2 2 2 2 2 2 2 2 2 2 2 2 2 2 2 2 2 2 2 2 2 2 2 2 2 2 2 2 2 2 2 2 2 2 2 2 2 2 2 2 2 2 2 2 2 2 2 2 2 2 2 2 2 2 2 2 2 2 2 2 2 2 2 2 2 2 2 2 2 2 2 2 2 2 2 2
left_child=2 6 5 8 10 7 9 41 29 18 13 51 45 27 23 24 36 59 75 34 84 22 66 25 85 -7 -16 60 70 38 37 62 87 42 35 43 -12 74 -4 133 61 113 -22 58 103 63 -34 48 225 -35 124 -9 -30 -53 112 121 -57 71 -5 96 88 -24 69 65 242 143 81 107 97 -29 -27 72 -17 -42 164 139 201 78 -78 249 -37 117 187 -28 136 86 -8 -20 89 -3 102 -82 -18 195 150 108 241 98 -59 100 101 173 -23 180 -94 106 116 -48 -75 -110 111 -58 231 -1 115 -73 -62 146 -119 165 -84 123 135 -36 125 181 -127 128 129 130 -61 -131 -132 -19 -74 -123 137 -6 -109 140 -2 216 -72 -10 145 149 213 -116 -149 -145 151 -83 153 154 -91 -64 157 -63 -159 -141 -87 162 203 -163 -11 190 167 -139 -168 -101 171 172 209 -99 175 -144 177 178 236 -104 -15 -44 -183 185 197 186 212 -38 -146 -100 -108 -148 240 -194 -195 -25 -124 -185 -112 -95 -103 -66 -203 204 -122 -69 -60 208 -154 210 -128 -182 -49 -13 -180 -216 -105 220 -219 -220 221 -213 -157 227 -158 -41 -143 -142 -93 -89 -88 243 -211 -135 -235 -236 -176 -115 -239 -196 -193 -14 -39 245 -245 -55 -246 -118 -249 -79 -251 -138 253 -253
right_child=1 4 3 19 20 14 15 11 12 30 16 21 17 44 26 57 92 39 32 -21 33 90 40 93 -26 28 83 31 52 -31 -32 -33 46 49 55 80 82 64 -40 47 73 -43 50 -45 -46 -47 67 183 -50 -51 -52 53 -54 54 -56 56 110 68 206 127 105 156 155 -65 76 -67 -68 205 -70 -71 142 114 134 95 -76 -77 77 79 -80 -81 91 94 120 -85 -86 160 230 229 -90 152 -92 228 104 199 -96 -97 -98 99 189 169 -102 200 179 141 -106 -107 119 138 109 -111 198 -113 -114 237 147 -117 247 118 -120 -121 161 122 196 -125 -126 126 170 -129 -130 131 132 -133 -134 233 -136 -137 251 166 -140 159 223 226 174 144 188 -147 191 148 -150 -151 -152 -153 207 -155 -156 222 224 158 -160 -161 -162 163 -164 -165 -166 -167 168 -169 -170 -171 -172 -173 -174 -175 176 -177 -178 -179 214 -181 211 182 -184 184 -186 -187 -188 -189 -190 -191 -192 192 193 194 239 -197 -198 -199 -200 -201 -202 202 -204 -205 -206 -207 -208 -209 -210 232 -212 217 -214 -215 215 -217 -218 218 219 -221 -222 -223 -224 -225 -226 -227 -228 -229 -230 -231 -232 -233 -234 234 235 -237 -238 238 -240 -241 -242 -243 -244 244 246 -247 -248 248 -250 250 -252 252 -254 -255
leaf_value=0.69418880917818537 0.71387082057514395 0.78980849640870887 0.70374253213654925 0.69473134059445141 0.86500691893983139 0.82558982634789158 0.83701150659993595 0.79929250097973603 0.70743148273479917 0.81042262326902359 0.78058485754564477 0.74094830542701473 0.7221806715493484 0.86055231001189136 0.81299778787543675 0.76082188207529888 0.78980849640870887 0.67713412339132351 0.80853879940530404 0.69623427186827624 0.83827098891740037 0.72385066280668331 0.72700416535298729 0.80430180357541381 0.76011163550178373 0.68516160060410514 0.79999848048826028 0.80575898436725879 0.82453022487060423 0.67011586837420845 0.81687824451943969 0.84256999103189512 0.78568561476101106 0.77344336836805294 0.75739020270527158 0.73002686788427107 0.83636349245157604 0.76522108163866442 0.65731686133564282 0.70585106477258386 0.78702611604630612 0.68241498041423609 0.86044952811532749 0.68516160060410514 0.81013463882519832 0.66358455476839984 0.86413510016620876 0.77128926051722146 0.68169129398979689 0.84417160363015009 0.82587944492259735 0.75714034592197754 0.77838606386097198 0.70611409409876957 0.78463930260798409 0.78346112021144521 0.77971201687044089 0.80235476115549498 0.77318021989410768 0.73155040775936353 0.80073395330764019 0.85550297243226858 0.7899107610024898 0.77990565152097369 0.73111928522711389 0.81722401247088361 0.79420175747772337 0.84711339631134974 0.78748685393337325 0.85142868276663752 0.8274910950421418 0.83653915269795021 0.83949259295240419 0.76622014569424002 0.84388225473488931 0.87464245241296112 0.81310430272683754 0.76604366699300508 0.77309212420326012 0.7441375770655092 0.7723152233621402 0.74071131247700006 0.85227564286942437 0.70596362450143457 0.84304694203136044 0.76221863347884322 0.78101863052865605 0.77318021989410768 0.78980849640870887 0.82026876870121979 0.75879557127492148 0.71945702963271541 0.85314293268144425 0.80411947507276993 0.72497624472114719 0.80816668548653514 0.69131278225486847 0.81342390818115973 0.81965805955748494 0.80303652805923786 0.83974371499210587 0.73301030055583649 0.74238487078486559 0.85644766272781025 0.79463959879761048 0.78014629163090554 0.76171952052687519 0.8373600478283959 0.79999848048826028 0.71158952167562339 0.81782889026433847 0.73629489525523739 0.78497739401980715 0.75035371151693897 0.81823867806447259 0.77048408685310221 0.85579565505207311 0.77667450994451326 0.71269010576061986 0.80842662329540083 0.8355699635157211 0.74310490117744954 0.70196364624111773 0.72366194791932181 0.86487036566747344 0.8655297229867579 0.7960613594032756 0.64688264064272016 0.70166634578972376 0.6952091919944019 0.80252364255619635 0.74083783155577931 0.74337558304817963 0.74149747251969222 0.76171952052687519 0.78066407594578802 0.86965149815426224 0.87244514923665584 0.79914910952777174 0.75162104389416184 0.80505183002795999 0.78497739401980715 0.79425072191622081 0.71757612955281258 0.72791319389345222 0.76119334289357343 0.82679375246122988 0.77069902457820572 0.81570845615889576 0.77531518924200382 0.78485380502708468 0.79283021782681518 0.78014629163090554 0.78497739401980715 0.8507086744966007 0.7952616909963055 0.76082188207529888 0.71734196057518396 0.78379844556670131 0.78811879839435739 0.8148019805467458 0.76171952052687519 0.77966345128552716 0.83434000354087867 0.76850946285745247 0.85334256243129536 0.86704513051859755 0.83269939950705052 0.84292203217278883 0.83604781552651197 0.85914085521818362 0.80163024595613885 0.81431004180048971 0.8569721757187001 0.79983475050602515 0.75134626272375538 0.72700416535298729 0.80051483329485684 0.69473134059445141 0.79283021782681518 0.86565613845799461 0.84643188536660152 0.76171952052687519 0.74337558304817963 0.69240275300371534 0.67931171718254713 0.71694705977257001 0.75728766048575102 0.70159757347215179 0.84815718727634881 0.83444675654302103 0.77813250278609936 0.80430180357541381 0.6980175510195773 0.77388088907324171 0.7366663701307905 0.74823013829050966 0.81722401247088361 0.75728766048575102 0.8280917663363383 0.80067516893098578 0.80252364255619635 0.75920068783856776 0.8047213346877985 0.79192113547147902 0.80702893079503923 0.80616616311590517 0.85942117370598581 0.85227564286942437 0.85311914176539272 0.84210505579944273 0.78014629163090554 0.7032776888490041 0.66602212062341259 0.78943056319910632 0.74821285419209715 0.82056301140122567 0.85380763859856246 0.79283021782681518 0.84969034285520528 0.84635446332391684 0.8335571347477112 0.83167278543125756 0.82208487886342207 0.80756678092293843 0.7540565189092906 0.8323756763711162 0.77952434483685362 0.75648741116085461 0.70430108058479768 0.82056301140122567 0.75793924877516949 0.79042874049791401 0.69219707475099068 0.70120686364326001 0.75599077968639716 0.7683177963505432 0.65645238063306632 0.72949246564262904 0.74055276741573439 0.71387082057514395 0.65645238063306632 0.72542232976775123 0.69968458586721027 0.73074717721910298 0.75599077968639716 0.76522108163866442 0.83473404804405782 0.81390564586552561 0.74632857490859383 0.80575898436725879 0.78497739401980715 0.87262131977248214 0.85164660698665007
leaf_weight=25.624011754989624 5.1248023509979239 10.249604701995848 153.74407052993774 5.1248023509979239 1783.4312181472778 40.998418807983398 61.497628211975098 15.374407052993773 117.87045407295227 25.624011754989624 40.998418807983398 20.499209403991703 87.121639966964722 450.98260688781738 10.249604701995848 10.249604701995848 10.249604701995848 112.74565172195435 35.873616456985474 35.873616456985474 133.24486112594604 71.747232913970947 10.249604701995848 10.249604701995851 46.123221158981323 5.1248023509979239 5.1248023509979239 35.873616456985474 56.372825860977173 368.98576927185059 35.873616456985474 143.49446582794189 40.998418807983398 15.374407052993773 35.873616456985474 61.497628211975098 5.1248023509979275 20.499209403991699 35.873616456985474 25.624011754989624 66.622430562973022 30.748814105987549 2531.6523613929749 5.1248023509979239 30.748814105987549 15.374407052993773 35.873616456985474 5.1248023509979239 199.86729168891907 30.748814105987549 46.123221158981323 122.9952564239502 40.998418807983398 76.872035264968872 20.499209403991699 51.248023509979248 25.624011754989624 30.748814105987549 30.748814105987549 122.9952564239502 30.748814105987549 5.1248023509979239 76.872035264968872 15.374407052993773 25.624011754989624 5.1248023509979239 40.998418807983398 15.374407052993773 25.624011754989624 51.248023509979248 10.249604701995848 40.998418807983398 92.246442317962646 40.998418807983398 15.374407052993773 5.1248023509979239 66.622430562973022 66.622430562973022 46.123221158981323 56.372825860977173 97.371244668960571 35.873616456985474 30.748814105987549 35.873616456985474 76.872035264968872 25.624011754989624 35.873616456985474 30.748814105987549 10.249604701995848 51.248023509979248 261.36491990089417 25.624011754989624 163.99367523193359 97.371244668960571 15.374407052993773 10.249604701995848 112.74565172195435 40.998418807983398 35.873616456985474 25.624011754989624 51.248023509979248 5.1248023509979239 30.748814105987549 107.62084937095642 10.249604701995848 10.249604701995848 5.1248023509979239 97.371244668960571 5.1248023509979239 30.748814105987549 10.249604701995851 143.49446582794189 10.249604701995848 51.248023509979248 30.748814105987549 10.249604701995848 35.873616456985474 15.374407052993773 40.998418807983398 20.499209403991699 87.121639966964722 40.998418807983398 25.624011754989624 184.49288463592529 937.83883023262024 153.74407052993774 15.374407052993773 5.1248023509979239 51.248023509979248 46.123221158981323 15.374407052993773 25.624011754989624 20.499209403991699 10.249604701995848 5.1248023509979239 46.123221158981323 1542.5655076503754 112.74565172195435 25.624011754989624 40.998418807983398 56.372825860977173 10.249604701995848 30.748814105987549 56.372825860977173 87.121639966964722 46.123221158981323 5.1248023509979239 56.372825860977173 20.499209403991699 10.249604701995848 102.4960470199585 15.374407052993773 10.249604701995848 10.249604701995848 230.61610579490662 25.624011754989624 10.249604701995848 10.249604701995848 35.873616456985474 40.998418807983398 15.374407052993773 5.1248023509979239 30.748814105987549 112.74565172195435 35.873616456985474 220.36650109291077 61.497628211975098 20.499209403991699 189.61768698692322 292.11373400688171 143.49446582794189 20.499209403991699 25.624011754989624 20.499209403991699 61.497628211975098 92.246442317962646 10.249604701995848 66.622430562973022 5.1248023509979239 15.374407052993773 102.4960470199585 46.123221158981323 5.1248023509979239 20.499209403991703 20.499209403991699 71.747232913970947 199.86729168891907 15.374407052993773 66.622430562973022 204.99209403991699 30.748814105987549 71.747232913970947 10.249604701995848 10.249604701995848 25.624011754989624 10.249604701995848 20.499209403991699 5.1248023509979239 15.374407052993773 66.622430562973022 117.87045407295227 15.374407052993773 128.12005877494812 76.872035264968872 20.499209403991699 153.74407052993774 61.497628211975098 302.36333870887756 30.748814105987549 266.48972225189209 46.123221158981323 10.249604701995848 1081.3332960605621 5.1248023509979239 25.624011754989624 46.123221158981323 20.499209403991699 712.34752678871155 15.374407052993773 20.499209403991699 153.74407052993774 35.873616456985474 40.998418807983398 25.624011754989624 138.36966347694397 15.374407052993773 81.996837615966797 71.747232913970947 40.998418807983398 5.1248023509979239 20.499209403991699 20.499209403991699 5.1248023509979239 881.46600437164307 215.24169874191284 10.249604701995848 30.748814105987549 5.1248023509979239 251.11531519889832 71.747232913970947 5.1248023509979239 5.1248023509979239 35.873616456985474 20.499209403991699 112.74565172195435 10.249604701995848 20.499209403991699 312.61294341087341 56.372825860977173 10.249604701995848 35.873616456985474 10.249604701995851 25.624011754989624 10.249604701995848
leaf_count=120 24 48 720 24 8352 192 288 72 552 120 192 96 408 2112 48 48 48 528 168 168 624 336 48 48 216 24 24 168 264 1728 168 672 192 72 168 288 24 96 168 120 312 144 11856 24 144 72 168 24 936 144 216 576 192 360 96 240 120 144 144 576 144 24 360 72 120 24 192 72 120 240 48 192 432 192 72 24 312 312 216 264 456 168 144 168 360 120 168 144 48 240 1224 120 768 456 72 48 528 192 168 120 240 24 144 504 48 48 24 456 24 144 48 672 48 240 144 48 168 72 192 96 408 192 120 864 4392 720 72 24 240 216 72 120 96 48 24 216 7224 528 120 192 264 48 144 264 408 216 24 264 96 48 480 72 48 48 1080 120 48 48 168 192 72 24 144 528 168 1032 288 96 888 1368 672 96 120 96 288 432 48 312 24 72 480 216 24 96 96 336 936 72 312 960 144 336 48 48 120 48 96 24 72 312 552 72 600 360 96 720 288 1416 144 1248 216 48 5064 24 120 216 96 3336 72 96 720 168 192 120 648 72 384 336 192 24 96 96 24 4128 1008 48 144 24 1176 336 24 24 168 96 528 48 96 1464 264 48 168 48 120 48
internal_value=0.804622 0.846394 0.727236 0.708933 0.855106 0.762098 0.805397 0.752865 0.700186 0.789946 0.842172 0.759012 0.703392 0.84523 0.786812 0.820672 0.824583 0.70109 0.804328 0.748397 0.861552 0.764934 0.770608 0.790458 0.797253 0.783929 0.736721 0.838667 0.780369 0.678485 0.77403 0.826045 0.813689 0.858351 0.750431 0.761917 0.81514 0.771389 0.69486 0.698643 0.783012 0.724764 0.858749 0.784366 0.851789 0.721864 0.819377 0.702654 0.688774 0.820471 0.85939 0.742046 0.805043 0.73994 0.732733 0.744165 0.755272 0.824973 0.789756 0.715421 0.842087 0.793964 0.81369 0.724124 0.767414 0.721942 0.76145 0.823608 0.828722 0.832704 0.774107 0.812983 0.828134 0.768093 0.797706 0.787852 0.770901 0.778205 0.796767 0.765872 0.751748 0.758487 0.819093 0.717556 0.865242 0.808026 0.81712 0.785788 0.848387 0.849326 0.752155 0.759964 0.84631 0.808931 0.7706 0.75371 0.703393 0.830011 0.839216 0.825479 0.8144 0.807847 0.737524 0.852529 0.849669 0.836356 0.837175 0.835344 0.746388 0.724032 0.747894 0.742825 0.728843 0.728724 0.802742 0.82319 0.831398 0.751251 0.729971 0.846236 0.821862 0.736468 0.748729 0.729106 0.859756 0.858281 0.851692 0.724062 0.725539 0.730908 0.739837 0.711324 0.768509 0.693291 0.835308 0.762882 0.865694 0.863233 0.829361 0.785261 0.793306 0.840869 0.775353 0.720656 0.726558 0.740495 0.756624 0.79295 0.782765 0.726327 0.775244 0.756196 0.850296 0.843063 0.845199 0.802802 0.79746 0.777619 0.768765 0.769767 0.782036 0.819027 0.812379 0.831107 0.786036 0.849239 0.854974 0.866394 0.848872 0.832493 0.847602 0.843209 0.845599 0.828083 0.773886 0.762015 0.779857 0.782208 0.775032 0.75903 0.854235 0.860003 0.837796 0.705046 0.728742 0.704251 0.705655 0.777357 0.716418 0.843941 0.823828 0.760704 0.758929 0.749391 0.744213 0.770076 0.722252 0.758331 0.781656 0.813836 0.797759 0.758781 0.763803 0.817869 0.827205 0.810385 0.795203 0.856422 0.834106 0.847987 0.830518 0.851513 0.703591 0.725288 0.758081 0.762822 0.850762 0.849973 0.852447 0.825218 0.840667 0.821553 0.817601 0.796044 0.804349 0.723639 0.827039 0.790787 0.742064 0.76295 0.79549 0.726669 0.851913 0.694938 0.694517 0.703652 0.789247 0.731653 0.727955 0.749231 0.773671 0.718318 0.739711 0.724049 0.731043 0.711862 0.73598 0.83374 0.831569 0.776828 0.792563 0.869046 0.848595 0.818136
internal_weight=23097.5 15000.3 8097.19 5309.3 12371.3 2787.89 2629.02 2029.42 4345.83 1306.82 4115.22 1665.56 3787.23 3505.36 758.471 1322.2 609.851 3367 686.724 963.463 8256.06 1235.08 855.842 707.223 204.992 522.73 51.248 1752.68 481.731 558.603 620.101 374.111 440.733 4422.7 927.589 327.987 425.359 584.227 189.618 2875.01 363.861 363.861 4376.58 102.496 1752.68 420.234 368.986 1645.06 240.866 46.1232 4243.34 430.483 97.3712 415.109 292.114 599.602 245.991 1117.21 97.3712 491.981 1378.57 210.117 230.616 404.859 507.355 389.485 491.981 327.987 850.717 87.1216 384.36 266.49 107.621 153.744 76.872 245.991 450.983 281.864 112.746 169.118 225.491 450.983 384.36 40.9984 3833.35 158.869 117.87 71.7472 655.975 645.725 379.235 163.994 184.493 184.493 169.118 87.1216 204.992 825.093 271.615 553.479 235.741 184.493 117.87 1721.93 174.243 722.597 712.348 158.869 76.872 35.8736 194.742 169.118 271.615 333.112 158.869 51.248 435.608 281.864 56.3728 276.739 363.861 353.611 133.245 220.367 4197.21 3259.37 676.474 286.989 281.864 230.616 158.869 71.7472 35.8736 1229.95 97.3712 87.1216 3756.48 2167.79 122.995 240.866 158.869 220.367 379.235 384.36 266.49 112.746 225.491 107.621 76.872 66.6224 153.744 51.248 635.475 292.114 281.864 143.494 199.867 51.248 46.1232 81.9968 40.9984 333.112 215.242 117.87 61.4976 256.24 384.36 133.245 251.115 317.738 522.73 379.235 358.736 61.4976 368.986 122.995 245.991 235.741 169.118 46.1232 1501.57 2582.9 51.248 1404.2 46.1232 1358.07 1286.33 20.4992 153.744 240.866 35.8736 199.867 194.742 117.87 107.621 20.4992 46.1232 25.624 25.624 163.994 122.995 169.118 143.494 184.493 107.621 169.118 92.2464 343.362 40.9984 333.112 61.4976 1050.58 1086.46 25.624 76.872 71.7472 128.12 948.088 748.221 35.8736 199.867 46.1232 66.6224 153.744 148.619 40.9984 92.2464 128.12 66.6224 35.8736 56.3728 261.365 271.615 1117.21 1106.96 225.491 92.2464 307.488 256.24 97.3712 76.872 92.2464 56.3728 240.866 153.744 87.1216 133.245 404.859 368.986 112.746 46.1232 1588.69 46.1232 20.4992
internal_count=108168 70248 37920 24864 57936 13056 12312 9504 20352 6120 19272 7800 17736 16416 3552 6192 2856 15768 3216 4512 38664 5784 4008 3312 960 2448 240 8208 2256 2616 2904 1752 2064 20712 4344 1536 1992 2736 888 13464 1704 1704 20496 480 8208 1968 1728 7704 1128 216 19872 2016 456 1944 1368 2808 1152 5232 456 2304 6456 984 1080 1896 2376 1824 2304 1536 3984 408 1800 1248 504 720 360 1152 2112 1320 528 792 1056 2112 1800 192 17952 744 552 336 3072 3024 1776 768 864 864 792 408 960 3864 1272 2592 1104 864 552 8064 816 3384 3336 744 360 168 912 792 1272 1560 744 240 2040 1320 264 1296 1704 1656 624 1032 19656 15264 3168 1344 1320 1080 744 336 168 5760 456 408 17592 10152 576 1128 744 1032 1776 1800 1248 528 1056 504 360 312 720 240 2976 1368 1320 672 936 240 216 384 192 1560 1008 552 288 1200 1800 624 1176 1488 2448 1776 1680 288 1728 576 1152 1104 792 216 7032 12096 240 6576 216 6360 6024 96 720 1128 168 936 912 552 504 96 216 120 120 768 576 792 672 864 504 792 432 1608 192 1560 288 4920 5088 120 360 336 600 4440 3504 168 936 216 312 720 696 192 432 600 312 168 264 1224 1272 5232 5184 1056 432 1440 1200 456 360 432 264 1128 720 408 624 1896 1728 528 216 7440 216 96
cat_boundaries=0 1 2 3 4 5
cat_threshold=1578 9857 32 43137 8330
is_linear=0
shrinkage=1


Tree=1
num_leaves=255
num_cat=6
split_feature=23 23 1 23 23 23 1 23 23 18 18 18 30 23 28 27 1 1 9 18 30 28 1 31 14 14 9 30 28 12 19 30 27 12 9 4 25 28 1 17 18 19 3 4 18 27 12 18 19 12 27 18 30 4 30 9 27 4 19 9 28 19 30 18 12 8 28 4 18 19 1 4 13 1 12 3 19 27 19 15 30 28 28 15 27 17 3 4 1 27 31 3 3 27 12 4 30 1 30 12 4 18 15 30 8 15 8 1 9 30 13 27 28 3 1 8 30 8 1 11 30 1 4 19 14 30 12 4 19 1 19 28 18 27 18 19 19 12 28 27 28 28 8 30 18 1 28 30 15 1 18 27 1 1 28 12 30 4 30 8 28 12 30 27 18 23 4 8 8 27 3 15 27 1 3 30 15 8 19 28 31 4 8 1 1 19 28 27 17 4 28 28 28 18 31 28 12 3 30 30 4 28 1 30 13 30 27 30 1 12 21 27 19 30 8 8 12 19 15 1 28 30 27 28 28 12 8 19 12 19 4 15 17 28 30 30 30 15 4 4 28 15 19 15 1 19 8 4 3 15 31 4 19 19
split_gain=26611.4 2007.4 1323.52 607.532 394.544 244.932 224.236 129.141 125.708 106.09 83.1261 65.4708 62.906 56.9306 49.2783 48.6624 46.4674 44.8649 39.243 39.0985 37.0479 35.8035 30.972 32.056 29.1672 28.0598 25.8901 25.7864 25.6029 28.0689 25.7834 24.9065 24.5913 23.8787 23.8286 23.6331 22.6366 22.5145 22.0888 28.8763 21.9561 21.3564 21.343 29.2949 22.604 19.8105 19.4551 19.1307 19.0593 18.9084 18.6809 18.6184 18.4402 18.3923 17.7296 17.4262 17.0947 17.0095 16.6426 17.5712 16.7571 16.5719 16.5681 16.3622 16.2231 16.9252 15.9944 15.6552 15.5713 15.3603 15.3185 15.1456 18.9002 15.1306 15.0568 14.9831 18.0517 14.85 14.609 28.1979 17.3796 14.3782 29.9327 21.5972 14.0852 13.9828 13.937 14.0883 13.7104 13.6723 23.5151 13.6339 13.5218 14.4804 13.5207 18.64 13.5188 13.4351 13.3706 13.2964 13.1071 13.0561 12.7572 15.947 12.8039 12.7105 12.7057 17.6631 13.8079 15.0044 13.7649 12.6153 32.6586 12.5736 12.3569 12.3096 12.2831 12.2732 12.2255 14.7852 12.9494 12.3208 12.2133 11.9941 16.7172 13.252 11.7943 11.643 12.8772 12.8103 12.2836 11.6085 11.581 11.541 11.5053 13.1756 11.3846 11.3211 14.9457 11.2217 11.1985 11.1261 10.9915 10.9729 14.3357 10.8178 14.1346 12.9478 10.7868 24.1769 10.7779 12.0096 10.7758 10.481 10.4256 10.3387 15.2006 14.6364 11.3868 15.3996 10.1194 10.0722 9.96564 10.9188 9.95357 9.93478 11.2217 9.8513 14.1162 9.93493 9.85093 9.83983 9.69395 9.67881 9.6777 9.64137 11.1137 9.58008 9.56898 9.56577 9.56279 9.51346 14.4522 9.31163 9.25452 9.22367 9.17109 9.12552 8.9176 9.88927 11.0938 8.8785 8.80362 8.80346 8.79889 10.3546 18.79 12.3965 10.7875 9.5908 8.78172 8.78037 8.76395 8.64335 8.63842 8.75895 8.63819 18.9264 8.60785 8.54229 8.52797 15.329 8.51302 10.4937 10.1205 11.008 9.62587 8.48409 13.8044 12.4506 15.469 15.7408 11.5898 8.93255 8.87007 8.46917 8.45944 9.14678 8.4282 8.408 8.39932 8.37395 8.37056 9.27736 8.49873 8.3887 8.33408 8.26119 8.13192 8.01308 10.8529 7.9701 7.95867 7.91 7.89757 7.87997 7.82607 7.82288 7.79516 7.68809 7.61436 7.602 7.9188 8.66424
threshold=12.500000000000002 20.500000000000004 5.745000000000001 6.5000000000000009 42.500000000000007 6.5000000000000009 5.5150000000000006 2.5000000000000004 2.5000000000000004 6.0150000000000006 5.9250000000000007 6.705000000000001 0.34516057040019815 30.500000000000004 1.0000000180025095e-35 0.48500416761241733 6.4000000000000012 5.0750000000000011 0 4.0650000000000004 0.028844626545842304 5.4270912379501732 6.3400000000000007 9.5000000000000018 1.0000000180025095e-35 1.0000000180025095e-35 1 0.017174401149859155 4.5314671321502535 12.976574278847838 6.6150000000000011 10.253819229090132 2.4007480451347329 0.89362353071399969 2 29.862954159251171 1.0000000180025095e-35 2.3174974352274789 6.160000000000001 3.5000000000000004 5.9150000000000009 3.7050000000000005 6.5000000000000009 4.6929972233369952 7.120000000000001 0.041378417140241409 1.4343228824492995 3.5150000000000001 3.2750000000000004 11.03659879824305 17.68917467667632 5.0250000000000012 1.7512166960722413 0.0041920840008050006 0.85190515089950858 3 1.6955996565663447 4.646376510306407 4.0650000000000004 4 6.0843409104094128 7.4650000000000007 0.89362353071399969 7.5950000000000006 7.789032343822293 6.3400000000000007 6.7121323625329632 0.52275670274042196 5.6500000000000012 7.0300000000000002 5.8050000000000006 4.3019485752499689 0.48529411764705882 5.6050000000000013 13.535384521606222 1.5000000000000002 3.3750000000000004 10.06933681097418 5.785000000000001 7.5000000000000009 0.10144648790396156 18.613956099261959 36.780713859163434 12.500000000000002 7.3621008914939488 3.5000000000000004 8.5000000000000018 2.0138238849806984 5.4250000000000007 4.3942566514649126 9.5000000000000018 3.5000000000000004 8.5000000000000018 4.3390380097697401 7.1947992644223238 4.0385022829879516 0.083124818034293016 5.035000000000001 6.7758003398823758 8.4043085324512337 0.13109609738596253 5.8050000000000006 7.5000000000000009 4.4794788704816595 6.705000000000001 1.5000000000000002 4.6250000000000009 5.9850000000000012 5 8.1790131516301141 0.48529411764705882 1.4860050018991176 6.1673511745620866 10.500000000000002 5.9750000000000005 7.455000000000001 12.122498244691068 4.7150000000000007 7.0850000000000009 1.0000000180025095e-35 0.017174401149859155 4.1150000000000011 1.4891095897168303 4.9050000000000011 1.0000000180025095e-35 3.8408066779772949 5.3627477127481731 3.7959427670534627 7.4650000000000007 4.285000000000001 3.1150000000000007 8.5003157835035861 5.1450000000000005 6.8695532423472185 6.0950000000000006 7.1750000000000007 4.2150000000000007 4.5163605499591881 3.2474352316581481 4.5992095803766775 1.6048625558757064 6.6029192516514597 7.455000000000001 4.0804091235410409 7.4650000000000007 6.9600000000000009 1.0000000180025095e-35 11.124622571646688 4.5000000000000009 5.8750000000000009 6.3150000000000004 4.483705860074565 5.1450000000000005 5.1550000000000011 0.18023757087916284 3.8451869041121198 8.5878061097199119 2.1316491990868083 1.0127189796923945 5.6350000000000007 7.0712766810410814 3.6261940493752118 0.28670661257482555 7.3621008914939488 6.4000000000000012 90.500000000000014 12.122498244691068 6.7600000000000007 6.660000000000001 10.72136612204913 7.5000000000000009 4.5000000000000009 17.68917467667632 6.4350000000000014 4.5000000000000009 4.4794788704816595 3.5000000000000004 4.495000000000001 3.8050000000000002 11.959184494895842 8.5000000000000018 7.5065866121715095 4.4650000000000007 6.705000000000001 4.785000000000001 7.455000000000001 6.7121323625329632 1.1216597560462576 5.5000000000000009 8.0922690581358836 3.3813328404353404 5.4270912379501732 0.31620610874671967 6.160000000000001 7.5000000000000009 9.8856219766218025 3.9908517378439963 1.5000000000000002 4.7822132234720778 8.6314989901022106 22.401069793639881 5.7785214466364918 4.2150000000000007 7.2980273790538019 0.48529411764705882 0.20661554969114995 1.0810906395472413 9.251869777969949 5.6500000000000012 1.7583439150979723 1.0000000180025095e-35 0.20661554969114995 4.2650000000000006 6.6138851244521595 5.6050000000000013 5.6950000000000012 8.7979056194587457 4.0450000000000008 3.5000000000000004 4.9050000000000011 3.6430190622484271 0.79819336744661729 7.4055461168590062 3.8601910320056807 2.3174974352274789 0.028844626545842304 3.7850000000000006 5.0850000000000009 0.25180266908872445 5.6500000000000012 0.18023757087916284 6.5000000000000009 4.5000000000000009 0.92797934399396975 1.3430620945867842 6.3681385116873024 4.332804326606567 7.5000000000000009 3.844264905120844 5.178982293998609 7.504902558054261 1.5000000000000002 7.455000000000001 11.500000000000002 3.2150000000000003 3.6350000000000002 3.1550000000000007 0.054765257806293557 6.5000000000000009 10.500000000000002 14.500000000000002 10.814116365659444 3.4350000000000005 6.2600000000000007
decision_type=2 2 2 2 2 2 2 2 2 2 2 2 2 2 2 2 2 2 9 2 2 2 2 2 2 2 9 2 2 2 2 2 2 2 9 2 2 2 2 2 2 2 2 2 2 2 2 2 2 2 2 2 2 2 2 9 2 2 2 9 2 2 2 2 2 2 2 2 2 2 2 2 2 2 2 2 2 2 2 2 2 2 2 2 2 2 2 2 2 2 2 2 2 2 2 2 2 2 2 2 2 2 2 2 2 2 2 2 9 2 2 2 2 2 2 2 2 2 2 2 2 2 2 2 2 2 2 2 2 2 2 2 2 2 2 2 2 2 2 2 2 2 2 2 2 2 2 2 2 2 2 2 2 2 2 2 2 2 2 2 2 2 2 2 2 2 2 2 2 2 2 2 2 2 2 2 2 2 2 2 2 2 2 2 2 2 2 2 2 2 2 2 2 2 2 2 2 2 2 2 2 2 2 2 2 2 2 2 2 2 2 2 2 2 2 2 2 2 2 2 2 2 2 2 2 2 2 2 2 2 2 2 2 2 2 2 2 2 2 2 2 2 2 2 2 2 2 2 2 2 2 2 2 2
left_child=2 6 3 8 10 7 9 122 111 18 13 28 46 25 -6 24 34 27 37 165 191 22 70 56 94 51 64 -13 152 30 54 41 91 171 -12 45 92 -2 39 48 98 74 43 78 85 66 -9 -34 -7 -37 139 96 71 249 -30 132 170 -48 178 77 201 106 -43 81 116 -66 -21 183 237 -32 -14 72 -17 86 -11 76 -53 -60 79 88 -80 83 -83 102 99 161 230 -88 -35 140 97 -20 93 184 95 -8 -3 172 -23 105 -18 -56 104 -104 114 202 107 -54 109 110 173 112 -1 -102 -42 126 -27 -89 119 120 -47 -121 -4 148 188 -126 -39 128 129 -98 -131 243 -49 -38 135 -73 -25 -50 -139 203 -64 -81 -74 -75 -145 245 -147 -148 149 -15 -72 236 -10 -142 -59 156 158 -157 159 -95 -96 -44 -136 -164 -163 166 -16 168 169 226 -24 229 244 -108 -168 -82 -177 -65 -40 -28 -143 182 -124 -62 212 217 -122 -109 -125 -190 -191 -5 -112 -116 -188 196 -196 -197 -198 -200 -103 -61 -36 -45 205 -107 207 -129 -141 -105 -167 -212 213 -29 -214 -216 -217 218 -159 220 224 -222 -221 -223 -219 -57 227 -123 -160 -22 -55 -106 233 235 -234 -113 -152 -41 -161 240 -236 -127 -110 -87 -91 -77 -227 -235 -128 -19 -228 252 -195 -254
right_child=1 4 5 20 14 38 15 12 11 31 16 17 21 123 19 52 100 53 32 35 33 40 23 136 -26 26 179 36 29 -31 69 -33 47 42 84 49 133 115 58 68 63 62 44 50 -46 118 57 55 137 -51 -52 75 61 73 101 225 -58 154 59 60 67 -63 89 177 65 -67 -68 -69 -70 -71 150 134 142 143 -76 145 -78 -79 80 141 175 82 -84 -85 -86 131 87 117 -90 90 -92 -93 -94 155 160 -97 127 -99 -100 -101 113 200 103 209 231 204 108 187 242 -111 192 232 -114 -115 193 -117 -118 -119 -120 121 186 167 181 124 125 241 248 206 -130 130 -132 -133 -134 -135 162 -137 -138 138 -140 208 153 180 -144 144 -146 146 147 -149 -150 -151 151 -153 -154 -155 -156 157 -158 185 228 238 -162 164 163 -165 -166 210 174 -169 -170 -171 -172 -173 -174 -175 -176 176 -178 -179 -180 -181 -182 -183 -184 -185 -186 -187 194 -189 189 190 -192 -193 -194 251 195 197 198 -199 199 -201 -202 -203 -204 -205 -206 -207 -208 -209 -210 -211 211 -213 214 -215 215 216 -218 219 -220 222 221 223 -224 -225 -226 246 250 -229 -230 -231 -232 -233 234 247 239 -237 -238 -239 -240 -241 -242 -243 -244 -245 -246 -247 -248 -249 -250 -251 -252 -253 253 -255
leaf_value=-0.11749722973103756 -0.043992552653920165 -0.013999491249547661 -0.047702083622128938 -0.116896738162789 0.023523459106942035 0.022656021143898208 0.031172638734112731 -0.10633282619321414 -0.078064549140122119 -0.017525154393674566 -0.022900852084978357 -0.11883592967337685 -0.10785086022656545 -0.0072665115865330815 0.058816666440914878 -0.0409458517753045 -0.013999491249547661 -0.073648905448237365 0.0039736197793956629 0.048183756978971815 -0.027498084358806071 0.042124563836141937 -0.06999349838363661 -0.12898130598622992 -0.041577229846419955 -0.0063293705046643424 0.042896085338050255 -0.11551563001871129 -0.10265240311973041 -0.091040416242951949 -0.11446544300405193 0.011701863659914848 -0.017860104071356634 -0.012193793710112527 0.030562292640636347 -0.029277885775139779 -0.042555802975529196 -0.00012895893719260158 -0.0014281398628258112 -0.06517110582167665 -0.071043933793930689 -0.060192793569144191 -0.014554194373808178 -0.069866023451442591 -0.078306482889366119 -0.002244456133643821 -0.045279071064448444 0.042280656099597198 -0.032902503967800527 0.043783342008313353 0.020609581318843519 0.055334818883036312 -0.0021519182337776505 -0.10072760271972535 0.018265840108699336 0.069070192908748579 -0.028514058035231455 -0.031351910406702578 0.0084699576530839395 -0.027188180689672371 0.003048034922553209 -0.016173753965971188 -0.023142582279128854 0.021167769000425746 0.036458042756188316 -0.021043308187544244 0.011203087144558409 0.0029629740338089797 0.020126558217217629 -0.058591726167184034 -0.094867496857101094 0.030713153573681873 0.033593583536465889 -0.10647837057876196 0.03789763368677021 0.00016346597653382441 -0.023418908114093747 -0.053495170334690395 0.0031564586936491733 -0.018620858759784625 -0.079889988436605552 0.010715464638801658 -0.070347764881561747 -0.1088358733116627 0.02705985831231782 -0.062378415019423865 -0.035987134605578265 -0.089210093770042409 -0.073091333042931583 -0.0093593589306697426 0.010073130655824719 -0.03931521047241842 -0.10035244760369633 -0.081241363470739583 -0.040320436822725847 -0.0086374385786178315 0.014958447142736725 -0.0064346504039750341 -0.023466850048152132 -0.023487279370299548 0.04782457833274284 -0.042647626051479835 -0.035505934049467246 -0.046392462125051923 -0.0056962886329324433 -0.042908532460294607 0.057231235592841871 0.014371687871806552 0.028662835547652584 0.033840088356344986 0.037502511467209711 -0.08075780408912181 -0.048847806884648085 2.2360716939362989e-05 -0.0046625657097543695 0.068473666088158747 0.04114759098736967 -0.13287043084306613 0.058649912544543964 0.057788846389497231 0.056247274998372322 -0.0081080050708319789 -0.10000211489685565 0.047028272355789477 -0.00022201593526266776 -0.025382990334717533 -0.036301640686467108 0 -0.018531132118355345 -0.032424830126000878 0.044601869496547077 -0.03959440164619514 0.014224677500242476 -0.081423935440868858 0.01300801423978073 -0.032027938010797223 -0.066278809828403284 -0.021234451462489198 -0.079423873487334151 -0.020270308232125517 -0.0569430230548362 -0.08636135989176591 -0.040146213620863506 -0.063233030794202533 -0.12902543102887545 -0.040146213620863506 0.045394361770821276 0.0036211196265734172 0.052146591089454034 0.056636580932421014 -0.074067929205239358 -0.025014795777824908 -0.10784277821829068 -0.012534459903241885 -0.086221026703958883 -0.10400294474461663 -0.049844499524246161 -0.039441583678998783 -0.10350158056634112 -0.014567128760420454 0.010523370908768767 -0.022927208882536187 -0.03181236678957635 0.010581186677272793 -0.059741977696743637 0.063968500147402782 0.014258851941673329 0.052946927256010502 -0.0028391590252794256 0.0092410196256940327 -0.027970498027411757 -0.082555772005534891 -0.068793881213481289 0.010902774903303719 0.050576612916448521 -0.062937594711320877 -0.020602690748450163 -0.030811747576705864 0.03226780199114742 -0.0071197805787623749 -0.012449878025518561 -0.06732538037295345 -0.073921501883746507 -0.078118407553433605 -0.11063331926111 -0.10751580343597421 0.052954384877096805 0.042088529249306117 0.040044541545624396 0.037811932639933404 -0.022310684387354257 -0.073628214199028957 -0.010575511165215684 -0.018723997659393928 0.062142331032537981 0.00082840638791781848 -0.0033536484280529905 0.059945290996886884 0.04859614197190746 0.012555165887129819 0.022971395361997722 -0.066760875312762924 -0.044182217360696441 -0.025999519999240685 -0.0065455305847999584 0.022684288538168684 0.052915461805471214 0.060904456941741229 -0.085232713778341435 0.003084782054496759 -0.032130571883876455 0.054350129955433618 -0.097910636951895502 -0.060611889646697753 -0.045439344348830513 -0.09618587791442508 -0.059603117987594594 -0.08960463771627164 -0.099554157273299915 -0.079973781468897151 -0.10533962943637808 -0.027043139666712426 -0.022818203317191102 -0.075510770674698635 -0.11180907091480358 -0.024979412935817159 0.046981201233279889 0.036150224668902518 -0.086202853965907503 -0.065751423587831606 -0.07095504333201362 -0.056769693465385074 -0.13754628666645341 -0.061901222287789492 -0.067089006299033124 -0.12838360260316789 -0.03967291259723045 0.01155909222109338 -0.07179780311777699 -0.1142412013997382 -0.10942095526025619 0.037900126505289254 -0.033234811305431433 -0.10896507976847834 -0.037436449925631152 0.02895271944993166 0.0079624366088328919 -0.12645349041843204 0 0 -0.013423877437148535 -0.065373464987554641 -0.050790785180030357 -0.028349817310896575
leaf_weight=53.579271197319031 57.107054471969604 10.307272195816038 36.601718902587891 21.293913602828979 120.5871434211731 10.228472471237181 60.728010177612305 31.924135565757751 132.11745858192444 61.928763628005981 41.371407508850098 101.85418617725372 21.268619656562805 25.281158924102783 1821.8487793207169 10.418211936950682 10.307272195816038 5.3101326227188084 35.888358592987061 70.814022302627563 20.774680852890015 15.305654168128969 47.200314044952393 10.688650846481321 46.894039750099182 128.20043313503265 131.28743362426758 79.780341625213623 10.626006245613096 58.222063422203064 21.30048680305481 35.704937696456909 41.292829513549805 77.510597705841064 5.0619646310806301 15.555333852767943 31.61854076385498 112.90586543083191 66.824131965637207 10.392370462417601 42.00101101398468 57.728405714035034 41.532392263412476 26.318687438964844 78.982524275779724 10.096248149871824 73.124070167541504 95.965884447097778 62.202393293380737 20.185184955596924 20.464160084724426 10.055580139160154 30.775413036346436 26.661327481269836 10.27042508125305 5.0403717756271353 222.89480495452881 10.422951579093931 107.85257935523987 155.20396792888641 5.1254281997680655 25.790628790855408 51.871904611587524 20.568283796310425 71.008043646812439 15.41907227039337 50.581444501876831 87.180860996246338 35.716567754745483 31.578544735908508 21.175313472747803 40.492904663085938 91.002517461776733 90.391347527503967 15.140634298324583 25.662002563476562 25.545597195625305 10.511097550392149 10.217604517936705 10.319449782371519 58.003984451293945 41.230447053909302 15.589078187942503 10.561950802803038 136.77946436405182 99.483810067176819 10.430609107017515 85.007641911506653 10.473220109939573 30.965301275253296 41.011899590492249 36.358588814735413 622.44615590572357 106.31848239898682 25.93065333366394 56.567821383476257 50.940020084381104 46.549501419067383 15.497208952903746 31.039175033569336 155.87401986122131 120.56684803962708 151.02063381671906 10.378177285194395 36.191044092178345 5.1246070861816397 15.061307430267332 35.666473031044006 309.07961583137512 50.551915168762207 10.265030622482298 26.809599637985229 26.345922589302063 15.31672954559326 15.449686288833616 4.9843937158584586 15.134660482406614 21.32318902015686 915.80051243305206 155.17376518249512 1639.8343126773834 15.424511790275572 95.328731060028076 679.17896461486816 35.801433920860291 5.06993544101715 51.966397047042847 25.558070540428162 10.325939655303953 5.1536360979080191 226.49022996425629 62.390855669975281 60.892103791236877 52.863670349121094 30.588104724884033 10.381518602371214 26.049405455589294 15.399811506271361 42.213857889175415 145.42842471599579 104.50541138648987 36.954224467277527 5.2074075937271109 42.139465570449829 10.687422037124632 5.2074075937271109 231.50639319419861 20.469377517700195 702.88064181804657 35.114164352416992 63.303226947784424 25.921044945716858 42.404318332672119 15.636509299278258 68.718088746070862 229.25776863098145 31.718312859535217 10.504456758499144 95.5954509973526 15.751063227653505 15.416067481040953 31.146825671195984 57.093844056129456 20.412056922912598 47.375493764877319 1403.5881464481354 20.194984674453735 140.44893550872803 20.522603988647461 25.528861284255981 20.717235088348389 63.137632012367249 20.961753845214844 45.880581378936768 271.25901067256927 67.996884942054749 20.738408088684082 15.409267902374266 30.494954824447632 10.099033355712889 5.1872659921646109 126.69371652603149 132.11426746845245 10.459781885147093 138.4456182718277 69.253229856491089 637.04715692996979 201.53068542480469 105.68887388706207 15.125704050064089 15.28861892223358 31.683325052261353 113.04390585422516 36.359796166419983 40.106992721557617 10.026748180389403 30.108615875244141 90.240733623504639 40.176492691040039 35.093618631362915 5.1629698276519767 15.619891762733458 15.647340059280394 20.663568019866943 35.971994876861572 152.51096785068512 290.89691591262817 25.135258913040161 5.2550114393234244 51.284220099449158 5.1629698276519767 155.39127910137177 207.67438745498657 10.630465507507322 21.18154513835907 69.195077061653137 26.419558525085449 164.5790069103241 202.09489238262177 21.249054193496704 47.913372874259949 10.390547990798948 15.866312384605406 238.71628046035767 69.262999892234802 20.480345249176025 261.46858978271484 45.454057216644287 371.63055109977722 52.532000184059143 406.48706102371216 10.331966757774351 21.495201587677002 5.3738003969192496 31.958364129066467 16.099910616874695 26.023877620697021 5.0784741640090934 10.537171840667723 69.566049814224243 32.123997688293457 101.12912535667419 5.1279029846191397 10.556542396545408 145.15476894378662 395.26980793476105 143.20298767089844 284.59376192092896 20.627617835998535 10.308739900588989 5.1524351835250846 36.606683135032654 151.76117813587189 62.405465126037598
leaf_count=240 264 48 168 96 576 48 288 144 600 288 192 456 96 120 8736 48 48 24 168 336 96 72 216 48 216 600 624 360 48 264 96 168 192 360 24 72 144 528 312 48 192 264 192 120 360 48 336 456 288 96 96 48 144 120 48 24 1032 48 504 720 24 120 240 96 336 72 240 408 168 144 96 192 432 408 72 120 120 48 48 48 264 192 72 48 648 456 48 384 48 144 192 168 2808 480 120 264 240 216 72 144 744 552 696 48 168 24 72 168 1464 240 48 120 120 72 72 24 72 96 4392 744 7848 72 432 3240 168 24 240 120 48 24 1080 288 288 240 144 48 120 72 192 672 480 168 24 192 48 24 1104 96 3360 168 288 120 192 72 312 1032 144 48 432 72 72 144 264 96 216 6744 96 672 96 120 96 288 96 216 1296 312 96 72 144 48 24 576 600 48 624 312 3048 960 504 72 72 144 528 168 192 48 144 432 192 168 24 72 72 96 168 720 1392 120 24 240 24 744 936 48 96 312 120 744 912 96 216 48 72 1080 312 96 1248 216 1680 240 1848 48 96 24 144 72 120 24 48 312 144 480 24 48 672 1872 672 1272 96 48 24 168 696 288
internal_value=3.88207e-05 0.0403678 -0.0714276 -0.0843689 0.048952 -0.0407134 0.000746624 -0.0503316 -0.0920104 -0.0138569 0.0362226 -0.0890226 -0.0432571 0.0392218 0.0553452 0.0153536 0.0191065 -0.0911374 -0.000271087 0.0558268 -0.0504139 -0.0391398 -0.0497125 -0.0408855 -0.00697086 0.0328014 0.0205767 -0.0937696 -0.0704929 -0.0603592 -0.0513393 -0.0287225 0.00865201 -0.0482838 0.010015 0.0525594 -0.0929046 -0.0158246 -0.0149086 -0.0298284 -0.0321751 -0.0311728 -0.0452603 -0.0386259 -0.0544412 0.0529011 -0.070537 0.0141074 -0.0423434 0.0118525 -0.0246443 0.0361357 0.0194982 -0.079707 -0.0404282 0.0181813 -0.0352734 -0.0629343 -0.00936692 -0.0139664 -0.0205234 0.0231217 -0.0348522 -0.0339765 0.0086537 0.0261292 0.0328382 -0.00525319 0.00188981 -0.0813665 -0.0679782 0.00797717 0.0225499 -0.0809201 -0.0065373 0.0305368 -0.000942117 0.00265998 -0.0488522 -0.0369923 -0.0594023 -0.0357373 -0.0115218 -0.0379666 0.0138339 -0.047955 -0.0770585 -0.0926562 -0.0195743 -0.0316254 -0.0248418 -0.0177668 -0.0936586 -0.0918116 0.00324688 0.01194 0.0423196 -0.0307415 0.00899396 0.00699602 0.040276 -0.0354579 -0.0367008 -0.0267563 -0.0420876 0.0114431 0.0243701 0.0333265 0.0199841 0.00933122 0.00307119 -0.114149 -0.09502 0.0435793 -0.0454214 -0.00816527 -0.00125626 -0.0981292 0.0534906 0.0520115 0.0537734 0.0453286 -0.0757826 0.0456711 0.0418969 0.0259492 -0.0102873 0.0432444 0.0358393 0.0378496 0.0428533 -0.0571338 0.0295543 -0.0670037 -0.0017741 0.0177743 -0.084958 -0.0479482 -0.0640205 -0.0293627 -0.0428005 -0.0660167 0.0295129 -0.0956483 -0.0768566 0.0321967 0.0403254 0.0420235 0.050392 0.0298366 -0.061651 -0.0554276 -0.0853861 -0.05122 -0.0791065 -0.0894764 -0.0842238 -0.0925379 -0.0860248 -0.0727183 -0.0212631 -0.0346937 -0.0110287 -0.0205839 -0.0452503 0.0596222 0.0573411 0.0415467 0.0372339 0.0395778 -0.0573085 -0.0678554 -0.0364511 0.0225094 0.048083 -0.0637916 -0.0531341 -0.000980282 0.00910145 0.0366923 -0.0774329 -0.0786564 -0.0849139 -0.0512576 -0.0990045 -0.0894272 0.0539997 0.0379497 0.0446649 0.0328087 0.00745167 -0.0913014 -0.00650553 -0.0418259 0.0498131 0.0416317 0.0329798 0.0540901 0.0217848 0.0318978 -0.0398972 -0.0308728 -0.0256131 -0.0507752 0.0154438 0.0204944 0.0495672 0.0301886 -0.022624 -0.00522323 0.0626972 0.0515198 -0.0950862 -0.109189 -0.0911087 -0.078898 -0.0862027 -0.0878024 -0.0966275 -0.0844739 -0.0864582 -0.0787042 -0.0558019 -0.0735209 -0.0962479 0.00549146 0.0419238 0.0248598 -0.0897743 -0.055031 -0.072822 -0.0172435 -0.117252 -0.121952 -0.107063 -0.0990005 -0.064159 -0.03975 -0.0378817 -0.102023 -0.088525 0.0348109 0.0267746 -0.0669879 -0.0325364 0.0272099 0.00379743 -0.125296 -0.0259959 -0.02538 0.0457905 -0.0438058 -0.0406096 -0.0442914
internal_weight=23082.6 14755.9 8326.74 5858.11 12128.1 2468.63 2627.78 1798.12 4781.69 1313.87 4055.24 4213.74 1407.38 3450.23 8072.87 1313.91 605.005 3781.5 686.713 7952.29 1076.42 1223.19 485.242 327.55 205.537 1729.67 371.149 3072.75 432.249 257.727 199.505 627.16 439.121 1023.44 423.507 4274.84 2970.89 247.591 670.505 181.232 737.952 591.455 887 515.531 371.468 4239.1 184.189 366.875 130.045 35.7405 218.13 1358.52 1108.37 708.747 146.626 325.582 290.812 152.265 489.273 391.954 273.59 842.773 514.385 707.149 229.762 86.4271 121.395 102.766 51.1874 52.879 157.692 265.597 106.628 693.128 77.0694 713.716 35.6012 118.364 297.402 140.445 156.957 671.171 56.8195 614.352 382.136 292.486 549.91 116.761 87.9838 456.657 284.643 72.2469 2886.41 2263.97 158.643 117.296 644.807 243.631 30.8029 245.356 181.498 136 603.79 212.683 391.107 214.317 816.983 267.973 549.01 234.803 184.251 567.946 79.9252 171.191 344.584 190.484 143.335 106.331 4117.71 3201.9 2532.73 669.174 390.738 1720.56 957.283 142 185.5 634.5 292.91 282.584 231.644 172.431 156.858 84.4822 158.968 50.8744 36.7381 119.816 57.6137 197.666 172.014 52.4609 96.2099 143.218 52.8269 678.115 257.183 251.976 763.276 60.3953 136.423 115.248 174.522 120.142 79.141 1710.64 631.551 1079.09 599.833 132.607 41.3467 120.055 108.094 77.5059 78.5223 3677.45 2113.3 514 373.551 353.028 67.9175 136.444 197.082 60.9419 291.454 146.739 88.7353 35.9776 97.3191 141.386 42.1415 354.137 227.443 15.5852 553.327 849.83 2522.63 237.197 815.282 136.103 30.4143 52.9772 123.309 302.583 882.8 245.753 145.486 100.267 105.379 75.2701 125.73 170.824 20.7093 46.9823 193.608 157.636 341.59 50.6933 150.683 61.6624 1564.14 160.554 414.881 90.4108 324.471 116.796 95.6146 780.577 212.599 567.978 530.862 297.02 37.1154 249.107 233.842 168.724 327.5 60.8786 467.226 73.3067 433.148 46.523 488.021 332.877 155.144 42.9095 89.3271 15.4708 26.2882 133.648 64.0824 106.199 314.208 110.04 176.12 420.932 163.683 289.968 72.594 15.6189 266.621 287.133 250.526 214.167
internal_count=108168 70248 37920 26544 57936 11376 12312 8256 21600 6120 19272 19056 6480 16416 38664 6192 2856 17088 3216 38088 4944 5640 2232 1512 960 8208 1752 13872 1968 1176 912 2904 2064 4704 1992 20448 13416 1152 3120 840 3408 2736 4080 2376 1704 20280 840 1728 600 168 1008 6456 5232 3216 672 1536 1344 696 2280 1824 1272 3984 2376 3264 1080 408 576 480 240 240 720 1248 504 3144 360 3384 168 552 1368 648 720 3096 264 2832 1800 1344 2496 528 408 2112 1320 336 13032 10224 744 552 3072 1128 144 1152 864 624 2784 984 1800 1008 3864 1272 2592 1104 864 2544 360 816 1584 888 672 480 19704 15312 12120 3192 1776 8208 4560 672 864 3024 1392 1344 1104 792 744 384 744 240 168 552 264 912 792 240 456 648 240 3216 1224 1200 3648 288 624 528 792 552 360 7728 2856 4872 2712 600 192 552 504 360 360 17640 10128 2448 1776 1680 312 624 912 288 1392 672 408 168 456 672 192 1608 1032 72 2496 3840 12072 1128 3888 648 144 240 576 1392 4224 1176 696 480 504 360 576 792 96 216 912 744 1632 240 696 288 7512 768 1872 408 1464 528 432 3528 960 2568 2400 1344 168 1128 1056 792 1560 288 2112 336 1968 216 2184 1488 696 192 408 72 120 600 288 504 1488 504 816 1992 768 1296 336 72 1272 1320 1152 984
cat_boundaries=0 1 2 3 4 5 6
cat_threshold=1578 9857 32 43137 16663 8330
is_linear=0
shrinkage=0.05


Tree=2
num_leaves=255
num_cat=7
split_feature=23 23 24 23 23 24 23 23 23 9 9 23 28 24 21 28 30 23 30 11 24 2 30 8 28 28 19 30 4 17 24 2 4 12 24 13 2 30 24 11 30 3 15 12 19 30 9 19 30 30 4 30 12 12 4 30 28 21 2 30 28 9 4 8 8 19 12 12 17 15 31 15 12 12 4 9 3 28 11 28 19 19 8 30 3 13 15 9 4 28 4 28 4 31 3 12 24 19 15 31 3 4 30 4 28 9 30 28 28 12 20 31 8 8 3 19 12 30 14 28 12 12 24 13 12 24 12 8 30 20 30 4 4 4 30 12 19 4 8 31 31 15 28 30 17 28 28 12 4 24 4 28 28 28 12 12 24 31 4 8 14 8 24 8 17 8 4 8 24 20 8 12 17 12 31 3 15 28 15 28 4 30 23 30 17 31 30 28 24 30 12 28 28 17 23 28 4 4 19 8 17 19 8 3 28 13 28 28 28 12 20 17 30 15 12 28 17 31 3 15 28 30 15 17 28 28 31 12 12 3 4 4 24 8 12 4 4 28 31 4 30 28 3 30 31 12 19 4 19 28 3 28 28 8
split_gain=23808.8 1881.55 1488.88 505.986 378.618 192.972 189.112 101.574 79.9607 71.6428 61.3879 58.7144 47.1499 44.1574 42.2499 40.5683 33.7871 33.46 33.2204 41.587 32.6163 30.8892 28.9587 28.1235 27.1305 23.9645 23.9577 23.8416 23.5479 20.6761 20.5574 20.3304 20.7204 20.6969 19.8264 19.7713 19.3212 19.2917 19.1138 18.6013 20.2781 17.9288 17.5941 18.72 16.9279 16.8674 16.5978 21.3065 18.9208 16.5785 16.3135 16.9009 18.4615 16.3095 16.3013 16.2119 16.1452 16.1012 16.0589 15.9998 15.4119 15.3022 15.3169 16.4458 14.7876 14.7722 16.5369 15.9232 14.8158 14.4886 14.3514 14.2001 14.1624 14.3691 14.0291 14.0136 13.889 13.8612 13.8224 13.606 13.6038 13.4733 13.3605 19.3851 13.4693 13.318 12.5232 12.3047 12.2438 15.2585 11.8964 11.856 12.1217 11.7579 11.67 16.7897 15.9978 13.202 13.1679 17.7573 11.6638 12.0527 14.2994 11.6075 11.4491 11.2374 11.1075 11.1023 11.0032 10.9469 10.6977 10.4789 13.0798 11.8639 10.4007 11.7344 10.3647 14.8884 12.2709 10.7786 10.3606 10.3443 10.3193 10.2884 10.1016 10.0744 9.96352 10.2656 9.81259 9.75029 9.69578 9.492 10.1256 9.40208 12.407 9.39269 9.37506 9.27937 10.3556 9.45174 9.27285 9.16997 9.04312 8.95798 8.91186 12.6901 16.3274 11.8015 11.0322 8.91173 8.90275 8.89988 8.82289 8.77633 10.5197 18.6092 8.48175 10.3472 8.46879 16.4813 12.623 8.73301 13.7336 9.64951 9.11339 8.40378 8.34368 11.1818 14.9481 13.4594 8.54484 8.29414 8.26982 11.264 8.22837 11.1701 8.20922 8.20802 12.4304 8.11218 8.09295 8.0749 8.04551 16.7516 10.4836 8.64091 8.03505 7.94998 7.92443 8.99697 7.81615 7.72141 7.71791 7.65012 7.61677 7.60259 7.5692 7.55516 7.66393 7.51365 7.43995 8.69182 7.43928 7.39929 7.39199 7.38602 10.2879 10.2872 9.49638 7.6341 7.26248 7.25672 7.20668 13.9202 8.20432 7.16946 7.12115 7.11501 7.30034 7.05985 7.0361 13.1393 7.59845 7.02099 7.00623 6.96208 6.87206 12.0891 7.89481 7.68746 6.7822 7.27535 6.77764 7.97604 7.86842 6.6707 9.0404 8.66381 7.37573 11.2891 6.65658 6.63663 6.60111 6.51936 8.0128 6.50367 6.50104 6.4866 6.43229 6.38656 23.7905 12.2817 9.71438 7.76345
threshold=12.500000000000002 20.500000000000004 4.5000000000000009 6.5000000000000009 42.500000000000007 5.5000000000000009 6.5000000000000009 2.5000000000000004 2.5000000000000004 0 1 30.500000000000004 1.0000000180025095e-35 5.5000000000000009 1.0000000180025095e-35 5.3887241443171421 7.1719595310412361 90.500000000000014 1.1216597560462576 1.0000000180025095e-35 4.5000000000000009 1.0000000180025095e-35 0.069786708921085766 6.2100000000000009 4.5314671321502535 9.0716631315532421 3.9550000000000005 0.028844626545842304 4.0856184780356761 6.5000000000000009 3.5000000000000004 1.0000000180025095e-35 29.862954159251171 9.1559373607005998 2.5000000000000004 0.48529411764705882 1.0000000180025095e-35 13.798908460130223 6.5000000000000009 1.0000000180025095e-35 4.7343236224434229 1.5000000000000002 9.5000000000000018 2.9650550253973433 3.9850000000000008 8.8318326369944522 2 7.5950000000000006 8.106047082746624 10.253819229090132 13.206591357357071 7.2980273790538019 3.1445514262936975 4.9675687293180255 0.017174401149859155 0.44225385964600233 3.9614867321050773 1.0000000180025095e-35 1.0000000180025095e-35 0.017174401149859155 0.34516057040019815 3 12.122498244691068 3.7750000000000004 7.0850000000000009 5.8900000000000015 15.01393790220442 19.386056194426171 6.5000000000000009 1.5000000000000002 4.5000000000000009 1.5000000000000002 0.89362353071399969 1.0152206190936521 4.7469946162283909 4 2.5000000000000004 13.785300074108957 1.0000000180025095e-35 1.3895824127449312 3.9850000000000008 4.2650000000000006 5.6650000000000009 1.4293772203541004 1.5000000000000002 0.6515151515151516 6.5000000000000009 5 5.8651246863396658 9.2448960962878228 5.2321566424164692 6.6029192516514597 4.7847761089352341 7.5000000000000009 6.5000000000000009 1.8402338842629256 5.5000000000000009 6.9600000000000009 7.5000000000000009 6.5000000000000009 2.5000000000000004 4.2431133103898011 0.76081745282617097 2.1790455081898967 4.1146190525374173 6 0.041378417140241409 7.15884353953704 9.5934086193022541 3.8943870129403484 2.5000000000000004 5.5000000000000009 5.0850000000000009 7.1350000000000007 11.500000000000002 5.3850000000000007 2.4895541071544955 2.3094759924085859 1.0000000180025095e-35 0.16021655454427067 0.0094759820577210527 7.789032343822293 6.5000000000000009 0.91666666666666685 0.0041920840008050006 7.5000000000000009 5.0031270022971652 4.3550000000000013 8.2958024744941739 1.5000000000000002 4.8268821053980231 12.267757758310522 11.226391843442224 4.3019485752499689 9.7045145712391534 12.665562572854045 5.6500000000000012 3.0500920832567004 4.3550000000000013 4.5000000000000009 3.5000000000000004 3.5000000000000004 10.349910425478997 9.7045145712391534 5.5000000000000009 1.7615095997524037 2.0906039486188788 10.796471977576823 5.9061748813088082 1.5000000000000002 20.528192282813794 13.785300074108957 20.528192282813794 5.1464301444028155 5.6324901178756264 3.8943870129403484 3.5000000000000004 10.500000000000002 4.1479176454668707 6.3700000000000001 1.0000000180025095e-35 5.0250000000000012 6.5000000000000009 5.0050000000000008 3.5000000000000004 4.8550000000000013 11.841357732373345 6.7600000000000007 2.5000000000000004 1.5000000000000002 3.5450000000000004 2.0755819090009537 4.5000000000000009 2.2173533134912717 7.5000000000000009 5.5000000000000009 9.5000000000000018 14.650481247712905 13.500000000000002 4.9783989766674352 4.0385022829879516 22.401069793639881 56.500000000000007 12.531039807140964 2.5000000000000004 14.500000000000002 2.1276854289410481 15.721267761712012 4.5000000000000009 3.6243800984958683 7.8337313227121408 0.13109609738596253 0.0094759820577210527 1.5000000000000002 110.50000000000001 4.1711218886865824 1.9665718236387921 10.1564423260092 3.8050000000000002 3.7750000000000004 1.0000000180025095e-35 4.0650000000000004 4.1750000000000007 10.500000000000002 0.48500416761241733 0.91666666666666685 0.44225385964600233 6.2366610212752214 3.2137854501556329 4.483705860074565 1.5000000000000002 2.5000000000000004 1.167390157888992 5.5000000000000009 6.9355254432528897 3.0653271022257917 2.5000000000000004 7.5000000000000009 9.5000000000000018 8.5000000000000018 2.8978215037302442 5.3100011496765029 1.5000000000000002 5.5000000000000009 2.2192487342864307 18.26526217284388 4.5000000000000009 2.3636243430717769 17.628471088281639 9.5000000000000018 16.16458950463289 5.9061748813088082 5.5000000000000009 5.3050000000000006 2.8868850012499503 6.7663962369994621 1.7302863214709117 3.336611503800881 11.500000000000002 2.5871860097852117 6.0114388405698742 10.512794355695739 2.5000000000000004 3.9855029054195126 11.500000000000002 0.18023757087916284 6.1800000000000006 5.6185915119287992 7.4650000000000007 3.8601910320056807 6.5000000000000009 4.6057585077388827 3.6120817911153194 3.0750000000000006
decision_type=2 2 2 2 2 2 2 2 2 9 9 2 2 2 2 2 2 2 2 2 2 2 2 2 2 2 2 2 2 2 2 2 2 2 2 2 2 2 2 2 2 2 2 2 2 2 9 2 2 2 2 2 2 2 2 2 2 2 2 2 2 9 2 2 2 2 2 2 2 2 2 2 2 2 2 9 2 2 2 2 2 2 2 2 2 2 2 9 2 2 2 2 2 2 2 2 2 2 2 2 2 2 2 2 2 9 2 2 2 2 2 2 2 2 2 2 2 2 2 2 2 2 2 2 2 2 2 2 2 2 2 2 2 2 2 2 2 2 2 2 2 2 2 2 2 2 2 2 2 2 2 2 2 2 2 2 2 2 2 2 2 2 2 2 2 2 2 2 2 2 2 2 2 2 2 2 2 2 2 2 2 2 2 2 2 2 2 2 2 2 2 2 2 2 2 2 2 2 2 2 2 2 2 2 2 2 2 2 2 2 2 2 2 2 2 2 2 2 2 2 2 2 2 2 2 2 2 2 2 2 2 2 2 2 2 2 2 2 2 2 2 2 2 2 2 2 2 2 2 2 2 2 2 2
left_child=2 5 6 8 10 18 7 45 38 21 69 20 211 27 23 34 59 31 19 28 24 74 -5 30 41 46 -16 -10 202 60 61 32 78 -34 44 -17 81 54 49 152 -41 -12 43 64 -9 -1 47 48 120 -4 51 52 -45 88 -22 -11 149 150 121 -15 -29 90 63 -63 124 67 137 68 210 190 107 -54 122 -74 76 -32 -7 -30 144 245 -77 110 84 -84 -48 -27 104 -25 225 -90 108 176 111 -53 95 -75 -97 98 192 -100 151 125 -103 -28 123 131 -62 194 215 -87 -13 112 -93 -114 115 -86 203 118 -118 -119 -20 158 -24 -81 -37 -102 186 -128 220 216 -123 132 -76 134 -78 246 -89 138 -67 -139 172 -138 153 232 -14 -146 -147 -148 -149 199 -19 235 -26 204 155 -155 -71 188 -56 160 161 162 163 -160 -164 -88 167 168 -122 -169 -170 -172 173 -126 180 -176 -83 178 -55 -130 -121 -117 183 184 -80 197 -82 -186 -158 212 -3 -141 -98 -137 -59 -191 -140 -184 -199 -46 -18 -202 -2 -43 -108 206 217 -207 209 -208 -57 -6 -190 -214 -215 -8 -65 218 -104 -52 224 243 -223 -72 -85 -44 227 -151 -228 -229 231 -142 234 -234 -96 236 240 -238 -239 -240 -61 -39 -162 -222 -245 -36 -73 -94 -211 250 252 -251 -210 -253
right_child=1 4 3 22 12 9 14 15 13 55 11 36 17 16 26 35 200 57 25 -21 37 -23 72 87 39 85 103 29 77 -31 75 -33 33 -35 79 42 -38 241 -40 40 -42 116 53 50 56 -47 82 -49 -50 -51 219 93 71 177 58 65 -58 70 -60 100 106 62 -64 129 -66 66 -68 -69 -70 156 223 135 73 94 105 80 133 -79 182 86 126 91 83 128 114 109 165 136 89 -91 -92 92 247 -95 143 96 97 -99 99 -101 101 102 205 -105 -106 -107 142 -109 -110 -111 -112 -113 113 -115 -116 181 117 119 -120 174 166 130 -124 -125 140 -127 127 -129 179 -131 -132 -133 -134 -135 -136 193 141 139 196 191 230 -143 -144 -145 145 146 147 148 -150 226 -152 -153 -154 154 -156 -157 157 -159 159 -161 242 -163 164 -165 -166 -167 -168 169 170 -171 171 -173 -174 -175 175 -177 -178 -179 -180 -181 -182 -183 185 -185 187 -187 -188 -189 189 195 -192 -193 -194 -195 -196 -197 -198 198 -200 -201 201 -203 -204 -205 -206 207 208 -209 249 248 -212 -213 213 214 -216 -217 -218 -219 -220 -221 221 222 -224 -225 -226 -227 228 229 -230 -231 -232 -233 233 -235 -236 -237 237 238 239 -241 -242 -243 -244 244 -246 -247 -248 -249 -250 251 -252 253 -254 -255
leaf_value=-0.064697124499569117 0.059757821770623644 -0.041326427705358049 -0.085187764232613872 -0.086475378701874578 0.050193396514643177 0.0091202683467648919 -0.017310050876012253 -0.073924924336325762 -0.10549923803170469 -0.075249534353739211 -0.036993833292209476 0.045382514318160379 0.054780060402016197 -0.10705913224902473 0.0093731866165281657 0.036341254140915207 -0.02815673321433608 0.060986340885664916 0.059650125440411345 -0.062715578102141262 -0.041940134314587776 -0.064737714528347187 -0.041941231842288026 0.013469992790647079 0.047655682140672062 0.029974461345497833 -0.0034483244265443298 -0.099481223456960727 -0.0062735573259028931 -0.013887022208098773 -0.005019512274617409 0.02285692359499681 -0.027524013736160015 0.043148582575278746 -0.010219763352349077 0.018223111777157804 0.004385150076001502 0.057459153879846292 -0.11162204437543979 -0.015481633034888351 0.03639056166962 0.043512232493296402 -0.027535469942786002 -0.099601124815065223 -0.010131486872849036 -0.10245786234884986 -0.0530344255972399 -0.04665104537718559 -0.026460290809279932 -0.12213132759865167 -0.072737687477661975 -0.08932121184148617 -0.079788475481813059 -0.0055771011186970835 0.010240763870393431 -0.049523578375885911 -0.0035562140129253962 0.0012761725292825014 -0.028966068950111473 -0.090842939028722369 0.00067884951908293769 -0.053568994887929655 0.011868859834031895 -0.0072793798953791084 0.0097709579722648522 0.041301563466603616 -0.078315069702261181 0.029657173316405896 0.0066620580502853221 0.039053590346972672 0.061641289140794135 -0.031167430674925008 0.013710473450651448 -0.067660380782037816 0.005844718720414541 0.0095070940980015398 0.0042843153597585245 -0.065187595475041965 0.053450035074133012 -0.043592512337183288 -0.018194174595946602 0.045523062919823276 -0.057045501531150136 0.011058098824069287 0.042085798210356559 -0.043552230693375237 -0.049138250757353265 0.0065255747211991431 -0.022310416009753309 -0.082677804523705115 0.026533251883117722 0.042207680561058065 0.0630074804288933 -0.03865521590164895 0.0016519684870340929 -0.057215455811736662 -0.07822716006941699 -0.049869457391541333 -0.076399654488120416 -0.018151781006144996 -0.089398140675068516 -0.097726567002165921 -0.054031006817381821 -0.084367236958829736 -0.068785433052732839 0.033656677774153924 -0.039442351993113335 0.053902894761081316 -0.034975283599449444 0.014040261392948741 0.060552370176171835 0.039004753673844317 -0.025333197087862538 0.024325023698535744 -0.0079512333094617724 0.021959734073550105 0.024495013199076886 -0.018351431306706033 -0.0086778857346577806 0.026555339778518552 0.033061605978293683 0.0074878158981160669 -0.072566906552253271 -0.093835722758996987 -0.053693174836307769 -0.10093474312819616 -0.049898340035855561 -0.099519099646122142 0.012905228898322888 0.00086472445274440651 0.039098715648534864 -0.01479629770793571 0.064156236314358087 -0.061827304946217167 -0.038729403195696517 -0.0896647297877326 -0.0013031162126552879 -0.019316207625620085 -0.021519652279358616 -0.05720526878728284 -0.011009433137767817 -0.052367191664438421 -0.090318098581435691 -0.014473422045775114 0.060871708751341951 -0.021380929468534943 0.047829682403837934 -0.0079904722577313399 0.041878796592947194 -0.006223688007567351 0.032799810950444562 -0.11300306335804555 0.0134322921870488 -0.061555287989273434 -0.071839192750755995 -0.011562141681996206 -0.010104884684392204 0.056669600075067141 0.046778029270619331 0.051969936853319514 0.019357074777253156 0.035104263517758819 0.035921243979639528 -0.027241482083690444 -0.017629415832942034 -0.017113791501169838 -0.014456144439724209 0.067052806160534911 -0.05669366182831255 -0.020126837951521273 -0.025619470942206703 0.013645269339688411 -0.023248172547652303 0.021734020356817249 0.035399918367241247 -0.0037630667413212724 0.018454639562575374 0.01809205661767373 -0.085366999261207638 0.047480098163632051 0.049294718184224443 -0.040756015339033239 0.053932816678904018 0.066865434135119126 0.02793938189139061 -0.012701273531001908 -0.055981481304907932 0.061599120647760464 0.023761812273194845 0.041863949813569723 0.029425082150624889 0.0043552236239198265 -0.017874321072610135 -0.041033377910028951 0.034382813447738712 0.01714146986306506 -0.051018704476572821 0.0061471676491321996 0.044617761464688516 -0.078032161309423309 -0.090059061415191807 -0.066820354935629586 0.014788074153725357 -4.0826544635057009e-05 -0.075385390188406204 -0.08477255257316299 -0.10618099957423606 -0.047770809939747402 -0.06809373688761379 -0.091402040414544181 -0.031924541591819955 0.016947771886007389 0.015788695506858137 -0.00072449951289930601 -0.041606736068079742 0.012584860628332851 -0.036784983738818049 -0.087755625038623108 -0.099439750353669518 -0.01064601132437815 0.001001768260019341 0.039302467370125202 -0.02437547427577192 0.00029088086293213214 0.050139131567819156 0.010853947350846445 -0.019576981103447508 -0.066064055761885315 -0.082418752742821358 -0.017261834632401257 0.017838616452183608 -0.039721608287225027 -0.059097235594198966 -0.02971638275529008 -0.0462193819949622 -0.098690279458596805 -0.083508130679712772 -0.058172815851756848 -0.052690771675846862 -0.12655172027225811 -0.059653553042083446 0.02264528994373868 -0.021909938488132493 0.035589977699344862 -0.029825828150367523 -0.068099180778060112 -0.009744717383168254 0.036580117164549335 -0.050041679828787038 -0.10200026754371246 -0.097528862485843304 -0.066114074005658163 -0.020060916631731995 -0.08556939330005045
leaf_weight=351.00709319114685 9.975167512893675 15.892505764961244 164.11566853523254 49.159098029136658 19.910906553268433 111.67707896232605 30.987294316291809 26.93697202205658 55.038139343261719 16.146783471107483 10.369159340858458 284.98837852478027 3759.1626473665237 127.46340572834015 10.333167672157286 10.134532928466795 10.618651270866392 2155.6154075860977 9.9569488763809186 26.504673957824707 10.359499454498289 16.011832237243652 42.65074896812439 117.41488945484161 543.95581948757172 310.30764091014862 5.169901728630065 49.195711255073547 150.03355193138123 15.817849874496458 52.156444072723389 59.670117974281311 15.721158742904661 29.657145738601685 5.266116499900817 10.243665933609007 30.463685274124146 49.720779418945312 400.80280816555023 25.569954872131348 69.81339704990387 133.66088926792145 47.242776989936829 10.947040915489195 5.2692074775695827 33.151335597038269 5.3667361736297599 21.048590898513794 41.226628303527832 39.135297060012817 54.019333362579346 26.888872146606445 16.043642520904541 41.699190974235535 191.74454963207245 84.373905658721924 41.59466028213501 25.078081727027893 15.58426773548126 137.20677852630615 5.390244483947753 42.17723536491394 30.706689476966858 31.071338653564453 25.639210939407349 5.1242126226425162 10.674140095710753 9.9394519329071027 20.566719889640808 44.640275359153748 127.28084707260132 263.66354978084564 10.291007637977598 48.403636693954468 30.422957181930542 10.343723773956297 45.838257551193237 10.632467865943907 68.95248556137085 181.20001137256622 31.128636717796326 855.07142543792725 10.572825551033018 50.935711026191711 100.1867390871048 10.262453913688658 37.103872776031494 30.59338366985321 21.132683157920837 21.425824999809265 35.513299226760864 19.785794377326965 29.494520902633667 21.146276950836182 10.475549340248106 74.72601056098938 5.4188854694366446 74.732382774353027 26.874778747558594 26.106785416603088 411.32189726829529 296.67165398597717 59.699567198753357 38.104125022888184 86.066642761230469 54.882057309150696 16.045703172683716 53.766981840133667 26.149820923805237 40.232585906982422 206.0252423286438 44.60321044921875 30.337892174720764 19.726257920265198 20.473302841186523 136.74404454231262 60.131400346755981 10.331027984619139 51.53543221950531 69.94240128993988 80.218777298927307 30.413428902626038 86.187589287757874 10.999352931976317 85.585841774940491 401.3111332654953 31.960057497024536 16.360158205032349 40.284635782241821 46.159071564674377 129.50557100772858 36.315286159515381 9.872312664985655 10.567270159721373 26.164034843444824 10.786835432052611 15.465676188468931 114.38681817054749 73.056560039520264 5.2554495334625235 47.125349879264832 20.936102628707886 54.41538405418396 15.755784988403319 122.32638573646545 9.7792224884033185 259.63679444789886 19.719041705131531 24.754567623138428 15.6309517621994 29.541621923446655 21.965231895446777 20.031384944915771 64.672265768051147 86.449565291404724 26.569014430046082 30.441756248474121 14.928405046463011 29.762853384017944 44.31266713142395 15.293447256088255 89.699113368988037 10.086625814437864 5.0067862272262564 35.619411706924438 47.513703346252441 36.055361151695251 4.8412635326385489 5.2691978216171256 41.318109512329102 15.594348549842833 91.672103047370911 47.254905581474304 5.1036829948425284 44.483059644699097 30.38495135307312 29.800898909568787 30.641465663909912 5.4614256620407096 30.047317028045654 94.243909478187561 5.1891785860061637 524.64875936508179 53.731747269630432 203.04890334606171 5.1782959699630728 26.647469043731689 19.529101967811584 60.210888504981995 50.021418929100037 5.000181555747985 102.72915101051331 188.00016617774963 37.104113817214966 58.953285813331604 85.707773923873901 31.778594970703125 14.846974968910216 123.14437937736511 21.640404224395752 54.666511416435242 190.28884398937225 121.35762977600098 10.271355986595152 288.98349165916443 49.294622898101807 115.16616296768188 32.54646098613739 21.925556302070618 175.58196473121643 210.07652735710144 99.524195551872253 80.790873527526855 30.336405873298645 20.809252381324768 56.247623205184937 62.815922498703003 43.847184062004089 10.95425248146057 5.2511562108993521 61.211904287338257 5.0046998262405387 51.771100401878357 5.0116896629333487 14.954679250717161 15.458154201507567 78.636099815368652 42.746904015541077 5.3212140798568717 10.412125110626219 10.231255888938902 42.643212676048279 272.47937214374542 26.366308808326721 42.754918813705444 43.541038870811462 87.238425135612488 124.76949334144592 10.797509551048281 10.954860448837278 21.640780091285706 19.894742131233215 25.800029754638672 35.204755783081055 5.2357184886932364 150.4998607635498 41.862604737281799 128.59605824947357 10.935649394989012 115.09835743904114 43.9235919713974 60.261575102806091 21.114514946937561 667.63696503639221
leaf_count=1560 48 72 720 216 96 528 144 120 240 72 48 1392 18432 552 48 48 48 10608 48 120 48 72 192 552 2640 1488 24 216 696 72 240 288 72 144 24 48 144 240 1728 120 336 648 216 48 24 144 24 96 192 168 240 120 72 192 912 384 192 120 72 600 24 192 144 144 120 24 48 48 96 216 624 1200 48 216 144 48 216 48 336 816 144 4152 48 240 480 48 168 144 96 96 168 96 144 96 48 336 24 336 120 120 1800 1296 264 168 384 264 72 264 120 192 1008 216 144 96 96 648 288 48 240 336 384 144 384 48 384 1752 144 72 192 216 624 168 48 48 120 48 72 528 336 24 216 96 240 72 600 48 1272 96 120 72 144 96 96 288 384 120 144 72 144 216 72 432 48 24 168 216 168 24 24 192 72 432 216 24 216 144 144 144 24 144 456 24 2568 264 984 24 120 96 288 240 24 480 864 168 288 408 144 72 600 96 240 840 576 48 1272 216 504 144 96 768 960 480 384 144 96 264 288 192 48 24 288 24 240 24 72 72 360 192 24 48 48 192 1224 120 192 192 384 552 48 48 96 96 120 168 24 672 192 624 48 504 192 264 96 2928
internal_value=6.87302e-05 0.039027 -0.0662763 -0.0811911 0.0474904 0.000718664 -0.0369769 -0.0447259 -0.0881397 -0.0162054 0.0349445 0.0371319 0.0538435 -0.0855897 -0.0157332 -0.0395271 -0.0879177 0.0543233 0.0115753 -0.00286195 0.0311484 0.00273679 -0.0489164 -0.012509 0.036254 0.0151683 -0.0585314 -0.0737005 0.00257344 -0.0707947 -0.0183575 0.0520803 0.0524108 0.0185477 -0.0481088 -0.0326247 0.0440394 0.0226033 -0.105173 0.0429883 0.0224309 0.0276214 -0.0333737 -0.0367278 -0.0363934 -0.0679946 0.0108754 0.00190614 0.00512691 -0.0923823 -0.0426215 -0.0391743 -0.0355995 -0.019381 0.019837 -0.0253441 -0.0317701 0.0591733 0.0208791 -0.0893582 -0.0723049 -0.0116115 -0.01973 -0.0261679 -0.0262005 -0.0244985 -0.0172212 -0.0321569 -0.0341319 0.0159884 0.0475203 -0.0336632 -0.0469613 -0.0445123 0.00617171 -0.0327902 -0.00234359 -0.0102416 0.0527045 -0.0536972 -0.0412051 0.0447689 0.0159863 0.00908197 0.0244223 0.0260992 -0.0483075 0.0042872 -0.0322055 -0.0529418 0.00121288 0.0417907 0.0325757 -0.0672473 -0.0452579 -0.0397317 -0.0362879 -0.0313863 -0.0257421 -0.0478803 -0.0885998 -0.0899584 -0.0875213 -0.0748455 -0.0534614 0.0187811 -0.0698135 0.0360855 -0.00658318 0.00217357 0.0517689 0.0200706 0.00787018 -0.00565772 0.0260439 0.0289412 0.0289651 0.0243942 0.00914656 0.0311952 0.00972256 0.0221711 -0.0625077 -0.0465412 -0.0299391 -0.0951133 -0.0500807 -0.0669729 0.0114903 -0.0178475 0.0331266 0.0032219 0.0203782 -0.0179014 -0.0113086 -0.0315332 -0.011954 -0.0152209 -0.0271212 -0.00930442 -0.0320404 -0.0308721 -0.0705302 -0.0519061 0.053983 0.0470914 0.0416874 0.0437383 0.0196869 -0.0382688 0.0606091 -0.0810458 0.0464516 -0.0682709 -0.059188 -0.0470809 0.0183922 0.0158979 0.0182368 0.0242098 0.0183417 0.0243509 0.0122743 0.0359284 -0.00564982 -0.0312566 0.00787542 0.0112711 0.0165733 -0.01075 0.00475671 0.00787186 -0.0404838 -0.0493741 0.0333641 0.0194552 0.0446193 -0.00194737 -0.015084 0.0277938 0.0396604 0.0196045 0.0474005 0.0410883 0.0362988 0.0506498 -0.0357754 0.0309415 0.01417 0.0164414 -0.024096 0.00126275 -0.0196306 -0.0522552 0.0245753 0.0263136 -0.0305494 0.0511542 0.0405222 -0.0650083 -0.0702687 -0.0720616 0.0182846 0.0403716 -0.0735246 -0.0853909 -0.0863057 -0.070195 -0.0876698 -0.0956281 -0.0369996 0.0225693 0.00943181 0.00284122 -0.0175043 0.00190078 -0.0270916 -0.0715253 -0.0612725 -0.067348 0.0063462 0.000599377 -0.0186152 0.0593569 0.0200664 -0.0179892 -0.0334859 -0.0452897 -0.0237127 -0.0566495 -0.0203143 -0.0247334 -0.0535625 -0.0565326 -0.0367193 -0.0793994 -0.0772227 -0.0707503 -0.0630685 -0.0905261 -0.0866655 0.0476285 -0.00642082 0.0113882 0.0269448 -0.0661823 -0.0282526 0.0415789 -0.089032 -0.0850728 -0.0715448 -0.0864537 -0.0447469 -0.0839749
internal_weight=23028.6 14508.9 8519.63 5645.46 11883.4 2625.55 2874.18 2105.73 4645.07 1025.86 3995.2 3556.42 7888.19 4041.02 768.442 1721.57 3378.44 7768.76 1599.69 318.503 1877.53 341.751 1000.38 714.835 1174.72 1281.19 53.6072 662.577 291.999 607.539 530.425 5313.51 5253.84 45.3783 766.838 954.737 1678.89 702.804 604.054 659.371 95.3834 515.354 944.602 761.541 248.189 384.158 920.385 347.201 326.153 203.251 487.713 428.443 380.408 183.062 633.188 684.108 221.252 2455.25 622.829 3122.87 591.721 361.828 212.93 182.224 273.827 667.962 343.005 324.957 315.017 438.78 270.091 369.461 951.224 822.386 325.739 168.596 194.247 160.666 5208.46 518.65 116.44 1648.43 573.183 305.223 267.96 360.803 362.884 184.41 105.259 42.5585 148.898 1157.42 272.544 48.0351 812.095 444.263 395.859 321.133 246.401 52.9816 2995.41 2537.29 1724.66 43.274 278.266 131.493 542.526 137.798 113.385 50.495 491.014 114.453 69.8499 50.0642 262.593 242.12 504.984 361.052 111.667 249.385 284.926 607.244 128.838 192.199 248.188 812.633 106.096 48.3202 294.651 140.046 159.919 76.6106 40.2953 82.5696 72.0023 353.417 66.9952 332.331 109.959 222.371 237.944 36.4018 537.135 367.832 4195.38 436.216 313.89 304.11 44.4736 179.657 2185.16 458.114 563.987 482.72 177.691 91.2413 417.887 373.247 447.325 255.581 211.268 170.175 80.4757 34.7696 45.706 84.6176 274.969 238.914 192.754 46.1594 112.536 107.266 137.944 90.6895 239.054 74.868 884.872 77.8021 47.1606 70.332 164.186 141.933 1013.08 345.262 291.53 667.818 57.7761 222.578 358.318 327.877 20.8927 107.985 193.419 47.8909 84.0314 135.729 104.835 662.64 137.991 26.9096 255.574 244.955 131.333 143.932 305.029 1427.99 1346.15 81.8411 1231.64 301.684 294.45 119.435 192.147 131.937 51.1457 87.2349 93.8873 114.501 70.6538 59.2705 224.319 158.428 56.7758 132.293 65.8904 62.7009 152.747 68.79 83.9573 53.159 99.9998 89.7686 352.076 298.846 53.2305 436.149 392.608 233.76 146.522 21.7524 158.848 69.6155 41.0935 101.652 40.4405 155.766 305.526 158.091 186.518 929.961 86.9637 842.997 43.0401 727.899
internal_count=108168 70248 37920 24864 57936 12312 13056 9504 20352 4752 19272 17184 38664 17736 3552 7800 14808 38088 7560 1488 9024 1608 4512 3312 5664 6072 240 2928 1368 2688 2448 26016 25728 216 3456 4344 8160 3360 2616 3192 456 2472 4296 3456 1128 1704 4344 1632 1536 888 2208 1944 1728 840 3024 3144 1008 12072 2976 13680 2616 1680 984 840 1248 3072 1584 1488 1440 2088 1320 1680 4296 3720 1536 768 912 744 25512 2328 528 8016 2712 1440 1272 1728 1632 864 480 192 696 5616 1320 216 3672 2016 1800 1464 1128 240 13128 11112 7560 192 1248 624 2400 672 528 240 2400 552 336 240 1248 1152 2424 1728 528 1200 1344 2904 576 864 1128 3552 480 216 1392 648 768 360 192 384 336 1608 312 1536 504 1032 1080 168 2376 1656 20568 2136 1536 1488 216 816 10752 2016 2736 2136 792 408 1992 1776 2136 1224 1008 816 384 168 216 384 1296 1128 912 216 528 504 624 408 1152 360 4296 360 216 336 792 672 4944 1680 1416 3264 264 1080 1704 1560 96 504 888 216 408 648 480 3240 672 120 1128 1080 624 696 1344 6264 5904 360 5400 1320 1344 576 912 624 240 408 432 504 312 264 1056 744 264 648 312 288 696 312 384 240 456 408 1584 1344 240 1920 1728 1032 648 96 696 336 192 480 192 696 1392 768 816 4080 384 3696 192 3192
cat_boundaries=0 1 2 3 4 5 6 7
cat_threshold=18821 8706 9768 262 17960 1037 261
is_linear=0
shrinkage=0.05


Tree=3
num_leaves=255
num_cat=4
split_feature=23 23 24 23 23 1 23 23 9 23 9 23 27 1 24 21 2 23 24 27 30 2 8 27 24 30 1 2 19 4 12 17 2 30 15 27 12 25 19 1 15 31 27 19 0 31 30 27 3 30 27 8 0 27 4 30 0 30 30 15 10 0 15 3 0 4 0 8 27 0 9 19 21 8 19 8 1 27 15 9 15 15 27 1 1 0 4 12 12 4 12 4 30 30 1 8 19 27 0 1 1 12 4 15 31 4 12 8 20 21 12 31 31 3 10 1 27 4 4 19 19 4 24 5 1 30 0 0 30 3 27 8 1 15 24 4 24 19 8 12 8 12 1 19 8 3 12 0 0 8 8 8 4 17 19 24 3 0 27 0 1 21 27 17 1 27 27 30 20 30 30 4 12 1 1 31 24 30 27 12 5 4 4 17 12 3 8 27 1 0 12 3 30 3 4 27 4 17 3 30 4 12 27 27 1 4 24 12 3 4 15 31 4 15 8 30 12 30 1 5 1 1 0 30 12 12 30 27 0 12 27 1 1 4 19 3 31 27 8 20 30 4 4 12 0 0 27 1 8 4 1 4 12 0
split_gain=21372.6 1764.27 1278.72 432.594 363.944 185.878 165.53 87.6646 77.4728 68.4357 57.6575 55.7223 42.3761 40.6705 37.5039 37.174 34.746 35.0949 30.6162 30.3854 28.6592 25.3015 25.2573 24.2541 24.0843 29.2826 21.9494 21.4691 20.8645 19.2245 18.9808 18.4449 18.1736 18.1132 16.8404 24.6959 16.7565 16.7378 16.7353 16.6614 16.3151 16.3001 16.2087 15.7097 15.2614 17.3483 14.6958 23.3788 20.1055 14.4346 14.283 14.1819 14.0855 13.9937 22.0846 15.5374 13.9282 13.6447 13.6369 13.6005 13.5756 14.3053 15.3613 14.2241 13.4039 13.3345 13.3292 13.3136 13.2077 13.8047 13.1725 12.9727 12.9128 12.7005 12.6906 13.6361 15.9853 16.5115 12.5577 12.4505 12.0614 11.6658 11.5948 17.6539 13.4178 13.2356 11.5621 11.3404 11.3089 11.1155 11.4463 11.5119 10.9615 14.7213 13.0357 10.8798 10.8379 11.3612 10.7617 10.7096 10.6839 10.5367 22.8444 10.4579 10.4184 10.7022 10.6781 10.3951 10.3832 10.3231 10.1598 15.6566 10.0736 11.0725 10.3424 10.5566 10.7017 11.1347 9.97273 9.91958 9.83365 9.82975 9.81884 9.73816 9.70904 9.69254 9.94712 9.60569 9.51664 13.1911 9.41488 9.27895 9.26934 9.14405 9.02309 8.79569 8.7737 8.74533 8.73067 8.66979 10.9827 9.03913 8.48822 8.46091 8.40498 8.30038 8.24785 19.0032 11.4597 8.24042 8.21792 8.14765 8.13848 10.2322 9.18284 9.59106 8.13658 8.09707 8.06389 9.90025 8.14431 8.05233 16.381 14.873 8.02962 8.06249 14.979 11.8158 9.21507 15.6129 17.844 11.3854 10.8184 16.9427 10.4384 8.74815 8.29507 7.88555 7.85807 7.85235 7.80753 7.77269 8.03787 15.4557 13.1933 9.45758 7.77087 7.76229 8.4503 8.33377 7.74411 7.74391 8.99155 7.73714 7.71902 7.60898 7.48425 7.40122 9.87956 7.33565 7.31071 7.22509 7.21677 8.23833 7.83054 7.45379 9.96275 8.43422 8.66484 7.71893 7.9779 7.13025 7.11888 7.06619 6.96811 6.96247 6.96018 6.91663 6.87575 6.8734 6.83893 6.77939 6.77845 6.73545 6.7344 6.90745 8.81577 8.19517 7.46639 6.72709 6.66421 6.61583 6.53596 6.53581 6.52785 6.52744 13.5134 11.0134 9.80191 12.6424 9.09682 8.69807 14.644 12.2886 9.67156 15.9141 11.6635 13.3454 10.2682 9.98745 9.05812 8.69397 7.59909 7.09612
threshold=12.500000000000002 20.500000000000004 4.5000000000000009 6.5000000000000009 42.500000000000007 5.5150000000000006 6.5000000000000009 2.5000000000000004 0 2.5000000000000004 1 30.500000000000004 0.48500416761241733 5.5950000000000006 5.5000000000000009 1.0000000180025095e-35 1.0000000180025095e-35 90.500000000000014 4.5000000000000009 4.3390380097697401 7.1719595310412361 1.0000000180025095e-35 6.2100000000000009 0.054765257806293557 3.5000000000000004 3.7201238721270995 7.330000000000001 1.0000000180025095e-35 3.9550000000000005 29.862954159251171 9.1559373607005998 6.5000000000000009 1.0000000180025095e-35 13.798908460130223 5.5000000000000009 3.6284849804066619 1.0000000180025095e-35 1.0000000180025095e-35 5.2950000000000008 5.1950000000000012 11.500000000000002 4.5000000000000009 1.0000000180025095e-35 3.8750000000000004 4.8950000000000005 7.5000000000000009 4.0804091235410409 0.16021655454427067 10.500000000000002 8.8318326369944522 0.61141876825490615 5.2150000000000007 4.6350000000000007 14.650481247712905 0.44225385964600233 10.167880548152784 5.5850000000000009 1.7512166960722413 0.017174401149859155 1.5000000000000002 1.0000000180025095e-35 4.3750000000000009 9.5000000000000018 12.500000000000002 1.0000000180025095e-35 0.017174401149859155 6.3000000000000007 7.1350000000000007 5.1799497743393497 7.1350000000000007 2 4.2650000000000006 1.0000000180025095e-35 7.0850000000000009 7.4650000000000007 4.8350000000000009 5.995000000000001 2.3105331697634397 9.5000000000000018 3 2.5000000000000004 3.5000000000000004 17.68917467667632 3.2150000000000003 4.785000000000001 3.7550000000000003 36.780713859163434 0.28670661257482555 1.1704427209548187 11.315559301474098 9.2956618686605914 9.7661814187158367 8.1790131516301141 5.3100011496765029 7.0850000000000009 5.1150000000000011 4.1650000000000009 5.0031270022971652 5.0950000000000006 3.4550000000000005 4.4250000000000007 7.1947992644223238 4.0385022829879516 6.5000000000000009 9.5000000000000018 16.495306294831938 7.789032343822293 5.9250000000000007 2.5000000000000004 1.0000000180025095e-35 1.3046231122056919 3.5000000000000004 9.5000000000000018 8.5000000000000018 1.0000000180025095e-35 3.2350000000000008 15.485177975800815 1.6500926601870809 2.1790455081898967 3.2150000000000003 4.1650000000000009 1.1704427209548187 12.500000000000002 1.0000000180025095e-35 4.035000000000001 6.7758003398823758 3.3950000000000005 7.0300000000000002 3.7854614570510869 6.5000000000000009 0.18023757087916284 3.3950000000000005 6.3400000000000007 7.5000000000000009 5.5000000000000009 16.495306294831938 8.5000000000000018 4.2950000000000008 7.5950000000000006 1.6035354517503235 4.5450000000000008 0.13109609738596253 6.0550000000000006 7.455000000000001 4.2150000000000007 14.500000000000002 8.6997076533997024 3.3750000000000004 3.7750000000000004 6.1350000000000007 7.330000000000001 3.1850000000000005 13.206591357357071 3.5000000000000004 7.5950000000000006 6.5000000000000009 3.5000000000000004 4.1150000000000011 2.5871860097852117 6.705000000000001 7.0300000000000002 1.0000000180025095e-35 0.20661554969114995 5.5000000000000009 7.455000000000001 10.351653641628142 9.8881762629524186 5.962830438051939 2.5000000000000004 14.441414461545753 12.836805465201033 5.452487572037783 12.976574278847838 3.5650000000000004 3.8750000000000004 14.500000000000002 8.5000000000000018 1.8396510350591517 3.1103096805069117 9.726308642713116 1.0000000180025095e-35 0.44225385964600233 5.3595385164830729 3.5000000000000004 9.0618322774034166 1.5000000000000002 7.4650000000000007 4.5604804632635805 4.6850000000000014 7.4650000000000007 14.599964955657622 3.5000000000000004 5.5535037065284429 10.500000000000002 20.528192282813794 3.8963438315418655 0.13109609738596253 1.5000000000000002 6.5000000000000009 2.4372994319312804 0.89362353071399969 3.8943870129403484 2.5871860097852117 1.0449496893469783 3.3950000000000005 5.6978897885365756 6.5000000000000009 3.2784588380819888 5.5000000000000009 0.48500416761241733 1.5000000000000002 12.500000000000002 6.1570263251045256 6.5000000000000009 6.8950000000000005 8.7640697527279965 21.914906828423785 0.70815690257776287 3.7250000000000005 1.0000000180025095e-35 5.2550000000000008 7.4650000000000007 6.3400000000000007 0.70815690257776287 2.4402865985941165 9.2271391455602139 0.56788218785549349 5.2340507182535543 6.830000000000001 0.22741563668553491 8.2772271228246037 7.0300000000000002 3.9550000000000005 18.613956099261959 3.3450000000000002 6.5000000000000009 4.5000000000000009 8.5730620800571042 7.5950000000000006 3.5000000000000004 10.728570440821663 3.3704019125274649 3.7959427670534627 2.2173533134912717 7.0550000000000006 6.3400000000000007 2.8207237451402571 7.0550000000000006 3.9850000000000008 10.22261926938455 7.330000000000001 0.48500416761241733 9.3895650537309638 5.7250000000000005
decision_type=2 2 2 2 2 2 2 2 9 2 9 2 2 2 2 2 2 2 2 2 2 2 2 2 2 2 2 2 2 2 2 2 2 2 2 2 2 2 2 2 2 2 2 2 2 2 2 2 2 2 2 2 2 2 2 2 2 2 2 2 2 2 2 2 2 2 2 2 2 2 9 2 2 2 2 2 2 2 2 9 2 2 2 2 2 2 2 2 2 2 2 2 2 2 2 2 2 2 2 2 2 2 2 2 2 2 2 2 2 2 2 2 2 2 2 2 2 2 2 2 2 2 2 2 2 2 2 2 2 2 2 2 2 2 2 2 2 2 2 2 2 2 2 2 2 2 2 2 2 2 2 2 2 2 2 2 2 2 2 2 2 2 2 2 2 2 2 2 2 2 2 2 2 2 2 2 2 2 2 2 2 2 2 2 2 2 2 2 2 2 2 2 2 2 2 2 2 2 2 2 2 2 2 2 2 2 2 2 2 2 2 2 2 2 2 2 2 2 2 2 2 2 2 2 2 2 2 2 2 2 2 2 2 2 2 2 2 2 2 2 2 2 2 2 2 2 2 2 2 2 2 2 2 2
left_child=2 5 6 9 10 8 7 49 50 39 56 18 37 60 27 22 17 29 46 34 58 53 23 -8 25 68 79 31 -17 42 -31 52 71 44 35 67 -21 101 64 -4 43 -28 -6 197 73 86 47 51 65 130 -2 -12 157 55 -55 145 -3 78 -16 -58 61 217 63 138 -27 -49 190 121 146 98 88 108 136 211 75 76 -59 -78 96 201 -40 132 83 -52 104 -86 196 231 -38 90 91 110 93 -77 -95 -94 -45 107 137 -73 218 102 -7 125 105 -85 -106 -98 187 128 -81 200 113 114 115 116 117 -60 -30 -87 -121 -10 -119 -41 213 -82 -127 149 129 195 -1 -67 -26 -75 -99 -103 215 -70 -63 140 -66 -142 229 -79 -125 180 148 -148 -15 -123 -90 -122 154 -154 155 -115 -104 -11 160 -160 -89 194 -163 -164 165 166 168 214 169 170 171 -44 175 -174 -173 176 235 179 -134 212 220 -48 183 184 221 -185 202 188 -13 -189 -22 -176 -193 -126 -19 -54 -46 198 -14 -118 -112 -25 203 -117 -204 206 207 -206 -209 -208 -211 -20 -61 -72 -168 -56 -184 -9 -68 -138 230 -183 -196 -157 -133 226 -226 -228 -229 -130 -5 -24 -188 -158 -141 236 238 -237 241 -240 -238 252 243 -243 245 248 247 -247 -244 -248 -250 -241 -170 -254
right_child=1 4 3 21 16 12 15 13 19 14 11 32 40 24 20 28 -18 161 33 36 66 -23 87 26 81 38 41 -29 118 30 -32 -33 -34 -35 -36 -37 70 -39 80 123 -42 -43 164 57 45 -47 181 48 -50 -51 82 -53 109 54 72 -57 59 74 112 177 -62 62 -64 -65 139 131 100 -69 69 -71 124 99 -74 133 -76 92 77 143 -80 89 103 -83 -84 84 85 119 -88 158 150 -91 -92 -93 95 94 -96 -97 97 134 -100 -101 -102 135 156 -105 106 -107 -108 -109 -110 -111 111 -113 -114 152 -116 186 199 122 -120 120 151 127 -124 144 193 126 -128 -129 142 -131 -132 224 178 -135 -136 -137 219 -139 -140 234 141 -143 -144 -145 -146 -147 147 -149 -150 -151 -152 -153 153 -155 -156 223 233 -159 159 -161 -162 162 163 -165 -166 -167 167 -169 172 -171 -172 174 173 -175 191 -177 -178 -179 -180 -181 -182 182 216 185 -186 -187 232 189 -190 -191 -192 192 -194 -195 222 -197 -198 -199 -200 -201 -202 -203 204 -205 205 -207 209 208 -210 210 -212 -213 -214 -215 -216 -217 -218 -219 -220 -221 -222 -223 -224 -225 225 -227 227 228 -230 -231 -232 -233 -234 -235 -236 237 240 -239 239 251 -242 242 244 -245 -246 246 249 -249 250 -251 -252 -253 253 -255
leaf_value=-0.08860261336868086 -0.069233610648056929 0.023204587297871216 -0.10212776901787012 0.0094490649713773866 0.018483595872165789 0.029111848109450441 0.019752106933269401 -0.013800620311488538 -0.051878077024435566 -0.071183577644904267 0.036649965076866103 -0.0012116544591647192 0.03151899276046248 -0.06479440539388337 -0.098940193859667958 0.0089408721590053513 0.027375105696236069 0.059201764134646832 0.039977355038714017 0.062628475596654784 -0.077871127527605652 -0.085223577942813877 -0.00089276340780912542 -0.030275849904993546 -0.06538757217708327 -0.061613035579044163 0.018556703452452326 -0.11656584663068995 -0.0032749558912943456 -0.025900890221328465 0.041780925060247387 -0.013132783676537389 0.0041739559438557644 0.046202377927869291 -0.044612430531397268 -0.055788687342448462 -0.016666479822547903 -0.043406585218297267 -0.01355582636113337 -0.11922694465815165 -0.017620451943479356 -0.022679236519654821 0.048364685003029907 -0.038190082372174992 -0.024826060586778984 -0.026314739394017309 0.054597809927486078 -0.010076886933049587 -0.010605150456979059 -0.094757784635535358 -0.004352270713234436 -0.021221994639520438 -0.064839420286545713 -0.09445585478908744 -0.00027170402015211603 -0.014434894335089266 -0.049213446015674706 0.0010338748548130844 -0.091388855061456067 -0.015048639161844016 0.029910014104268717 -0.063236139195139526 -0.015789560782203185 0.021308632750030559 0.047603619352371562 -0.0011462013699824062 -0.03457335595747639 0.03096414507018835 -0.054695469034807181 -0.064831301555341933 -0.00091051063869460004 0.057014122720854647 0.032389815231109502 -0.0034172306878724745 -0.014435105889113545 0.020976461275790469 0.0073604561957360138 0.052160879308398966 0.04900473446982806 -0.0067309578717383717 -0.030826931881934656 -0.036992295255533013 -0.05107495361887613 -0.032891505966575467 -0.045854859156937981 0.040029563887245524 -0.056701246939449605 -0.037735123129482941 0.038814632787557597 0.015860681822904479 0.00062589285352083199 -0.054139939833300482 -0.01804330339035445 0.0079298915178947511 -0.027450203951595586 0.036803635080525622 0.009512312952098886 0.022123408617915851 0.0026005768714097563 0.038983084766187906 -0.029910128165278983 -0.036532949047684803 0.019482313318773876 0.0052867952680115378 0.065743394662835949 0.039594888181481797 -0.014256602553206627 -0.023945891675438549 0.059117155303056161 0.0067667015471936098 -0.081899012451428055 -0.0094481581291264508 -0.090263446216749449 -0.073540557978161822 -0.056098430821942241 -0.080537795697840364 -0.10620216229852995 -0.065126203296128268 -0.078209849079727792 -0.035913317455382787 -0.046312777159220997 0.042780178959187738 -0.03453382563654931 -0.09496725616244038 0.01112578784026896 -0.0010360147101940926 -0.076032960366170466 -0.025597559709782974 -0.023062904810540089 -0.069396427190704699 -0.057804997768343004 0.049889224916546869 -0.051370591691301308 0.038164151977923215 -0.04407023353143659 0.0093925054083262606 0.012412662560529926 -0.01612482690083351 0.0019405593030422141 0.019631828917753023 -0.069584841254620416 -0.017778374462463005 -0.031125831343194944 0.019213008862097196 -0.068675871561602583 -0.10934910571631654 -0.014753296292665389 -0.07088876936861245 -0.033369906433901191 -0.0013279373179673482 0.0072259698490841923 -0.00072168610079677525 -0.079720826341284745 -0.028388174529074602 -0.024864618959829433 -0.10652808395550206 -0.026649863907143981 -0.090920856739049843 0.022092602110235574 -0.020787537121544991 0.005369080059747738 -0.0013082377325007392 0.056010708423920634 0.0039502842932401354 0.056443308593296215 0.055127318802212534 -0.022750128114876325 0.038474769085683064 0.054891175330268507 0.066192142837173423 -0.027508475530103528 -0.0042097828192043307 -0.022541402943766092 0.044035845364703508 0.016240696377824656 -0.012021628393378541 0.059809841847842854 0.015497681493914325 -0.0079237080556790584 -0.065005012357704423 -0.048729027657874902 0.032185629510682899 0.044179402230217241 -0.02296159735969798 -0.017063939122429338 0.044903679955854391 -0.034679589229130559 0.053059020656202473 0.039045354858388247 -0.012687116519964218 -0.033294501351341911 0.016781564603038968 0.052581763756469758 -0.033427776624147219 0.0083346565860058612 -0.038022630180448491 0.018195026024081771 0.033252855639888772 -0.022169839534971706 -0.076800730270382478 -0.037555225964840337 -0.061463329158764526 -0.095418157766840678 -0.099313750836461975 -0.085873350303585755 -0.075178369546986243 -0.098752320152845255 -0.04859481656851012 -0.081424031367759636 -0.10395896320074499 -0.080990801236001789 -0.0031065138248738467 0.026942647431804204 -0.031776487427402751 0.046094254123354432 -0.046206013811840939 -0.013449267751950447 -0.043228636174177826 -0.072843315525769878 -0.047935700687836841 -0.047867123830376009 0.0048609194818958687 0.062739186495448115 -0.090263063164263094 0.050036833558903274 0.048354281300072216 0.014446727301532859 0.055496663293579933 0.011667174139022607 -0.081969633779931966 -0.03606220141598572 -0.057440448045585679 -0.074216860122721884 0.031703655588237907 -0.0048611352480664415 0.055891096416454122 0.050295259363560121 0.026362761396324725 0.047667518321865485 0.05608019180000956 0.06173945094088077 -0.024762382129076499 0.0085552520946940974 0.033462164298983264 0.054683233158354085 -0.0076102398092123243 0.047852847061062936 0.057790993067259648 0.055214399342040754 0.00073373219173289005 -0.013811979096882396 -0.018622695264696631 0.066350086726658916 -0.0072310750344612264
