tree
version=v4
num_class=1
num_tree_per_iteration=1
label_index=0
max_feature_idx=22
objective=regression
feature_names=word_len word_len_sq n_diacritics is_capitalized starts_sentence ends_punct has_non_alpha zipf_frequency n_syllables vowel_consonant_ratio is_stopword participant_id page_num word_idx is_NE NE_type POS_tag is_content_word contextual_surprisal morph_count case_encoded verb_form is_inflected
feature_infos=[1:47] [1:2209] [0:5] [0:1] [0:1] [0:1] [0:1] [0:7.7199999999999998] [0:15] [0:1] [0:1] [14:50] [1:14] [0:116] [0:1] [0:16] [0:15] [0:1] [0:69.102428134530783] [0:8] [-1:4] [-1:3] [0:1]
tree_sizes=23498 23628 23988 23540 23634 23586 23670 23505 23594 24081 24110 24183 23491 23552 23561 23551 23538 23580 23597 23349 23347 24120 24106 24160 23379 23358 24232

Tree=0
num_leaves=255
num_cat=0
split_feature=7 8 7 8 18 7 18 8 7 13 11 11 11 11 11 11 11 11 19 13 12 7 18 12 11 11 7 8 9 8 13 12 5 18 12 9 13 11 9 19 8 7 9 11 18 18 11 11 11 11 12 13 11 13 11 11 15 11 11 18 18 9 18 7 8 13 7 11 11 18 13 7 19 9 15 18 15 15 7 13 18 18 11 12 13 8 7 11 11 11 15 5 11 13 12 15 11 11 11 18 19 12 8 2 9 9 11 11 11 12 14 15 5 9 8 9 11 12 13 18 18 13 7 18 12 8 15 7 8 18 12 13 17 2 18 14 9 13 9 5 11 11 11 18 18 11 11 11 17 15 12 8 18 8 12 9 12 9 20 18 7 5 13 8 13 13 14 9 5 11 11 13 18 13 19 5 20 13 12 11 11 11 11 18 2 19 11 11 18 18 12 18 7 12 18 13 18 13 13 11 8 13 12 13 22 8 8 11 11 11 11 11 18 8 13 12 12 11 2 8 9 9 19 13 18 7 19 18 19 9 18 9 2 19 18 11 11 7 15 9 7 7 21 12 13 8 4 7 12 8 13 13 18 15
split_gain=5.48076e+10 9.24053e+09 7.64654e+09 2.86423e+09 1.99083e+09 1.75669e+09 1.36996e+09 1.0815e+09 9.68851e+08 7.39371e+08 5.85795e+08 1.09036e+09 5.69266e+08 7.03124e+08 1.26516e+09 6.97543e+08 6.21135e+08 5.24467e+08 4.86112e+08 5.206e+08 4.57924e+08 4.53659e+08 4.17881e+08 4.10275e+08 4.0218e+08 7.44323e+08 3.98608e+08 4.76913e+08 7.01806e+08 3.61089e+08 3.56362e+08 3.50048e+08 4.06097e+08 4.06383e+08 3.91304e+08 3.47888e+08 3.36117e+08 2.9862e+08 2.95611e+08 2.89513e+08 4.04715e+08 2.82813e+08 2.79694e+08 2.74069e+08 2.63689e+08 3.3589e+08 2.63421e+08 3.90292e+08 2.4826e+08 3.34811e+08 2.41735e+08 2.35466e+08 2.31139e+08 2.31087e+08 2.22934e+08 2.16476e+08 1.87594e+08 1.83822e+08 2.5927e+08 2.56001e+08 3.36754e+08 2.10267e+09 1.83689e+08 1.74072e+08 1.72567e+08 2.11646e+08 1.62702e+08 1.62551e+08 2.13421e+08 1.58605e+08 1.58328e+08 1.56485e+08 1.54545e+08 1.52696e+08 1.47583e+08 1.46891e+08 1.84309e+08 1.86504e+08 1.46143e+08 1.43398e+08 1.37933e+08 1.37007e+08 1.35621e+08 1.31912e+08 1.91238e+08 1.28066e+08 1.27648e+08 1.24134e+08 2.58606e+08 2.73629e+08 1.18649e+08 1.28364e+08 1.13345e+08 1.3126e+08 1.12958e+08 1.12768e+08 1.1267e+08 1.89754e+08 1.94226e+08 1.12184e+08 1.11852e+08 1.11585e+08 1.05593e+08 1.04898e+08 1.0452e+08 1.06065e+08 1.04359e+08 3.70059e+08 3.53452e+08 1.15503e+08 1.03715e+08 1.02973e+08 1.00709e+08 9.87699e+07 9.4919e+07 9.42382e+07 9.35814e+07 9.31749e+07 9.45658e+07 1.0234e+08 9.27713e+07 9.24684e+07 1.02167e+08 9.18834e+07 8.9436e+07 8.87828e+07 1.75586e+08 8.833e+07 9.66004e+07 8.81052e+07 1.71002e+08 2.24201e+08 1.67533e+08 9.59577e+07 8.59799e+07 8.58118e+07 1.54182e+08 8.5145e+07 8.43864e+07 1.39257e+08 8.27404e+07 2.09637e+08 8.16846e+07 8.13945e+07 8.09264e+07 8.08759e+07 1.06711e+08 8.02985e+07 8.01639e+07 7.99225e+07 7.97675e+07 7.9303e+07 8.68193e+07 7.91503e+07 7.86721e+07 7.73803e+07 7.67335e+07 8.30785e+07 1.32885e+08 2.01729e+08 4.35344e+08 7.65126e+07 2.41318e+08 7.74421e+07 7.6273e+07 1.13968e+08 9.0354e+07 9.48654e+07 7.6211e+07 7.44768e+07 1.63849e+08 7.44665e+07 1.67674e+08 1.09985e+08 7.9641e+07 8.02127e+07 7.44592e+07 7.4043e+07 1.20278e+08 1.32537e+08 5.11892e+08 7.38063e+07 9.94243e+07 7.35887e+07 9.63629e+07 8.46479e+07 7.17887e+07 1.19452e+08 7.08236e+07 7.97297e+07 6.93283e+07 1.12403e+08 8.39822e+07 2.88102e+08 6.92283e+07 7.04044e+07 9.25787e+07 6.91321e+07 6.90922e+07 6.97407e+07 6.88993e+07 7.04626e+07 6.84783e+07 6.78285e+07 6.78128e+07 7.77987e+07 7.21177e+07 6.66698e+07 7.9613e+07 1.05548e+08 1.12597e+08 1.0422e+08 1.74025e+08 8.77523e+07 6.64286e+07 6.58696e+07 6.56655e+07 6.52368e+07 6.65849e+07 6.49685e+07 6.49124e+07 6.48384e+07 6.30909e+07 6.28562e+07 6.25968e+07 6.19562e+07 6.30582e+07 6.1543e+07 6.12526e+07 6.15689e+07 7.17315e+07 9.88791e+07 6.25159e+07 6.09875e+07 6.0674e+07 5.95083e+07 1.5573e+08 5.94155e+07 6.09934e+07 5.9262e+07 5.92229e+07 5.91366e+07 5.88095e+07 5.82293e+07 5.81376e+07 5.81374e+07 5.7508e+07 8.17395e+07 5.72893e+07 6.52081e+07 6.51634e+07 5.72479e+07 7.12537e+07 5.70848e+07
threshold=5.8050000000000006 2.5000000000000004 3.0250000000000004 1.5000000000000002 13.084449052810671 4.0650000000000004 10.853670133277776 1.5000000000000002 7.0300000000000002 9.5000000000000018 47.000000000000007 44.500000000000007 21.500000000000004 47.000000000000007 44.500000000000007 27.500000000000004 29.500000000000004 17.500000000000004 1.0000000180025095e-35 4.5000000000000009 8.5000000000000018 5.035000000000001 21.929103493690494 5.5000000000000009 47.000000000000007 44.500000000000007 4.3750000000000009 1.0000000180025095e-35 0.18333333333333332 1.0000000180025095e-35 18.500000000000004 5.5000000000000009 1.0000000180025095e-35 10.400019913911821 4.5000000000000009 0.48529411764705882 7.5000000000000009 32.500000000000007 0.32051282051282054 5.5000000000000009 5.5000000000000009 5.9350000000000014 0.41421568627450983 21.500000000000004 8.1307195564731973 8.3496646806597727 27.500000000000004 29.500000000000004 47.000000000000007 44.500000000000007 8.5000000000000018 6.5000000000000009 21.500000000000004 9.5000000000000018 47.000000000000007 17.500000000000004 13.500000000000002 32.500000000000007 31.000000000000004 7.7628686428070077 8.2652081069536525 0.5634920634920636 2.5531036853790288 3.8950000000000005 3.5000000000000004 10.500000000000002 5.2250000000000005 24.500000000000004 22.500000000000004 2.7298649549484257 11.500000000000002 3.7050000000000005 5.5000000000000009 0.39230769230769236 14.500000000000002 12.810477524995806 10.500000000000002 12.500000000000002 3.7450000000000006 9.5000000000000018 7.9761881828308114 17.609095171093944 17.500000000000004 5.5000000000000009 5.5000000000000009 3.5000000000000004 4.9050000000000011 26.500000000000004 24.500000000000004 22.500000000000004 13.500000000000002 1.0000000180025095e-35 31.000000000000004 27.500000000000004 9.5000000000000018 14.500000000000002 21.500000000000004 27.500000000000004 29.500000000000004 21.929103493690494 5.5000000000000009 5.5000000000000009 4.5000000000000009 1.0000000180025095e-35 0.48529411764705882 0.77500000000000013 24.500000000000004 22.500000000000004 26.500000000000004 1.5000000000000002 1.0000000180025095e-35 8.5000000000000018 1.0000000180025095e-35 0.5634920634920636 1.5000000000000002 0.32051282051282054 17.500000000000004 4.5000000000000009 14.500000000000002 3.6896266937255864 5.1246116161346444 47.500000000000007 3.4550000000000005 15.945622628554704 2.5000000000000004 3.5000000000000004 6.5000000000000009 4.2950000000000008 4.5000000000000009 14.437508642673494 2.5000000000000004 53.500000000000007 1.0000000180025095e-35 1.0000000180025095e-35 6.1585454940795907 1.0000000180025095e-35 0.54195804195804198 10.500000000000002 0.39230769230769236 1.0000000180025095e-35 21.500000000000004 24.500000000000004 14.500000000000002 3.4033012390136723 6.7382810115814218 49.500000000000007 44.500000000000007 22.500000000000004 1.0000000180025095e-35 8.5000000000000018 1.5000000000000002 4.5000000000000009 5.4993723386141946 4.5000000000000009 11.500000000000002 0.81666666666666676 8.5000000000000018 0.4494949494949495 2.5000000000000004 2.663379549980164 4.1650000000000009 1.0000000180025095e-35 63.500000000000007 3.5000000000000004 37.500000000000007 27.500000000000004 1.0000000180025095e-35 0.48529411764705882 1.0000000180025095e-35 43.500000000000007 44.500000000000007 8.5000000000000018 8.859526991844179 34.500000000000007 2.5000000000000004 1.0000000180025095e-35 2.5000000000000004 34.500000000000007 12.500000000000002 44.500000000000007 47.000000000000007 41.500000000000007 29.500000000000004 6.3851734399795541 1.5000000000000002 1.0000000180025095e-35 27.500000000000004 17.500000000000004 6.4263896942138681 7.8265370130538949 7.5000000000000009 6.8799502849578866 4.2750000000000012 6.5000000000000009 4.2409668945474559 30.500000000000004 14.437508642673494 9.5000000000000018 9.5000000000000018 49.500000000000007 6.5000000000000009 26.500000000000004 3.5000000000000004 20.500000000000004 1.0000000180025095e-35 5.5000000000000009 4.5000000000000009 31.000000000000004 49.500000000000007 44.500000000000007 38.500000000000007 47.000000000000007 26.248322159051899 8.0000000000000018 12.500000000000002 3.5000000000000004 4.5000000000000009 47.000000000000007 2.5000000000000004 6.5000000000000009 0.5634920634920636 0.48529411764705882 4.5000000000000009 53.500000000000007 6.1217598915100107 4.2550000000000008 4.5000000000000009 6.8147304151207218 4.5000000000000009 0.45804195804195807 8.3496646806597727 0.44173441734417346 1.0000000180025095e-35 5.5000000000000009 6.4263896942138681 35.500000000000007 33.500000000000007 4.3250000000000011 4.5000000000000009 0.4494949494949495 3.8750000000000004 3.7250000000000005 2.5000000000000004 4.5000000000000009 14.500000000000002 3.5000000000000004 1.0000000180025095e-35 3.9650000000000003 8.5000000000000018 2.5000000000000004 15.500000000000002 10.500000000000002 3.5676219463348393 8.5000000000000018
decision_type=2 2 2 2 2 2 2 2 2 2 2 2 2 2 2 2 2 2 2 2 2 2 2 2 2 2 2 2 2 2 2 2 2 2 2 2 2 2 2 2 2 2 2 2 2 2 2 2 2 2 2 2 2 2 2 2 2 2 2 2 2 2 2 2 2 2 2 2 2 2 2 2 2 2 2 2 2 2 2 2 2 2 2 2 2 2 2 2 2 2 2 2 2 2 2 2 2 2 2 2 2 2 2 2 2 2 2 2 2 2 2 2 2 2 2 2 2 2 2 2 2 2 2 2 2 2 2 2 2 2 2 2 2 2 2 2 2 2 2 2 2 2 2 2 2 2 2 2 2 2 2 2 2 2 2 2 2 2 2 2 2 2 2 2 2 2 2 2 2 2 2 2 2 2 2 2 2 2 2 2 2 2 2 2 2 2 2 2 2 2 2 2 2 2 2 2 2 2 2 2 2 2 2 2 2 2 2 2 2 2 2 2 2 2 2 2 2 2 2 2 2 2 2 2 2 2 2 2 2 2 2 2 2 2 2 2 2 2 2 2 2 2 2 2 2 2 2 2 2 2 2 2 2 2
left_child=1 6 4 8 24 10 7 29 35 54 11 23 17 14 15 69 -17 -11 30 110 83 48 177 43 25 31 27 -8 74 -1 81 32 39 42 -35 73 -13 92 120 40 56 248 -34 55 -33 -46 87 -48 49 52 129 -47 82 -27 86 -4 96 58 -49 121 61 63 245 -61 246 -66 101 68 -54 -14 -23 72 143 -2 -29 76 164 -78 214 -43 151 -6 -9 84 169 -24 94 88 89 -45 251 -92 112 115 102 127 116 -98 -99 -32 221 -64 -7 149 -72 -106 107 -71 -108 233 -20 -37 -18 -44 -28 -94 -3 134 -119 -120 -31 122 183 -52 -100 -38 -127 156 216 237 131 -131 -132 203 -69 -130 -137 -12 139 -136 142 147 -81 -59 -117 146 -86 -142 -148 -82 194 -55 -153 -145 204 -51 157 158 -16 -160 -161 -151 163 -163 165 166 167 -53 -101 -21 -171 172 -62 174 -173 176 -176 178 -22 -180 -181 182 -42 185 -185 -60 187 -36 -80 240 191 -146 193 -193 -91 196 -196 -89 -26 -200 201 -74 253 -134 206 -206 -105 -83 209 210 213 -211 -213 -209 -67 -70 -129 220 -219 -90 -150 -85 -73 -197 -218 -104 -227 -88 241 230 -230 -232 -233 -109 -140 236 -202 238 -30 -155 -190 -128 -95 -110 -113 -39 -25 -248 249 -5 -251 -40 -253 -122
right_child=3 2 5 41 18 9 26 21 -10 12 137 36 13 -15 95 16 37 -19 19 20 22 70 85 64 198 53 114 28 50 38 99 44 33 34 186 111 125 62 90 -41 181 79 113 46 45 51 47 57 -50 155 123 75 67 80 -56 -57 -58 71 59 60 171 -63 66 -65 65 78 -68 117 215 106 104 222 200 -75 -76 -77 77 -79 188 140 103 207 -84 100 145 -87 227 197 219 150 91 -93 93 242 -96 -97 97 98 124 168 -102 -103 225 154 105 -107 108 109 243 -111 -112 244 -114 -115 -116 144 -118 118 119 -121 202 -123 -124 -125 -126 126 228 128 135 130 132 -133 133 -135 138 136 -138 -139 234 -141 141 -143 -144 153 190 -147 148 -149 217 161 -152 152 -154 239 -156 -157 -158 -159 159 160 -162 162 -164 -165 -166 -167 -168 -169 -170 170 -172 173 -174 -175 175 -177 -178 -179 179 180 -182 -183 -184 184 -186 -187 -188 -189 189 -191 -192 192 -194 -195 195 223 -198 -199 199 -201 235 -203 -204 -205 205 -207 -208 208 -210 211 -212 212 -214 -215 -216 -217 224 218 -220 -221 -222 -223 -224 -225 -226 226 -228 -229 229 -231 231 232 -234 -235 -236 -237 -238 -239 -240 -241 -242 -243 -244 -245 -246 -247 247 -249 -250 250 -252 252 -254 -255
leaf_value=254.63256624994006 262.64086334973564 283.10154639388998 278.44585763301745 267.53748524685659 293.876654883019 270.62117679882607 254.79204842883539 269.56824305317485 257.39872980641593 273.34845019973818 263.91439497270136 269.08994075105142 274.5142160566761 267.9655832041048 298.41582374022823 267.28878947695881 273.29809270949323 265.72486364359582 273.27268861570252 311.20136040136617 294.48951067366301 263.69667947119245 305.89225441484143 272.85345884031977 263.32163916129463 276.53172777329621 261.59021175134956 294.93876894859824 286.01030205129615 265.96773291410392 286.65654013398574 275.27767547371121 309.46390873384792 299.76299351634833 304.17710665010247 265.33833629682539 288.30296292872833 269.36529360382059 259.91287949409684 272.26386557351111 303.56013390096928 260.59054214405097 286.57504926808247 278.78595757551835 307.81761078465627 266.86549395016061 270.86078886208071 278.03299128961379 264.98149132487521 278.53752567522059 265.83350756342514 285.51717417945804 269.92702587647955 292.24845849721959 261.45562624463793 269.98500098314639 310.52110322030592 274.75180059284423 377.74529640541022 292.80865090306884 355.91587498806945 752.29680358849782 275.9808841496066 421.39978145524412 270.6658295832861 290.60231061672209 270.05614738480688 270.44332308472559 284.79971542655812 275.70498589471731 268.98664964901207 272.72655561913029 305.30941488286436 271.5880081002731 320.25007486584548 269.63022936261694 320.42429278149928 289.01015623509363 272.8744536052489 266.05363218645726 369.83301611279802 310.68270670977813 264.10027822165688 272.48832445058815 290.95057954341382 325.14920195311879 266.03268421796503 277.78776354502554 273.77140259568324 285.98060091152831 266.51511641739052 290.89165279997502 373.35991434560958 276.85150891122009 265.77037239189048 341.88074086307552 291.06300985672101 272.02644748825526 287.79723325660632 306.42854107393521 302.52337043219615 272.94672769405423 270.9567586720155 398.17719009311782 266.07205976117319 277.29030725585625 271.76166492292111 294.38000556109313 285.81692670967925 284.78883705465552 287.13151845551732 258.52237730874697 282.07960253659172 271.23956190313186 270.80379620458541 282.12835472425098 272.2313665491825 266.03182708687308 267.51924438659637 271.322307605059 288.07537738399958 277.31749497658342 284.09785084830406 277.92569456008817 281.31393626846346 381.62302973016597 295.93876349384425 286.79013458471701 292.39231820788274 284.75593377097698 291.3396565369996 316.97344650852199 269.03655639089664 293.03302223502089 276.82421435968456 309.25567070803527 433.31008045856635 271.20795006861056 290.21524799072148 305.54850687234023 266.34721835677504 263.88556860973176 260.28771135763259 279.91220557091225 368.19540909788645 269.3746778298372 272.70912201558974 273.34877993495354 343.31328688419188 314.17680602271713 289.39828074684863 347.03048688689779 298.52564825209618 310.64205426169855 328.60061691978387 335.42502640237893 279.99332059002847 288.69258886053404 298.68747286536075 552.91142152869713 319.77610793316097 374.93417781668842 478.40976039912908 307.70670304796619 278.59528542986675 293.14572386857719 299.95373277091221 273.76824408307408 287.64002119464618 455.38649241869922 320.52114130823247 352.83661613406633 265.1143606113755 292.78564698847379 294.77950584528617 387.61240603996168 377.2967914220215 288.14258247010292 309.96880970876703 543.0941457811889 290.37511007309826 282.54684583859523 334.10288178562371 305.00284368138972 366.85299391523978 292.5351618373835 330.54745315547547 385.71452940979168 278.40047796928485 274.81202222452845 279.40836007766706 300.601440271287 291.43504503995877 470.13732298348327 286.83460477248821 332.83296520665516 352.67128264197959 291.1504664156767 279.14127558240477 270.30892298594648 278.87486527212729 285.1149448639614 268.15604244059347 278.74253662824327 284.7178576750519 334.25587959781467 308.68429298046027 348.99885076988363 291.19204266536696 377.45245278569399 308.35745254761162 274.40571387822035 372.71314929814764 317.74579635085155 278.95161507683383 276.81968175169061 278.08864126258379 294.27967209414032 372.31340271770256 325.96579179339392 285.78276388803926 285.04236153033878 277.50495071821706 303.26617856851868 287.4584717179647 269.86349015882291 282.25524753651331 270.99318777619743 301.8335864338996 294.72408483795397 269.4350106203226 313.43768078700748 361.9205601713748 322.68014015238407 271.59699548788677 303.06805083459381 439.88815354826733 290.78750054128199 275.28193826683673 286.17618296508056 289.59663298289695 281.3996580339267 326.41504380298403 279.687375899909 259.96685614254289 272.792680621589 296.36620719930306 270.89644085885209 264.74079218438123 263.28480412000903 275.17631215083793 261.48401945534584 264.85145902121258 273.02518195600805
leaf_weight=10080 88560 3960 15120 32400 720 48840 2160 22680 653760 45120 4740 1650 27120 45120 1350 45120 18600 45120 3600 600 2160 33840 1440 68670 1560 780 4320 2880 1440 35280 2160 22680 1260 2520 60 7920 5790 39150 19440 5670 600 36000 6300 7560 1260 2520 15120 7560 22680 11280 5760 3780 11340 1740 9600 15120 630 6750 30 210 60 30 63720 30 13860 1260 24300 49950 3990 15780 65520 10800 540 5040 720 1890 630 1890 18900 8190 90 1980 22680 1440 8190 2160 29700 1140 7500 510 2160 720 30 14610 9900 90 7920 3960 9240 2160 720 57780 3300 30 85680 2160 15780 2040 6840 13530 2160 95760 3960 1260 7920 6240 3960 18450 27000 51300 720 2100 2190 2160 12540 60 1740 7470 960 2160 2160 720 3600 720 6750 150 30 25680 450 450 8190 147420 24570 25110 60 390 120 8190 270 900 5790 150 240 270 240 60 1020 1950 120 30 60 60 30 150 7560 3150 630 3150 720 30 90 150 330 840 300 30 30 2160 630 30 60 180 480 210 90 930 390 180 3150 9450 510 150 870 30 480 360 60 6420 4470 4470 30 2160 10800 3600 660 90 90 450 180 180 900 90 90 450 42210 7350 6930 300 30 60 60 3600 19170 360 2400 1320 4620 7920 1560 2910 60 120 150 210 15750 210 30 720 16560 2970 1890 1170 60 8940 255600 18090 630 630 13680 1440 5760 34560 28800 5040
leaf_count=10080 88560 3960 15120 32400 720 48840 2160 22680 653760 45120 4740 1650 27120 45120 1350 45120 18600 45120 3600 600 2160 33840 1440 68670 1560 780 4320 2880 1440 35280 2160 22680 1260 2520 60 7920 5790 39150 19440 5670 600 36000 6300 7560 1260 2520 15120 7560 22680 11280 5760 3780 11340 1740 9600 15120 630 6750 30 210 60 30 63720 30 13860 1260 24300 49950 3990 15780 65520 10800 540 5040 720 1890 630 1890 18900 8190 90 1980 22680 1440 8190 2160 29700 1140 7500 510 2160 720 30 14610 9900 90 7920 3960 9240 2160 720 57780 3300 30 85680 2160 15780 2040 6840 13530 2160 95760 3960 1260 7920 6240 3960 18450 27000 51300 720 2100 2190 2160 12540 60 1740 7470 960 2160 2160 720 3600 720 6750 150 30 25680 450 450 8190 147420 24570 25110 60 390 120 8190 270 900 5790 150 240 270 240 60 1020 1950 120 30 60 60 30 150 7560 3150 630 3150 720 30 90 150 330 840 300 30 30 2160 630 30 60 180 480 210 90 930 390 180 3150 9450 510 150 870 30 480 360 60 6420 4470 4470 30 2160 10800 3600 660 90 90 450 180 180 900 90 90 450 42210 7350 6930 300 30 60 60 3600 19170 360 2400 1320 4620 7920 1560 2910 60 120 150 210 15750 210 30 720 16560 2970 1890 1170 60 8940 255600 18090 630 630 13680 1440 5760 34560 28800 5040
internal_value=267.278 272.911 275.552 259.783 285.494 273.934 268.19 267.49 258.63 272.388 276.715 277.318 273.162 273.887 274.545 273.868 272.685 269.537 295.165 291.995 295.177 268.687 304.437 276.696 282.4 283.252 275.559 277.72 278.866 263.767 304.674 282.376 284.902 293.161 308.577 260.408 290.398 273.666 264.437 282.89 284.277 264.244 287.655 278.498 279.234 282.625 279.506 278.25 269.99 270.445 276.945 281.365 270.046 301.645 268.751 274.215 283.443 279.594 284.581 291.128 306.417 358.363 272.849 308.94 274.914 276.353 273.791 270.801 274.777 277.712 266.792 278.486 280.613 263.123 300.002 282.976 284.189 296.865 277.379 263.492 306.027 314.076 266.834 290.126 293.576 317.448 269.414 283.587 281.737 285.512 262.633 272.61 277.346 279.852 270.707 286.052 283.033 284.295 282.213 295.272 284.09 274.538 271.548 314.408 267.475 266.348 279.086 281.119 277.053 286.534 278.47 259.7 274.84 284.019 267.552 285.052 277.667 270.271 269.252 270.011 267.417 285.59 290.626 269.131 284.065 292.991 296.483 285.828 284.252 278.898 282.067 292.812 278.997 275.63 271.615 298.337 330.012 270.071 274.116 278.62 264.023 264.482 261.729 279.686 284.714 291.665 292.634 269.848 310.306 324.466 292.239 296.819 317.197 280.861 303.258 278.839 292.067 295.575 304.176 341.171 397.719 320.876 345.968 326.957 282.441 285.155 281.825 280.177 301.732 318.407 354.366 298.352 279.103 303.911 322.226 309.452 302.312 295.142 300.391 318.09 374.827 312.199 317.14 301.969 323.585 295.209 343.821 365.354 274.891 277.521 294.671 301.682 297.872 328.954 301.529 307.82 294.164 289.136 273.031 274.725 291.565 289.155 270.504 273.89 296.26 290.671 331.148 317.441 323.158 325.821 320.872 350.545 323.591 333.38 279.289 279.628 283.296 317.14 301.403 274.186 332.862 281.456 275.783 318.057 280.499 276.45 279.502 267.077 295.819 299.29 306.318 327.5 340.398 297.024 272.114 315.646 359.535 276.704 276.14 288.216 282.599 290.094 277.055 282.344 259.573 270.448 273.048 283.633 267.53 268.494 272.798 262.286 263.015 274.907
internal_weight=3.24504e+06 1.85256e+06 1.188e+06 1.39248e+06 166320 1.02168e+06 664560 606960 1.10664e+06 656640 365040 334620 541440 451200 406080 383520 293280 90240 40320 30240 24480 459360 8640 319410 126000 115500 57600 45360 43200 147600 10080 110250 61110 11970 3150 452880 15210 248160 137520 49140 43470 285840 8820 158760 49140 26460 128520 98280 272160 249480 39600 25200 238140 5250 115200 30240 42210 83160 15120 7560 2010 270 203040 240 160650 90720 145800 192780 22680 90240 187200 68040 38070 93600 3600 22680 20790 2520 76860 232560 4470 5040 45360 15840 10080 3600 105600 30240 22680 15120 85680 2880 45120 22560 67980 22560 41580 33660 25740 5040 5760 121500 58080 2340 153360 87840 63120 31560 31560 15780 5760 359280 22560 7560 12240 7890 7920 170100 96750 78300 51840 5550 3450 7920 21780 13560 7770 22470 17940 31680 12960 2880 10080 7920 73350 1140 180 30420 23400 7200 196560 163800 32760 35100 7860 9360 8970 16380 780 1230 7560 2130 390 28350 1110 11340 4530 3510 1560 210 90 1140 240 210 18270 10710 7560 6930 2880 720 120 1740 390 1350 510 360 330 5040 2880 720 90 1260 1080 1260 300 960 630 240 33390 14490 1620 1110 1050 180 1770 1260 540 7560 10500 8940 2970 2700 16560 7200 870 750 120 4320 2340 2160 1800 360 180 900 43470 11340 16800 660 330 7560 330 5040 29970 720 9330 9240 5940 37620 7710 4800 1890 330 270 2250 16200 270 60 18720 18000 3240 5040 2910 14670 15780 351360 57240 69930 1260 53280 39600 7200 82800 63360 5760
internal_count=3245040 1852560 1188000 1392480 166320 1021680 664560 606960 1106640 656640 365040 334620 541440 451200 406080 383520 293280 90240 40320 30240 24480 459360 8640 319410 126000 115500 57600 45360 43200 147600 10080 110250 61110 11970 3150 452880 15210 248160 137520 49140 43470 285840 8820 158760 49140 26460 128520 98280 272160 249480 39600 25200 238140 5250 115200 30240 42210 83160 15120 7560 2010 270 203040 240 160650 90720 145800 192780 22680 90240 187200 68040 38070 93600 3600 22680 20790 2520 76860 232560 4470 5040 45360 15840 10080 3600 105600 30240 22680 15120 85680 2880 45120 22560 67980 22560 41580 33660 25740 5040 5760 121500 58080 2340 153360 87840 63120 31560 31560 15780 5760 359280 22560 7560 12240 7890 7920 170100 96750 78300 51840 5550 3450 7920 21780 13560 7770 22470 17940 31680 12960 2880 10080 7920 73350 1140 180 30420 23400 7200 196560 163800 32760 35100 7860 9360 8970 16380 780 1230 7560 2130 390 28350 1110 11340 4530 3510 1560 210 90 1140 240 210 18270 10710 7560 6930 2880 720 120 1740 390 1350 510 360 330 5040 2880 720 90 1260 1080 1260 300 960 630 240 33390 14490 1620 1110 1050 180 1770 1260 540 7560 10500 8940 2970 2700 16560 7200 870 750 120 4320 2340 2160 1800 360 180 900 43470 11340 16800 660 330 7560 330 5040 29970 720 9330 9240 5940 37620 7710 4800 1890 330 270 2250 16200 270 60 18720 18000 3240 5040 2910 14670 15780 351360 57240 69930 1260 53280 39600 7200 82800 63360 5760
is_linear=0
shrinkage=1


Tree=1
num_leaves=255
num_cat=0
split_feature=0 7 0 0 0 19 13 0 7 11 11 0 13 0 11 11 11 11 11 11 11 11 11 11 11 7 9 11 11 11 17 9 0 7 7 6 11 19 9 11 17 13 11 11 11 13 11 12 13 7 7 13 11 11 0 11 11 13 12 12 19 13 13 2 13 0 13 5 12 11 13 22 7 11 11 11 11 0 12 7 11 11 11 7 9 13 0 13 20 12 19 13 12 9 7 12 13 13 2 13 7 2 0 12 9 13 7 12 20 13 11 11 11 0 9 12 3 19 3 7 7 2 12 0 12 11 11 13 19 13 0 12 12 11 11 11 11 11 11 21 13 0 7 3 19 12 11 11 11 13 19 0 11 11 11 11 11 11 13 7 19 12 11 13 22 9 7 20 11 13 13 22 13 12 12 10 0 12 9 0 7 0 12 9 7 7 5 11 11 2 11 13 13 13 13 19 11 21 12 7 0 13 0 12 12 5 9 11 11 13 12 11 17 3 9 3 9 0 11 11 13 9 5 7 6 11 21 11 11 7 19 13 11 13 11 20 11 11 11 11 11 9 0 12 9 12 13 7 12 13 5 13 11 9
split_gain=5.48551e+10 9.16394e+09 3.68721e+09 3.07658e+09 2.5752e+09 9.83398e+08 7.79766e+08 6.59901e+08 6.35966e+08 5.00136e+08 1.60686e+09 4.77814e+08 4.35992e+08 4.22706e+08 4.09732e+08 5.95296e+08 5.96813e+08 5.36211e+08 3.73449e+08 7.73614e+08 3.71965e+08 3.37013e+08 4.38442e+08 4.69292e+08 3.26627e+08 3.12243e+08 2.87941e+08 2.81942e+08 4.17701e+08 2.77345e+08 2.69261e+08 3.19873e+08 3.88975e+08 2.58674e+08 2.5718e+08 2.50451e+08 2.40442e+08 2.29993e+08 3.3731e+08 2.2256e+08 2.05761e+08 2.36316e+08 2.0536e+08 4.38895e+08 2.4846e+08 1.93909e+08 2.15113e+08 1.8345e+08 1.80754e+08 1.76402e+08 1.72736e+08 4.6687e+08 4.00855e+08 6.22098e+08 9.30141e+08 1.72373e+08 4.86457e+08 1.65279e+08 1.77749e+08 1.64481e+08 2.2072e+08 2.00745e+08 1.58692e+08 1.54099e+08 1.6773e+08 5.34899e+08 2.75496e+08 2.36676e+08 1.71038e+08 1.53615e+08 1.49798e+08 1.4454e+08 1.4241e+08 1.39025e+08 1.77374e+08 2.19395e+08 1.34645e+08 1.27007e+08 1.26103e+08 1.24581e+08 1.22371e+08 4.27854e+08 3.90751e+08 1.21153e+08 1.19292e+08 1.15088e+08 1.36803e+08 1.10956e+08 1.07816e+08 1.07282e+08 1.06574e+08 1.04252e+08 1.03084e+08 1.02801e+08 1.01361e+08 1.45884e+08 2.12864e+08 2.77872e+08 1.5817e+08 1.01181e+08 1.29009e+08 1.64167e+08 2.44498e+08 1.00103e+08 1.00095e+08 9.92357e+07 1.07765e+08 9.72579e+07 9.69588e+07 9.63601e+07 9.29467e+07 1.39275e+08 9.11617e+07 8.96233e+07 8.94032e+07 1.17603e+08 1.67687e+08 1.01902e+08 1.5128e+08 9.64296e+07 8.83393e+07 1.26135e+08 2.53921e+08 2.54865e+08 1.05955e+08 8.69783e+07 1.41458e+08 3.33569e+08 2.08042e+08 1.66057e+08 8.70281e+07 8.64756e+07 8.4581e+07 8.45678e+07 1.857e+08 9.44475e+07 8.32926e+07 1.0849e+08 1.3315e+08 8.32074e+07 8.22719e+07 8.08251e+07 7.83937e+07 7.75356e+07 7.62478e+07 7.6168e+07 7.51213e+07 7.82278e+07 7.40149e+07 7.37436e+07 7.34412e+07 7.32823e+07 7.29839e+07 1.71072e+08 1.28749e+08 1.01586e+08 8.39014e+07 7.93746e+07 7.29616e+07 7.21021e+07 7.82194e+07 7.20784e+07 1.67708e+08 7.2078e+07 7.15433e+07 1.00252e+08 7.1535e+07 8.1797e+07 7.0329e+07 6.9798e+07 2.36687e+08 9.17607e+07 8.01482e+07 1.4415e+08 6.99956e+07 6.92825e+07 6.86396e+07 6.84029e+07 6.82414e+07 1.53458e+08 6.80483e+07 8.16645e+07 7.40315e+07 6.79908e+07 6.60849e+07 6.57085e+07 6.4921e+07 6.47988e+07 1.07806e+08 6.40232e+07 8.0689e+07 6.37257e+07 6.37019e+07 6.90913e+07 6.361e+07 6.35109e+07 6.32815e+07 6.30654e+07 6.28017e+07 6.17232e+07 6.16532e+07 6.12604e+07 1.84531e+08 6.06691e+07 6.05442e+07 5.98507e+07 5.91697e+07 5.85979e+07 5.74543e+07 5.74136e+07 5.66938e+07 5.63001e+07 5.58456e+07 5.72846e+07 5.47777e+07 6.7825e+07 5.42254e+07 5.416e+07 5.39423e+07 1.19341e+08 5.33981e+07 5.26367e+07 5.75065e+07 7.56146e+07 5.5722e+07 5.24325e+07 5.23731e+07 5.19474e+07 5.0916e+07 5.07474e+07 5.01695e+07 5.01429e+07 5.81344e+07 7.85489e+07 6.75825e+07 1.3302e+08 5.00989e+07 5.00555e+07 6.11198e+07 5.00105e+07 7.29737e+07 4.98235e+07 4.97112e+07 4.91962e+07 4.91844e+07 4.90778e+07 6.15392e+07 4.88235e+07 4.87786e+07 4.90455e+07 4.86792e+07 4.85859e+07 4.85452e+07 7.47048e+07
threshold=4.5000000000000009 3.4850000000000008 3.5000000000000004 9.5000000000000018 7.5000000000000009 1.0000000180025095e-35 10.500000000000002 2.5000000000000004 5.1150000000000011 47.000000000000007 44.500000000000007 7.5000000000000009 35.500000000000007 15.500000000000002 21.500000000000004 27.500000000000004 29.500000000000004 17.500000000000004 47.000000000000007 44.500000000000007 35.500000000000007 21.500000000000004 47.000000000000007 44.500000000000007 24.500000000000004 5.0850000000000009 0.40370370370370373 47.000000000000007 44.500000000000007 22.500000000000004 1.0000000180025095e-35 0.18333333333333332 6.5000000000000009 3.0250000000000004 3.1050000000000004 1.0000000180025095e-35 17.500000000000004 5.5000000000000009 0.5634920634920636 47.000000000000007 1.0000000180025095e-35 4.5000000000000009 21.500000000000004 24.500000000000004 22.500000000000004 5.5000000000000009 43.500000000000007 4.5000000000000009 7.5000000000000009 7.0300000000000002 3.7450000000000006 12.500000000000002 32.500000000000007 31.000000000000004 8.5000000000000018 47.000000000000007 44.500000000000007 3.5000000000000004 5.5000000000000009 5.5000000000000009 1.0000000180025095e-35 16.500000000000004 6.5000000000000009 1.5000000000000002 56.500000000000007 10.500000000000002 51.500000000000007 1.0000000180025095e-35 8.5000000000000018 17.500000000000004 5.5000000000000009 1.0000000180025095e-35 4.5150000000000006 21.500000000000004 27.500000000000004 29.500000000000004 47.000000000000007 12.500000000000002 4.5000000000000009 4.2150000000000007 22.500000000000004 24.500000000000004 26.500000000000004 4.9050000000000011 0.22500000000000003 10.500000000000002 6.5000000000000009 10.500000000000002 1.0000000180025095e-35 5.5000000000000009 5.5000000000000009 41.500000000000007 4.5000000000000009 0.41421568627450983 4.1250000000000009 5.5000000000000009 23.500000000000004 20.500000000000004 1.0000000180025095e-35 41.500000000000007 3.1050000000000004 1.0000000180025095e-35 8.5000000000000018 10.500000000000002 0.5634920634920636 3.5000000000000004 3.1050000000000004 2.5000000000000004 -1.0000000180025095e-35 48.500000000000007 44.500000000000007 47.000000000000007 17.500000000000004 1.5000000000000002 0.39230769230769236 2.5000000000000004 1.0000000180025095e-35 4.5000000000000009 1.0000000180025095e-35 3.0250000000000004 1.0000000180025095e-35 1.0000000180025095e-35 12.500000000000002 8.5000000000000018 4.5000000000000009 32.500000000000007 31.000000000000004 17.500000000000004 5.5000000000000009 7.5000000000000009 13.500000000000002 3.5000000000000004 6.5000000000000009 21.500000000000004 24.500000000000004 22.500000000000004 22.500000000000004 24.500000000000004 26.500000000000004 2.5000000000000004 7.5000000000000009 10.500000000000002 6.830000000000001 1.0000000180025095e-35 2.5000000000000004 2.5000000000000004 43.500000000000007 35.500000000000007 44.500000000000007 6.5000000000000009 5.5000000000000009 12.500000000000002 21.500000000000004 24.500000000000004 22.500000000000004 29.500000000000004 27.500000000000004 17.500000000000004 18.500000000000004 4.1150000000000011 1.5000000000000002 1.5000000000000002 47.000000000000007 29.500000000000004 1.0000000180025095e-35 0.6515151515151516 3.6750000000000003 2.5000000000000004 49.500000000000007 63.500000000000007 65.500000000000014 1.0000000180025095e-35 38.500000000000007 8.5000000000000018 8.5000000000000018 1.0000000180025095e-35 12.500000000000002 1.5000000000000002 0.37980769230769235 12.500000000000002 4.3950000000000005 5.5000000000000009 11.500000000000002 0.73214285714285732 3.5950000000000002 6.285000000000001 1.0000000180025095e-35 27.500000000000004 17.500000000000004 2.5000000000000004 37.500000000000007 7.5000000000000009 9.5000000000000018 50.500000000000007 12.500000000000002 2.5000000000000004 49.500000000000007 2.5000000000000004 4.5000000000000009 3.4750000000000005 5.5000000000000009 11.500000000000002 10.500000000000002 5.5000000000000009 6.5000000000000009 1.0000000180025095e-35 0.4494949494949495 17.500000000000004 41.500000000000007 78.500000000000014 3.5000000000000004 14.500000000000002 1.0000000180025095e-35 1.0000000180025095e-35 0.48529411764705882 1.0000000180025095e-35 0.18333333333333332 9.5000000000000018 24.500000000000004 22.500000000000004 3.5000000000000004 0.6515151515151516 1.0000000180025095e-35 4.4450000000000012 1.0000000180025095e-35 26.500000000000004 2.5000000000000004 28.500000000000004 29.500000000000004 5.0250000000000012 4.5000000000000009 5.5000000000000009 32.500000000000007 9.5000000000000018 31.000000000000004 2.5000000000000004 41.500000000000007 42.500000000000007 20.500000000000004 17.500000000000004 31.000000000000004 0.63068181818181823 11.500000000000002 8.5000000000000018 0.63068181818181823 11.500000000000002 9.5000000000000018 3.9350000000000005 2.5000000000000004 12.500000000000002 1.0000000180025095e-35 53.500000000000007 32.500000000000007 0.48529411764705882
decision_type=2 2 2 2 2 2 2 2 2 2 2 2 2 2 2 2 2 2 2 2 2 2 2 2 2 2 2 2 2 2 2 2 2 2 2 2 2 2 2 2 2 2 2 2 2 2 2 2 2 2 2 2 2 2 2 2 2 2 2 2 2 2 2 2 2 2 2 2 2 2 2 2 2 2 2 2 2 2 2 2 2 2 2 2 2 2 2 2 2 2 2 2 2 2 2 2 2 2 2 2 2 2 2 2 2 2 2 2 2 2 2 2 2 2 2 2 2 2 2 2 2 2 2 2 2 2 2 2 2 2 2 2 2 2 2 2 2 2 2 2 2 2 2 2 2 2 2 2 2 2 2 2 2 2 2 2 2 2 2 2 2 2 2 2 2 2 2 2 2 2 2 2 2 2 2 2 2 2 2 2 2 2 2 2 2 2 2 2 2 2 2 2 2 2 2 2 2 2 2 2 2 2 2 2 2 2 2 2 2 2 2 2 2 2 2 2 2 2 2 2 2 2 2 2 2 2 2 2 2 2 2 2 2 2 2 2 2 2 2 2 2 2 2 2 2 2 2 2 2 2 2 2 2 2
left_child=2 3 7 11 8 12 39 49 21 10 14 30 26 18 17 80 131 247 19 33 50 36 23 24 29 84 47 28 59 -23 31 32 103 40 37 88 -3 114 -39 57 226 78 69 44 -44 46 218 -5 227 113 51 52 53 -18 -55 56 85 -6 83 60 183 -61 -30 64 66 67 73 68 -66 -10 -35 132 89 112 136 -76 148 -14 108 94 -16 145 -83 176 177 -45 142 -27 -33 -22 151 120 200 -79 217 96 97 -96 -99 100 101 102 104 -2 -63 -21 169 141 -42 152 143 -112 -47 -1 115 116 -32 -116 119 164 121 122 124 -124 144 126 -109 128 129 -128 197 -17 -15 207 135 -135 -75 178 -139 146 184 236 204 -28 -64 166 147 228 -49 161 -122 248 157 154 -154 156 225 -62 211 -94 -161 162 -86 241 -119 -166 167 -82 -164 171 -171 172 173 -107 -172 192 -59 -4 179 -138 181 -142 -183 -13 -25 186 -136 188 -69 231 -191 -24 -9 -194 -140 -53 -20 208 -81 -160 -50 202 -200 229 -87 212 -173 -89 245 230 -31 -36 213 -156 -93 -216 -117 -12 219 -43 -214 222 224 -224 -151 -155 -7 -26 -60 -84 -202 -157 233 234 -233 -236 -77 238 -120 -145 -241 -52 -147 -210 -180 246 -127 -8 249 -72 -105 -174 253 -230
right_child=1 4 25 5 6 13 9 175 42 -11 79 27 77 71 15 16 20 -19 196 105 72 22 191 140 48 87 110 -29 62 210 34 35 -34 70 158 -37 -38 38 -40 -41 41 45 43 55 -46 63 -48 76 92 -51 163 195 -54 54 -56 -57 -58 58 139 61 109 99 91 -65 65 -67 -68 187 -70 -71 90 -73 -74 74 75 107 -78 93 -80 198 81 82 203 -85 149 86 -88 133 -90 -91 -92 214 159 -95 95 -97 -98 98 -100 -101 -102 -103 -104 250 -106 106 -108 125 -110 -111 111 -113 -114 -115 117 216 -118 118 237 -121 150 -123 123 -125 -126 130 127 -129 -130 -131 -132 -133 -134 134 185 -137 137 138 194 -141 180 -143 -144 239 -146 242 -148 -149 -150 221 -152 -153 153 155 205 189 -158 -159 199 160 -162 -163 168 -165 165 -167 -168 -169 -170 170 174 206 251 -175 -176 -177 -178 -179 244 -181 -182 182 -184 -185 -186 -187 -188 -189 -190 190 -192 -193 193 -195 -196 -197 -198 -199 201 -201 209 -203 -204 -205 -206 -207 -208 -209 243 -211 -212 -213 220 -215 215 -217 -218 -219 -220 -221 -222 -223 223 -225 -226 -227 -228 -229 252 -231 -232 232 -234 -235 235 -237 -238 -239 -240 240 -242 -243 -244 -245 -246 -247 -248 -249 -250 -251 -252 -253 -254 -255
leaf_value=-11.37106486733358 -0.084335027936100759 3.2730555032168369 2.4537753755010345 20.666426665242948 1.1706919197875743 6.0914912580095235 11.594277489469597 -7.520239500695431 0.46300427518990328 2.1719944471381845 20.122260125516394 33.062712967276575 13.913664995955447 33.878724448140012 8.5069497963780041 4.6500307123811098 36.791437265202532 0.034889786884324689 11.422313795393759 10.55430308899277 9.427575283992164 4.3162751423959618 -7.2321783069026004 53.983069578859457 -4.4864832480648804 -5.2983995081022179 38.826903304199504 3.4129117410481187 0.64436678958917448 16.862425408892349 47.211431238057507 5.1005040210854737 50.324249920648363 1.7891817688946685 18.451576866923162 -2.1076106384104309 -2.3980759599451225 25.791113859626559 -0.51554936869057355 -4.5115964230488101 7.4042141468212677 46.358992312416724 2.4079436495668509 -2.4685758433464819 11.916617863059097 21.636843831354597 178.7347271789348 39.943632270378671 3.2835898224842079 -9.4829230403335636 11.690609894786455 33.093891722081828 21.517526633892331 460.84882682724259 67.183213507059804 -3.2319186494551611 10.077546041565403 9.2117557961198688 1.6440996431583046 3.5236089547656513 15.259115746509876 45.5270314717026 85.295852006096609 15.421491498676557 26.686967980260938 10.988318103466405 8.0092780490264825 35.057631461195861 58.597517071245512 -4.8237963522643934 28.48855588628723 40.854333572808002 4.2941878146308659 21.23287184332273 8.7903857618539689 30.953023761133736 2.6566089172553937 44.676527462633366 1.9445325887296403 22.692701449434153 35.043764019528815 5.088790382935211 19.112414981741662 2.1918788282299162 3.5550079923888944 1.5092174020882156 3.5809299537823827 -3.0813206502913086 17.589725684987183 5.9577153641847076 20.319573916157637 11.846980880381309 5.0764673875296831 21.534859741668672 58.507532546323709 22.544730249758167 38.179738704577154 271.39958698868355 108.5671542449647 8.7789635333244398 9.5424050455043421 11.165330116890912 11.770611772723417 27.751283719953179 25.59287733231336 32.860908580873634 28.740490104416189 18.221987360883926 22.386032929518592 9.611987879727117 101.98829903525819 48.100832163761211 8.9228715219008361 -7.7211167224453803 8.2670382421473416 26.651436444730038 13.085378965651422 8.7258548971524927 7.9522645356345301 6.4204106309795081 24.477856222674177 28.762835133311881 262.07154958731314 55.904646620639539 75.333682222730019 1.7796282359607614 186.10363339649086 27.921038747126115 215.78302241227158 60.444836428686301 8.096553744334539 -0.30472193201684927 18.232903278819347 -1.3088076050632513 -1.9167735237241832 5.6938866511175901 49.910851214172844 18.737304297143474 12.698816816890194 20.244139361023958 6.4629368861994285 43.522866988656453 -2.9840900779563562 84.745201894742664 23.577215718794008 16.410691475831069 10.085037481038732 -2.4964924488973272 80.138700527473858 1.416759923985861 71.379328537410686 18.042363508329 16.415262321204263 8.3405802366433957 13.683912711229997 9.3402435392950718 3.4568940806119075 4.4865983054483225 6.5258245918747608 7.746426001986972 2.1859851200183331 -5.6280075355744676 144.81803428675249 8.6885615134063325 14.685728500477616 33.854047646699328 22.913692773857093 100.30526015397515 36.479160813239723 200.61064777564368 39.097805200764704 23.828152666439955 99.398292202984479 117.07566762914674 100.33894120151309 -7.90709774882448 20.975450971937303 17.865068856792877 41.719141984377558 180.42522256540698 10.857313228303838 18.207795784463865 38.21541748450705 14.09267709829035 0.68443850519445093 -4.2855536825453431 -6.5655118960260568 60.107203632756651 112.51840173699075 65.010399288657823 15.354165131326917 -0.33592197737218293 -4.5724239103324038 -6.8326680658599788 44.531266450412915 14.355535067088011 3.3783103043285969 -2.0353336578561216 14.72710891113959 21.41489604713685 4.9471241980763558 14.535171619314022 157.75846884084302 12.13972520300117 -0.76564560697488648 15.532941424564612 42.582574242790088 -6.981643850825126 23.790346427942914 0.99928040959318887 11.001325406011297 1.4831758846239758 76.812620942102285 86.414257731390165 26.175857333409112 81.904569634105911 11.830240353861136 28.775668148302771 31.90018174449083 155.52135800586586 41.481557316804654 -1.9847633715522051 2.5891900631216083 22.433544648811068 -4.5482739878529737 20.723123763651955 21.662210274862687 0.90721161177215837 3.590352103962569 9.1609823469304796 7.575524252442313 23.668150073412974 15.355654790892624 20.392580308504268 47.525597961578242 165.16114919668811 14.415965663151333 11.040845393223435 33.879260961960263 37.436701037260896 62.788118594003869 27.948670205750137 26.899925376054632 37.997538751390906 106.44187766040282 8.8910915667183499 23.296851086556359 7.3253037250402304 10.462970150126418 14.010844016710326 9.3638070606983401 46.04292942751664 2.6262549851634884 19.870155922742896
leaf_weight=18000 1440 37380 1440 2880 42240 3780 8520 38160 27480 39840 3840 1890 3600 1440 19920 13140 60 39840 4890 330 42840 18690 3720 60 5580 60480 2520 8820 480 6150 720 8640 720 2520 510 17280 37380 1440 7920 9300 1890 150 13740 30600 13740 2820 30 2520 29250 621360 25680 480 120 30 30 27480 13740 20460 14100 10080 3420 1260 60 11970 1260 1890 3780 60 630 27480 630 2160 50190 1410 2820 1680 240 720 2520 4980 240 19920 8790 6600 660 72450 36450 19260 2160 46410 6300 810 37800 1440 120 630 450 30 30 15120 6930 3780 1890 720 1260 330 1650 1110 2520 13860 180 360 2820 256320 17280 720 720 5040 270 5760 1140 540 30 30 270 360 30 840 30 210 1350 26700 2160 9630 103140 9630 90 1410 180 660 1380 990 17550 120 300 13860 2820 8460 120 41760 90 6300 1710 1710 270 2640 3420 3420 20880 6750 100350 8640 30 45000 12960 720 4530 60 30 30 210 600 150 60 60 42480 1320 1440 1260 30 9990 4950 510 630 1800 62100 8100 390 180 150 180 33660 113040 48240 1230 7800 4890 270 90 720 34200 6300 30 9630 49050 300 1410 19260 1890 5400 12540 11730 120 30 600 60 4320 3420 420 30 990 17280 1440 720 4320 1710 630 22320 1380 1500 38700 150 12960 2580 120 30 630 450 1440 540 600 480 1230 900 30 900 4320 31320 17010 8190 720 60 2820 1440
leaf_count=18000 1440 37380 1440 2880 42240 3780 8520 38160 27480 39840 3840 1890 3600 1440 19920 13140 60 39840 4890 330 42840 18690 3720 60 5580 60480 2520 8820 480 6150 720 8640 720 2520 510 17280 37380 1440 7920 9300 1890 150 13740 30600 13740 2820 30 2520 29250 621360 25680 480 120 30 30 27480 13740 20460 14100 10080 3420 1260 60 11970 1260 1890 3780 60 630 27480 630 2160 50190 1410 2820 1680 240 720 2520 4980 240 19920 8790 6600 660 72450 36450 19260 2160 46410 6300 810 37800 1440 120 630 450 30 30 15120 6930 3780 1890 720 1260 330 1650 1110 2520 13860 180 360 2820 256320 17280 720 720 5040 270 5760 1140 540 30 30 270 360 30 840 30 210 1350 26700 2160 9630 103140 9630 90 1410 180 660 1380 990 17550 120 300 13860 2820 8460 120 41760 90 6300 1710 1710 270 2640 3420 3420 20880 6750 100350 8640 30 45000 12960 720 4530 60 30 30 210 600 150 60 60 42480 1320 1440 1260 30 9990 4950 510 630 1800 62100 8100 390 180 150 180 33660 113040 48240 1230 7800 4890 270 90 720 34200 6300 30 9630 49050 300 1410 19260 1890 5400 12540 11730 120 30 600 60 4320 3420 420 30 990 17280 1440 720 4320 1710 630 22320 1380 1500 38700 150 12960 2580 120 30 630 450 1440 540 600 480 1230 900 30 900 4320 31320 17010 8190 720 60 2820 1440
internal_value=1.24754e-05 6.05321 -6.98155 13.0335 4.16486 18.9128 6.65718 -8.39083 2.2766 7.53565 8.02325 9.49852 30.6396 17.4041 7.36257 8.12162 6.95876 4.13659 16.755 17.6054 7.98226 3.50205 4.11496 4.68577 4.23284 -2.64106 36.9103 11.9719 12.75 8.62317 7.4089 3.42449 17.4561 16.6802 8.75746 1.62552 0.43749 10.7297 3.53186 2.89393 18.7239 19.5245 0.609663 1.16768 7.16231 20.7149 48.2794 29.5908 3.64746 -9.01669 10.7075 17.4355 86.1691 150.749 264.455 0.501603 0.968294 3.56717 5.2526 12.0341 13.8844 9.63437 27.7842 20.3658 21.9315 31.0966 20.7209 46.1767 37.3264 -2.1804 13.5987 30.6285 6.425 22.3437 24.0056 21.6195 38.5141 19.6654 10.8671 21.8976 11.9009 13.0322 10.0406 8.12646 0.17412 0.361006 0.854371 -3.39178 7.59849 7.62326 14.3731 31.0989 4.06952 29.2505 26.4716 39.5635 56.5759 102.52 190.3 11.6713 14.5635 18.812 25.3658 9.23757 35.5614 37.0355 38.9516 23.952 15.9656 13.1534 46.6687 66.0789 15.2801 -7.96062 12.0664 17.549 30.1505 11.2575 13.1972 12.0779 37.3943 46.8705 61.0354 159.253 51.6576 21.8932 30.8459 43.467 91.804 76.2232 19.9035 1.32946 24.492 -2.89285 -2.46512 2.19255 31.7599 35.2683 29.6041 2.67808 12.3855 31.5686 0.139639 43.8942 33.8845 19.0153 2.30427 1.52616 41.7736 -0.209957 27.9152 13.2071 14.5202 15.6137 26.1181 14.213 8.99472 9.873 5.27453 3.19906 2.53644 -4.36137 10.837 9.9019 13.8186 15.6948 24.4806 48.1252 90.7995 44.7403 67.5882 42.1116 59.2743 45.8437 52.7391 -6.07367 9.9248 10.1598 46.5938 82.6625 13.4883 17.3307 20.0773 28.321 2.40656 -2.98264 -2.25528 72.7176 93.1759 16.1105 37.9381 -1.02224 -5.68315 -5.24848 40.4687 15.4422 7.40039 21.7482 18.4788 7.02222 5.24228 15.2098 50.5866 14.9924 0.590847 35.8193 36.9857 -5.0315 22.5154 5.97396 12.93 2.19034 40.1342 20.9833 20.5618 31.2538 13.948 24.199 41.728 64.629 45.3077 0.383107 1.2313 9.20471 0.857529 14.5323 8.31632 -0.171539 3.25015 17.6619 6.34246 15.7205 16.7838 23.2098 47.4234 71.1471 26.4437 25.8816 29.7862 54.0248 50.7839 11.989 17.2659 28.3745 43.2325 19.5854 21.6418 8.23827 12.0277 15.0453 18.5588 84.1831 7.26518 11.9039
internal_weight=3.24504e+06 1.73808e+06 1.50696e+06 370080 1.368e+06 138960 589680 1.1376e+06 778320 478080 438240 231120 15840 123120 418320 338640 258960 79680 117360 107580 219120 448560 373800 336420 317730 369360 10080 105840 97020 37380 125280 31680 3600 102690 93600 28080 74760 59760 9360 111600 61740 57330 329760 274800 27480 50400 630 5760 280350 895680 79680 8520 240 120 60 247320 219840 102300 60060 92610 52290 40320 4410 49770 37800 4410 33390 2520 1890 54960 40950 5760 139440 29610 23970 18330 2880 5760 6930 19920 79680 59760 39840 28380 77760 206100 175500 291600 10800 89250 38430 3930 252450 2160 8520 1260 630 180 60 30240 15120 8190 4410 2880 2520 4890 4560 15510 4410 49770 4320 540 5640 274320 50400 6480 1440 43920 26640 24480 2460 1230 690 60 630 12210 2220 1110 270 240 9990 39840 3600 231120 192600 19260 5640 4230 2820 31680 18690 3300 139050 3780 360 19920 31020 28200 2640 74880 1230 32130 35910 29070 3420 25650 6840 6840 33840 144900 107100 9360 720 71160 18720 13680 4830 300 60 2910 300 2610 600 390 270 241920 21780 2880 1410 120 16830 6840 5460 2520 1860 173340 111240 630 240 18810 330 37380 199440 161280 1410 8280 9780 8640 11400 21600 107550 6420 120 19920 121500 1710 2010 38520 8370 78300 18690 12240 1410 300 1470 660 5040 7260 600 180 1110 65520 48240 2160 46080 3420 4410 27900 19740 10290 72900 18480 15840 2880 300 150 2310 2160 1710 1260 1140 26160 15090 2790 1290 5580 4680 39840 25830 8820 1440 210 5640 2820
internal_count=3245040 1738080 1506960 370080 1368000 138960 589680 1137600 778320 478080 438240 231120 15840 123120 418320 338640 258960 79680 117360 107580 219120 448560 373800 336420 317730 369360 10080 105840 97020 37380 125280 31680 3600 102690 93600 28080 74760 59760 9360 111600 61740 57330 329760 274800 27480 50400 630 5760 280350 895680 79680 8520 240 120 60 247320 219840 102300 60060 92610 52290 40320 4410 49770 37800 4410 33390 2520 1890 54960 40950 5760 139440 29610 23970 18330 2880 5760 6930 19920 79680 59760 39840 28380 77760 206100 175500 291600 10800 89250 38430 3930 252450 2160 8520 1260 630 180 60 30240 15120 8190 4410 2880 2520 4890 4560 15510 4410 49770 4320 540 5640 274320 50400 6480 1440 43920 26640 24480 2460 1230 690 60 630 12210 2220 1110 270 240 9990 39840 3600 231120 192600 19260 5640 4230 2820 31680 18690 3300 139050 3780 360 19920 31020 28200 2640 74880 1230 32130 35910 29070 3420 25650 6840 6840 33840 144900 107100 9360 720 71160 18720 13680 4830 300 60 2910 300 2610 600 390 270 241920 21780 2880 1410 120 16830 6840 5460 2520 1860 173340 111240 630 240 18810 330 37380 199440 161280 1410 8280 9780 8640 11400 21600 107550 6420 120 19920 121500 1710 2010 38520 8370 78300 18690 12240 1410 300 1470 660 5040 7260 600 180 1110 65520 48240 2160 46080 3420 4410 27900 19740 10290 72900 18480 15840 2880 300 150 2310 2160 1710 1260 1140 26160 15090 2790 1290 5580 4680 39840 25830 8820 1440 210 5640 2820
is_linear=0
shrinkage=0.05


Tree=2
num_leaves=255
num_cat=0
split_feature=0 7 0 0 0 18 18 13 0 7 18 8 7 18 20 2 8 13 7 18 12 12 0 12 13 8 0 13 18 17 0 0 18 12 12 0 13 7 13 6 16 12 18 0 0 18 13 12 7 13 18 12 2 13 18 18 18 0 16 13 13 7 12 18 12 7 18 12 13 12 0 18 13 0 7 16 13 18 0 18 8 13 0 7 7 21 13 7 7 18 5 7 16 13 13 12 18 13 0 6 8 13 3 20 13 18 12 18 3 0 7 18 13 10 13 13 16 12 13 7 6 5 18 0 13 13 13 12 16 16 5 17 18 12 18 12 13 18 18 13 12 13 2 12 5 12 12 13 20 13 18 16 14 0 7 7 5 6 7 7 16 12 18 18 20 13 18 8 18 7 13 18 12 7 13 7 13 18 0 5 7 0 0 7 7 20 12 8 7 7 18 3 20 7 18 0 18 8 7 20 18 16 18 12 2 12 18 12 7 18 18 18 7 20 18 20 18 14 18 18 16 18 20 2 13 13 17 13 13 13 2 8 0 3 7 13 7 3 21 12 16 12 0 13 13 18 18 13 7 5 21 12 16 7
split_gain=4.95069e+10 8.27059e+09 3.32771e+09 2.77666e+09 2.32414e+09 1.29512e+09 1.08212e+09 7.03743e+08 5.9556e+08 5.7396e+08 4.74271e+08 4.23592e+08 4.07159e+08 3.96367e+08 3.82581e+08 3.33054e+08 3.17608e+08 3.09356e+08 2.81802e+08 2.76228e+08 2.67079e+08 2.6469e+08 1.92e+08 1.88486e+08 2.83735e+08 2.41682e+08 1.8363e+08 1.74504e+08 3.07604e+08 1.7028e+08 1.70229e+08 1.70112e+08 1.66253e+08 1.61828e+08 8.16994e+08 1.8259e+08 1.59945e+08 1.59202e+08 1.49074e+08 1.44912e+08 1.44241e+08 1.42629e+08 5.80433e+08 1.57021e+08 2.12608e+08 2.1529e+08 1.403e+08 1.80173e+08 1.36286e+08 1.35188e+08 1.31356e+08 1.2761e+08 1.22452e+08 1.18992e+08 1.15561e+08 1.15037e+08 2.87996e+08 1.09951e+08 1.07662e+08 1.06412e+08 1.63126e+08 1.05828e+08 1.09498e+08 1.04981e+08 1.17145e+08 1.04734e+08 1.0247e+08 1.01939e+08 1.00137e+08 9.90246e+07 9.55234e+07 9.49077e+07 9.26361e+07 9.13003e+07 8.85159e+07 8.83145e+07 8.92331e+07 8.7905e+07 1.36878e+08 8.36383e+07 8.24329e+07 8.11065e+07 8.08851e+07 8.02927e+07 8.02299e+07 7.8364e+07 7.75396e+07 7.7522e+07 7.69635e+07 7.69144e+07 7.60805e+07 7.5514e+07 7.55119e+07 7.48543e+07 7.47216e+07 7.43763e+07 7.30458e+07 7.22065e+07 7.18671e+07 7.1086e+07 7.00039e+07 6.9137e+07 6.91002e+07 6.86571e+07 6.65508e+07 7.19029e+07 6.50615e+07 6.38701e+07 6.37938e+07 8.30633e+07 6.29215e+07 9.11424e+07 6.28636e+07 6.25275e+07 6.21787e+07 6.17795e+07 6.78616e+07 6.1734e+07 6.15147e+07 6.06784e+07 5.99222e+07 5.97849e+07 6.90424e+07 5.94455e+07 5.85203e+07 5.7491e+07 6.23549e+07 5.72809e+07 6.62955e+07 5.67425e+07 5.90828e+07 5.63903e+07 5.58951e+07 5.94052e+07 5.51866e+07 5.42105e+07 5.71911e+07 5.3395e+07 1.02662e+08 5.24616e+07 5.12289e+07 5.08702e+07 5.17451e+07 5.08568e+07 5.07717e+07 6.78663e+07 5.49633e+07 5.05318e+07 5.08155e+07 5.0448e+07 4.94111e+07 4.93567e+07 4.88084e+07 4.79658e+07 4.78461e+07 4.64567e+07 4.57939e+07 4.53856e+07 4.52688e+07 4.5126e+07 4.43486e+07 5.28747e+07 4.41579e+07 4.41061e+07 4.40199e+07 4.37295e+07 4.37235e+07 4.78516e+07 4.35412e+07 4.80825e+07 4.35051e+07 4.29715e+07 4.2949e+07 4.28093e+07 4.27959e+07 4.27687e+07 4.24584e+07 4.2313e+07 4.16578e+07 4.11329e+07 4.01641e+07 4.00961e+07 3.94117e+07 3.90281e+07 5.52852e+07 3.89442e+07 4.74383e+07 4.44136e+07 3.81622e+07 3.81026e+07 3.79243e+07 3.74319e+07 3.73754e+07 4.97235e+07 3.7219e+07 3.59314e+07 3.57293e+07 4.62494e+07 4.33681e+07 3.56696e+07 3.54367e+07 3.46377e+07 3.46209e+07 3.45813e+07 5.32985e+07 3.46263e+07 3.44219e+07 3.42412e+07 3.42069e+07 3.3853e+07 3.38509e+07 3.55438e+07 3.36323e+07 7.628e+07 3.31905e+07 8.99681e+07 3.25204e+07 3.23887e+07 6.39141e+07 5.16259e+07 3.22832e+07 3.22828e+07 3.20087e+07 3.17692e+07 3.17166e+07 3.16355e+07 3.13361e+07 3.06455e+07 3.04641e+07 6.90284e+07 3.0327e+07 2.99272e+07 2.9684e+07 2.93228e+07 2.88817e+07 2.87991e+07 3.52723e+07 2.84031e+07 2.82159e+07 2.81998e+07 2.77327e+07 2.76077e+07 2.76026e+07 2.7341e+07 4.10045e+07 3.40007e+07 2.73123e+07 2.69427e+07 4.08025e+07 2.68586e+07 2.68324e+07 2.66976e+07 2.66924e+07 2.66547e+07
threshold=4.5000000000000009 3.4850000000000008 3.5000000000000004 9.5000000000000018 7.5000000000000009 10.400019913911821 8.0537028312683123 10.500000000000002 2.5000000000000004 5.1150000000000011 21.929103493690494 2.5000000000000004 3.1050000000000004 6.5636422634124765 2.5000000000000004 1.0000000180025095e-35 3.5000000000000004 7.5000000000000009 5.0850000000000009 3.6014883518218999 5.5000000000000009 5.5000000000000009 16.500000000000004 1.5000000000000002 23.500000000000004 2.5000000000000004 8.5000000000000018 6.5000000000000009 10.253204822540285 1.0000000180025095e-35 5.5000000000000009 6.5000000000000009 10.253204822540285 5.5000000000000009 8.5000000000000018 10.500000000000002 32.500000000000007 7.0300000000000002 44.500000000000007 1.0000000180025095e-35 6.5000000000000009 5.5000000000000009 10.663708806037905 14.500000000000002 11.500000000000002 13.084449052810671 3.5000000000000004 5.5000000000000009 4.5450000000000008 10.500000000000002 14.437508642673494 4.5000000000000009 2.5000000000000004 25.500000000000004 15.945622628554704 8.1307195564731973 8.3496646806597727 9.5000000000000018 14.500000000000002 10.500000000000002 11.500000000000002 4.035000000000001 7.5000000000000009 7.9034671187400827 4.5000000000000009 3.2350000000000008 9.3820136189460772 9.5000000000000018 10.500000000000002 4.5000000000000009 12.500000000000002 13.084449052810671 59.500000000000007 7.5000000000000009 3.2350000000000008 1.5000000000000002 12.500000000000002 2.581600483914372 11.500000000000002 10.118660874664785 3.5000000000000004 27.500000000000004 1.5000000000000002 4.8550000000000013 4.0150000000000006 2.5000000000000004 18.500000000000004 4.8950000000000005 3.9350000000000005 11.077657461166384 1.0000000180025095e-35 3.3950000000000005 6.5000000000000009 37.500000000000007 22.500000000000004 3.5000000000000004 2.663379549980164 55.500000000000007 11.500000000000002 1.0000000180025095e-35 3.5000000000000004 11.500000000000002 1.0000000180025095e-35 1.0000000180025095e-35 6.5000000000000009 3.3404970169067387 1.5000000000000002 13.68475425243378 1.0000000180025095e-35 10.500000000000002 1.0000000180025095e-35 11.077657461166384 13.500000000000002 1.0000000180025095e-35 73.500000000000014 11.500000000000002 10.500000000000002 1.5000000000000002 10.500000000000002 3.7450000000000006 1.0000000180025095e-35 1.0000000180025095e-35 0.71353217959404003 5.5000000000000009 58.500000000000007 9.5000000000000018 50.500000000000007 2.5000000000000004 2.5000000000000004 9.5000000000000018 1.0000000180025095e-35 1.0000000180025095e-35 1.6925607919692995 8.5000000000000018 13.084449052810671 3.5000000000000004 11.500000000000002 10.118660874664785 9.126837551128121 24.500000000000004 6.5000000000000009 12.500000000000002 1.0000000180025095e-35 7.5000000000000009 1.0000000180025095e-35 10.500000000000002 1.5000000000000002 66.500000000000014 1.0000000180025095e-35 18.500000000000004 12.810477524995806 1.5000000000000002 1.0000000180025095e-35 8.5000000000000018 5.9050000000000011 4.0050000000000008 1.0000000180025095e-35 1.0000000180025095e-35 6.9600000000000009 4.9050000000000011 6.5000000000000009 4.5000000000000009 7.0640386641025552 8.6593387220054883 2.5000000000000004 83.500000000000014 3.6739457845687871 2.5000000000000004 0.85357728600502025 5.9150000000000009 28.500000000000004 3.7922092676162724 10.500000000000002 4.3950000000000005 30.500000000000004 4.955000000000001 8.5000000000000018 6.8147304151207218 7.5000000000000009 1.0000000180025095e-35 4.3850000000000007 14.500000000000002 8.5000000000000018 5.0150000000000006 4.745000000000001 2.5000000000000004 4.5000000000000009 3.5000000000000004 5.785000000000001 4.8450000000000006 4.3221896737813958 1.0000000180025095e-35 1.0000000180025095e-35 3.1650000000000005 4.2409668945474559 8.5000000000000018 5.697602231055499 3.5000000000000004 4.495000000000001 1.0000000180025095e-35 7.9034671187400827 10.500000000000002 4.1757569313049325 8.5000000000000018 1.0000000180025095e-35 12.500000000000002 2.9798822402954106 8.5000000000000018 4.5150000000000006 7.7001185417175302 4.5135717391967782 5.7353259027004251 4.7950000000000008 1.0000000180025095e-35 10.663708806037905 1.0000000180025095e-35 10.663708806037905 1.0000000180025095e-35 11.864555549807848 8.3496646806597727 2.5000000000000004 12.503910064697267 1.0000000180025095e-35 1.0000000180025095e-35 3.5000000000000004 13.500000000000002 1.0000000180025095e-35 18.500000000000004 81.500000000000014 78.500000000000014 1.0000000180025095e-35 2.5000000000000004 11.500000000000002 1.0000000180025095e-35 5.1050000000000013 13.500000000000002 4.2150000000000007 1.0000000180025095e-35 1.5000000000000002 3.5000000000000004 9.5000000000000018 5.5000000000000009 13.500000000000002 22.500000000000004 26.500000000000004 0.91597387194633495 10.853670133277776 44.500000000000007 3.3950000000000005 1.0000000180025095e-35 -1.0000000180025095e-35 3.5000000000000004 9.5000000000000018 4.8850000000000007
decision_type=2 2 2 2 2 2 2 2 2 2 2 2 2 2 2 2 2 2 2 2 2 2 2 2 2 2 2 2 2 2 2 2 2 2 2 2 2 2 2 2 2 2 2 2 2 2 2 2 2 2 2 2 2 2 2 2 2 2 2 2 2 2 2 2 2 2 2 2 2 2 2 2 2 2 2 2 2 2 2 2 2 2 2 2 2 2 2 2 2 2 2 2 2 2 2 2 2 2 2 2 2 2 2 2 2 2 2 2 2 2 2 2 2 2 2 2 2 2 2 2 2 2 2 2 2 2 2 2 2 2 2 2 2 2 2 2 2 2 2 2 2 2 2 2 2 2 2 2 2 2 2 2 2 2 2 2 2 2 2 2 2 2 2 2 2 2 2 2 2 2 2 2 2 2 2 2 2 2 2 2 2 2 2 2 2 2 2 2 2 2 2 2 2 2 2 2 2 2 2 2 2 2 2 2 2 2 2 2 2 2 2 2 2 2 2 2 2 2 2 2 2 2 2 2 2 2 2 2 2 2 2 2 2 2 2 2 2 2 2 2 2 2 2 2 2 2 2 2 2 2 2 2 2 2
left_child=2 3 8 6 9 21 11 46 37 17 41 29 15 20 33 23 134 207 58 88 26 22 65 24 66 110 96 102 38 157 129 75 69 35 90 -12 201 82 53 51 -18 42 -7 44 45 112 253 63 191 177 -26 86 59 -29 94 103 -57 87 104 95 73 62 151 70 92 77 -8 74 158 83 159 101 80 -61 89 -11 135 78 -5 123 91 -58 -1 114 149 173 -30 132 227 -14 -35 209 -65 -83 -53 131 -9 154 -66 194 183 -63 -27 156 106 -106 -4 150 137 -110 225 -112 -44 125 166 -31 233 -60 -46 165 140 122 -90 -76 202 240 250 247 -129 130 -21 -13 155 212 176 136 -77 138 171 -34 -78 142 -103 -118 146 -146 -107 -74 238 -64 -43 -15 163 -56 -70 -22 -23 -2 188 -48 230 -162 -159 -153 246 -59 -32 180 -84 -170 -158 -79 179 -49 -121 -123 -17 -33 -82 200 190 192 -151 184 -71 186 187 -114 -20 -102 -168 232 -173 224 228 221 197 -169 -198 -178 -156 -36 243 204 -105 -205 -98 -3 -200 -62 -204 -212 -134 -214 -184 -216 -141 -143 219 -219 -39 -81 -176 -73 -194 -25 -99 -19 229 -51 -47 -223 -28 -117 -126 236 -124 -171 -149 -116 -10 -55 -140 -50 -245 -246 -165 -67 -249 -94 -127 -229 -208 -6
right_child=1 4 18 5 7 10 12 13 113 31 14 52 67 61 -16 16 40 19 68 30 57 55 -24 25 50 27 48 28 39 115 32 49 139 34 36 -37 -38 220 -40 -41 -42 107 43 -45 118 160 47 85 124 99 -52 54 -54 241 153 56 81 119 117 60 72 71 84 64 98 127 -68 -69 97 100 -72 223 147 -75 79 76 120 108 -80 195 178 93 168 -85 -86 -87 -88 -89 121 -91 -92 -93 249 -95 -96 -97 206 226 -100 -101 189 141 -104 203 105 144 -108 -109 109 -111 111 -113 185 -115 239 116 143 -119 -120 174 -122 175 235 -125 234 126 -128 128 -130 -131 -132 -133 133 -135 -136 -137 -138 -139 242 216 -142 217 -144 -145 145 -147 -148 148 -150 182 -152 152 -154 -155 172 -157 170 162 -160 -161 161 -163 -164 164 -166 -167 167 196 169 237 -172 181 -174 -175 222 -177 199 -179 -180 -181 -182 -183 214 -185 -186 -187 -188 -189 -190 -191 -192 -193 193 -195 -196 -197 198 -199 208 -201 -202 -203 210 205 -206 -207 252 -209 -210 -211 211 -213 213 -215 215 -217 -218 218 -220 -221 -222 231 -224 -225 -226 -227 -228 251 -230 -231 -232 -233 -234 -235 -236 -237 -238 -239 -240 -241 -242 -243 -244 244 245 -247 -248 248 -250 -251 -252 -253 -254 -255
leaf_value=-10.80251485774723 2.8438439668825701 0.22830068680823667 10.296424228995324 14.34931884141055 1.1527698760585838 68.199586502920667 34.384320812440016 3.426305393420682 -7.7538515603992693 -1.7399772468362 20.360948297477833 -4.938482969533303 11.03433486822529 9.0391323209005918 8.3626844929950153 1.1657981054035595 -0.31290816051380743 -1.8251286725254248 -3.1428369954513022 2.7441588135701913 8.9276641396580203 4.3991272662556247 34.752254082494197 1.7315717151865151 26.834350295331951 5.0488123979068824 9.5120436017809755 10.850296598692529 32.876422493140943 -1.1810289398282234 20.107698231460699 -3.3823222302837985 6.6997895183830867 -1.256210150316841 42.508081772880217 47.947398830507176 56.218680701776648 -8.7067591813427594 6.2617317966492871 15.2338525308221 11.243653193917728 17.628894770130692 4.6915106358784398 33.435671371922083 5.736245679928194 46.345610419433491 5.8581881422437441 2.8080678650764885 4.0033993310182368 6.463719143893254 46.333006991561803 32.756552645750546 22.369590593402517 19.972350009141891 30.373852082733908 45.842864641026154 5.9673283128753978 9.1978155898843532 2.3310952498295121 12.468665319415466 8.6819620294912365 1.0302742882982325 14.322197365057992 16.903448184380562 35.873397041429932 18.642779457174086 14.219438811193934 1.3139725945797263 -1.0181908369351964 4.2350796806312596 23.109359237449468 25.49544151403034 1.7253537338160236 37.650344329906027 18.722312037697471 0.088310128519044781 2.1920125624753388 11.409853125630624 45.18204900939967 16.323802488667493 20.024416959329614 22.270003206950463 -8.6072368693067691 3.1099098487424603 24.986399685960734 18.07581082778314 12.779541758848277 1.2135797783428777 -0.34782157204836434 1.7179540949690162 18.648884914722927 -3.524244897735259 8.0380204442706287 12.58154507098644 48.870646058495744 0.096381442545329543 14.391442297412395 -5.106162332703704 13.531109231022592 0.60503995389931597 22.342524647855079 4.7403644646261984 22.366181555060511 11.113476010140632 -1.831946338559461 5.0821944411680988 -5.346610359676685 21.337506648328993 15.439737519355734 39.459701693394074 8.0532606497645993 25.84327859146779 16.276805760020906 -7.5117436700629447 -2.4127511729565403 5.8810898574717694 7.9331785343569825 16.971877651545384 16.898795652884974 7.1888641012386136 -1.033932869914912 -1.1338425821634801 -7.139792858611445 2.9849290718956394 4.5903091622108656 -4.5941752279881811 -6.4910352857920159 23.407246966336174 7.3154036586632252 5.1415885879578411 -1.324215270906671 10.174926637219642 6.1549404261956404 3.4095243063033003 19.195740470639112 -3.2323095220915068 14.673820837979978 10.196674874678143 31.821822639419242 19.386010082979421 0.21695948048257924 7.5495185582492628 21.157610635523682 20.064347891429758 3.5871348202876998 21.312023266830838 0.24260677258784599 14.19083211679334 4.3326005462731789 3.390297186711412 9.4184840916442845 12.725104439803982 9.2223104640894995 15.468471303043755 -2.4089082784438585 -0.90996848880525283 -0.88284741886257057 -2.9856419408853938 7.4282144842901392 0.45481183577718221 23.415170841526972 34.481662497805871 6.1425805610845874 17.698122750604334 29.049362006105994 22.121349560878393 -3.1960318623508219 6.6197958905425409 -4.636561326889014 -7.1195434787401553 12.392392864557539 15.035270636553642 -5.7013728036421956 -0.85028451581667996 2.3464213644160279 11.259814455442637 11.017755200051985 4.3290693975897794 11.157790824790707 -6.591407001515428 3.4147740855983528 5.6524027148918421 7.3442345962961788 8.4869440194167005 1.082699728422382 9.1539950929272749 13.4082709890299 26.669030223453429 -5.9659291047255163 8.2548232657471825 8.6816063403163177 15.668292587602526 8.0159855589107121 28.010890870842289 3.4977749435037824 18.623043045243151 8.9819615543592857 19.604521779904118 24.858761991724144 16.778074854699035 3.2200559141851048 32.489434477132946 15.681723627157385 8.6490261914321085 23.532858841424687 15.867351883123622 7.1437279468945336 -2.8758437652662732 12.919370590263313 3.0026303838538668 5.835041669545407 13.690656808164242 25.929085648627666 5.997216928275904 8.7336450276070678 28.49392235121153 11.314247918930056 13.503703019117067 25.214572068860576 4.5221350200954138 -9.4388927396276987 12.124042686913162 5.6962289110101114 13.751679928548379 18.815938319979377 9.6923888765163309 -2.7229062845753602 2.7441150367212677 0.83866626718001136 22.292514665966781 31.819759820034363 3.5949877479557992 13.069030212101763 -1.7829712291797266 -1.8737376319195438 3.0358363522767604 1.4322272679503298 -10.18065501946009 5.6183124696104976 5.6665181094874644 -4.1637748254896101 27.969676164567296 19.825620625744495 13.111058800261302 16.892798524180346 5.6464419126827563 11.286480517237504 8.1776468770679838 19.04382825238379 -0.041621750767434129 -1.9735913161554786 7.1072854183383036 3.7710150089370345 -2.1591597779730347
leaf_weight=18000 5760 32400 720 720 38880 720 720 26640 31680 57600 720 720 3600 7200 1440 720 7200 1440 16560 39600 1440 7920 1440 1440 2160 2880 61920 2880 720 2880 720 10080 6480 1440 1440 3600 1440 365040 3600 2160 4320 5040 720 2880 2160 720 16560 20880 7200 15840 1440 1440 1440 2160 2160 720 2880 7200 1440 720 29520 3600 2880 2160 720 3600 5040 5040 55440 71280 720 720 7200 720 720 10080 82080 3600 720 2880 1440 2880 53280 13680 720 720 1440 25200 22320 5760 720 1440 3600 6480 1440 7200 1440 38160 720 13680 720 720 720 2160 23760 7200 8640 6480 720 720 1440 1440 1440 42480 2160 9360 2160 1440 2880 25920 30960 20880 1440 3600 8640 102240 48240 720 5760 17280 11520 4320 26640 28080 5040 23040 720 2880 1440 1440 54720 65520 1440 1440 2160 720 31680 2880 6480 5040 2880 12960 5040 720 95760 7200 720 16560 720 5040 2160 2160 1440 7200 720 720 720 14400 19440 175680 4320 8640 11520 12960 11520 720 5760 2160 16560 5760 9360 720 15120 4320 17280 720 1440 3600 43200 1440 10080 2880 720 1440 25920 2880 10800 720 720 5040 2880 2160 2160 7200 1440 2160 31680 12240 3600 2880 4320 2160 720 1440 2880 720 9360 3600 720 2880 256320 3600 18720 2880 12240 9360 21600 5040 2160 720 720 1440 6480 1440 2160 83520 7200 7920 1440 2160 6480 2160 720 2880 720 10080 2160 2160 1440 1440 10800 11520 7200 7200
leaf_count=18000 5760 32400 720 720 38880 720 720 26640 31680 57600 720 720 3600 7200 1440 720 7200 1440 16560 39600 1440 7920 1440 1440 2160 2880 61920 2880 720 2880 720 10080 6480 1440 1440 3600 1440 365040 3600 2160 4320 5040 720 2880 2160 720 16560 20880 7200 15840 1440 1440 1440 2160 2160 720 2880 7200 1440 720 29520 3600 2880 2160 720 3600 5040 5040 55440 71280 720 720 7200 720 720 10080 82080 3600 720 2880 1440 2880 53280 13680 720 720 1440 25200 22320 5760 720 1440 3600 6480 1440 7200 1440 38160 720 13680 720 720 720 2160 23760 7200 8640 6480 720 720 1440 1440 1440 42480 2160 9360 2160 1440 2880 25920 30960 20880 1440 3600 8640 102240 48240 720 5760 17280 11520 4320 26640 28080 5040 23040 720 2880 1440 1440 54720 65520 1440 1440 2160 720 31680 2880 6480 5040 2880 12960 5040 720 95760 7200 720 16560 720 5040 2160 2160 1440 7200 720 720 720 14400 19440 175680 4320 8640 11520 12960 11520 720 5760 2160 16560 5760 9360 720 15120 4320 17280 720 1440 3600 43200 1440 10080 2880 720 1440 25920 2880 10800 720 720 5040 2880 2160 2160 7200 1440 2160 31680 12240 3600 2880 4320 2160 720 1440 2880 720 9360 3600 720 2880 256320 3600 18720 2880 12240 9360 21600 5040 2160 720 720 1440 6480 1440 2160 83520 7200 7920 1440 2160 6480 2160 720 2880 720 10080 2160 2160 1440 1440 10800 11520 7200 7200
internal_value=2.3861e-05 5.75057 -6.63247 12.3819 3.95663 17.9673 9.02363 6.32434 -7.97129 2.16277 24.4382 5.89865 12.7693 7.15888 32.6616 14.7138 10.3965 3.32695 -2.50901 3.76347 6.21029 14.3665 16.7577 17.2649 23.6233 15.7053 7.52803 18.6799 20.4328 1.72743 4.7903 0.57918 5.59164 35.6988 31.1075 43.3502 42.1335 -8.56585 14.5695 26.7146 4.02086 21.5358 24.0389 22.5666 20.8942 24.1285 2.74924 4.23598 8.77004 2.75577 34.6349 29.8454 7.91355 18.7233 33.7322 11.2668 15.1131 4.6903 0.165428 7.66428 8.40385 9.34393 10.8917 7.0062 11.6859 16.2284 16.7406 7.78948 -3.22219 5.10059 5.19467 8.16274 8.06036 25.0612 9.12266 -0.0133364 0.47999 17.6685 29.7678 11.4882 9.1334 13.3051 -7.56259 6.54058 8.51778 1.75432 19.4797 3.57036 2.09847 5.30126 5.37938 7.6792 9.08194 15.5628 40.815 3.35736 5.458 -2.74821 24.704 3.7584 4.05331 7.79857 8.51281 9.3436 -0.199446 0.363953 -4.1432 17.6559 17.1535 27.4516 10.3822 16.9489 18.7789 -5.76999 7.3871 5.50399 6.841 9.65182 12.1151 6.27583 0.952443 1.69204 2.14727 5.6082 6.4468 -5.399 -4.98606 12.5144 9.10372 2.66463 1.82734 8.01581 4.47681 5.04599 14.8317 -1.86217 1.0608 16.6957 17.3298 10.2566 1.40199 8.12397 15.6857 12.7861 1.61335 8.01894 1.13884 4.96999 7.13305 8.07259 14.6434 12.7327 13.6797 26.6482 -2.2263 0.729721 6.77018 -1.01918 -5.03348 4.59741 31.4838 28.9491 -2.25535 14.6547 17.1354 10.3729 7.87387 7.69906 -7.33506 -7.00122 10.4959 16.5011 -2.80409 1.407 5.69801 -0.72067 12.9223 -2.02146 11.8672 -2.48439 5.81211 17.2725 7.31501 3.84636 3.61998 20.1876 21.4134 23.7002 -5.18363 12.9515 7.88974 10.0842 17.6356 19.1957 4.72475 13.8402 8.95701 7.23824 10.6757 13.706 -2.24456 36.498 7.59898 11.9169 16.0817 10.3149 6.80035 -0.62284 14.9098 8.17714 10.2609 8.45375 6.64152 12.6421 8.37163 12.6864 12.3907 7.89934 11.0826 9.51203 -9.00878 12.1007 4.42012 16.1011 18.216 8.63097 -4.24475 5.17102 6.4236 7.15206 39.0854 9.68729 9.84904 4.85921 3.29749 2.75155 0.00349057 -7.2516 11.3335 1.62692 -7.14423 23.9716 27.8242 6.49744 7.81006 6.39635 16.2186 15.5839 12.5245 5.7296 -4.3438 5.77939 6.51916 0.635277
internal_weight=3.24504e+06 1.73808e+06 1.50696e+06 370080 1.368e+06 138960 231120 589680 1.1376e+06 778320 49680 126000 105120 478080 12960 75600 28080 448560 369360 403920 333360 89280 50400 47520 9360 38160 178560 24480 20880 41040 249840 329760 181440 11520 7200 4320 5040 895680 10800 10080 11520 36720 22320 21600 18720 13680 111600 65520 111600 70560 3600 7920 84960 7200 5760 38880 12960 154800 77760 83520 71280 144720 62640 30960 8640 48960 5760 29520 291600 164160 22320 82080 69840 1440 24480 259200 201600 35280 1440 15120 51840 12240 274320 69120 27360 34560 2160 90720 154080 9360 2160 33840 7200 9360 2880 12240 66960 231120 1440 58320 95040 78480 3600 25920 74880 65520 9360 14400 33840 1440 13680 2880 7920 241920 55440 17280 14400 2880 5040 64080 167760 136080 114480 4320 40320 199440 161280 13680 6480 68400 51120 5040 65520 56880 16560 33840 10800 32400 29520 17280 136800 74880 2160 3600 41760 2880 38880 18000 10800 26640 7920 35280 28080 2880 171360 8640 12960 23760 60480 21600 5760 4320 18000 23040 10080 7920 51120 50400 256320 203040 5040 27360 115920 33840 56160 21600 11520 12240 18000 104400 20160 23760 23760 92880 88560 7200 6480 5040 59760 2160 10800 71280 23040 14400 44640 10800 30240 15120 15120 10800 98640 3600 29520 12960 3600 9360 40320 44640 4320 32400 8640 6480 28800 2160 18720 3600 10800 72720 7200 6480 621360 7920 30240 3600 12960 10800 59760 18000 18720 16560 1440 5040 68400 10800 10800 92160 8640 183600 4320 4320 38160 4320 2160 20880 13680 10800 9360 7200 3600 5040 113040 16560 38880 46080
internal_count=3245040 1738080 1506960 370080 1368000 138960 231120 589680 1137600 778320 49680 126000 105120 478080 12960 75600 28080 448560 369360 403920 333360 89280 50400 47520 9360 38160 178560 24480 20880 41040 249840 329760 181440 11520 7200 4320 5040 895680 10800 10080 11520 36720 22320 21600 18720 13680 111600 65520 111600 70560 3600 7920 84960 7200 5760 38880 12960 154800 77760 83520 71280 144720 62640 30960 8640 48960 5760 29520 291600 164160 22320 82080 69840 1440 24480 259200 201600 35280 1440 15120 51840 12240 274320 69120 27360 34560 2160 90720 154080 9360 2160 33840 7200 9360 2880 12240 66960 231120 1440 58320 95040 78480 3600 25920 74880 65520 9360 14400 33840 1440 13680 2880 7920 241920 55440 17280 14400 2880 5040 64080 167760 136080 114480 4320 40320 199440 161280 13680 6480 68400 51120 5040 65520 56880 16560 33840 10800 32400 29520 17280 136800 74880 2160 3600 41760 2880 38880 18000 10800 26640 7920 35280 28080 2880 171360 8640 12960 23760 60480 21600 5760 4320 18000 23040 10080 7920 51120 50400 256320 203040 5040 27360 115920 33840 56160 21600 11520 12240 18000 104400 20160 23760 23760 92880 88560 7200 6480 5040 59760 2160 10800 71280 23040 14400 44640 10800 30240 15120 15120 10800 98640 3600 29520 12960 3600 9360 40320 44640 4320 32400 8640 6480 28800 2160 18720 3600 10800 72720 7200 6480 621360 7920 30240 3600 12960 10800 59760 18000 18720 16560 1440 5040 68400 10800 10800 92160 8640 183600 4320 4320 38160 4320 2160 20880 13680 10800 9360 7200 3600 5040 113040 16560 38880 46080
is_linear=0
shrinkage=0.05


Tree=3
num_leaves=255
num_cat=0
split_feature=0 7 0 0 0 18 18 11 11 0 7 11 11 11 11 18 9 0 7 9 13 16 13 11 11 11 11 13 7 19 11 15 12 11 18 11 11 11 11 11 11 0 12 11 11 11 11 15 2 12 0 11 11 2 11 11 11 13 18 7 11 13 12 18 7 7 12 13 13 2 15 13 13 11 11 13 11 0 12 13 0 0 18 0 18 18 18 15 13 18 2 9 2 6 9 15 11 22 18 12 0 6 13 0 11 12 12 0 13 13 13 13 18 7 11 11 11 11 13 18 18 11 11 11 7 13 11 11 11 11 7 13 11 11 0 6 12 8 11 11 0 13 11 0 16 13 11 22 11 11 13 18 9 17 12 18 13 18 19 11 12 8 11 12 9 2 8 0 0 12 12 18 13 15 7 22 0 9 11 11 9 11 11 12 18 2 7 0 18 0 7 12 6 6 12 11 11 16 7 11 9 11 11 13 7 19 19 10 11 11 9 14 11 15 14 7 11 11 0 11 11 13 7 12 0 13 11 13 13 11 11 12 18 7 2 18 11 7 18 0 11 18 18 7 2 0 11 7 13 8 8 18 12 11
split_gain=4.468e+10 7.46425e+09 3.00326e+09 2.50595e+09 2.09754e+09 1.16885e+09 9.76622e+08 6.39858e+08 1.36283e+09 5.37493e+08 5.18e+08 4.42687e+08 6.60345e+08 5.42385e+08 4.60371e+08 4.28033e+08 4.36213e+08 3.84361e+08 3.67463e+08 3.50327e+08 3.39912e+08 4.37223e+08 3.1115e+08 3.04155e+08 3.95694e+08 4.2354e+08 2.94781e+08 2.67315e+08 2.54326e+08 2.52127e+08 2.50305e+08 2.45902e+08 2.38884e+08 2.16999e+08 2.15234e+08 2.05258e+08 1.85338e+08 3.96103e+08 2.24235e+08 1.84439e+08 1.8262e+08 1.95894e+08 1.76254e+08 1.74025e+08 1.73341e+08 1.57514e+08 3.84076e+08 3.53532e+08 2.33145e+08 2.2036e+08 3.36925e+08 1.55566e+08 4.39028e+08 1.50925e+08 1.48023e+08 1.46805e+08 2.44817e+08 1.45855e+08 1.486e+08 1.4368e+08 1.38638e+08 1.29187e+08 1.2236e+08 4.80503e+08 1.20875e+08 1.95161e+08 1.66811e+08 1.7286e+08 1.76246e+08 1.42134e+08 1.34401e+08 1.18303e+08 1.15802e+08 1.13372e+08 2.66425e+08 1.32788e+08 1.43148e+08 1.11661e+08 1.09007e+08 1.07466e+08 1.0393e+08 1.75685e+08 1.17811e+08 1.03837e+08 1.03821e+08 2.59922e+08 1.01648e+08 1.72741e+08 1.59035e+08 2.41502e+08 1.53238e+08 1.04308e+08 1.00281e+08 9.93163e+07 9.71653e+07 1.21463e+08 9.67766e+07 9.62388e+07 1.02946e+08 9.43355e+07 1.09935e+08 2.24261e+08 9.4204e+07 1.10783e+08 9.22778e+07 9.2e+07 9.14575e+07 1.20843e+08 9.07722e+07 8.74775e+07 8.61011e+07 9.9586e+07 8.17333e+07 7.98861e+07 7.96242e+07 7.87117e+07 1.29786e+08 1.39452e+08 1.32965e+08 7.7101e+07 7.54835e+07 7.49822e+07 1.79066e+08 9.19008e+07 7.45008e+07 9.51878e+07 7.44122e+07 2.21483e+08 1.85247e+08 1.35264e+08 1.11859e+08 3.78484e+08 3.61909e+08 5.61664e+08 8.40118e+08 7.37005e+07 7.35266e+07 7.59419e+07 7.67419e+07 1.42832e+08 1.64675e+08 7.31987e+07 7.7867e+07 7.29989e+07 7.29493e+07 7.28293e+07 7.23761e+07 7.19902e+07 7.17721e+07 3.29214e+08 7.029e+07 6.94154e+07 6.93548e+07 6.89983e+07 6.8247e+07 6.8124e+07 6.75565e+07 6.7529e+07 6.72715e+07 2.27672e+08 1.24503e+08 6.68522e+07 6.63833e+07 6.61669e+07 6.56072e+07 6.54182e+07 8.07527e+07 1.10723e+08 7.4048e+07 6.50627e+07 6.47937e+07 9.65766e+07 6.50514e+07 6.45318e+07 6.34364e+07 6.34019e+07 9.27233e+07 1.42192e+08 6.33989e+07 7.0134e+07 8.65808e+07 6.33761e+07 1.06674e+08 2.26933e+08 6.30404e+07 6.30004e+07 6.26509e+07 8.7803e+07 8.9253e+07 6.22744e+07 6.21597e+07 6.11987e+07 7.59865e+07 6.11406e+07 1.32239e+08 6.10244e+07 7.19315e+07 6.04477e+07 5.93235e+07 5.88735e+07 5.85239e+07 5.85099e+07 9.73087e+07 5.77046e+07 5.92598e+07 5.68149e+07 5.68068e+07 5.64311e+07 5.63361e+07 7.40407e+07 5.62935e+07 6.68816e+07 5.60826e+07 5.57154e+07 5.48886e+07 5.42277e+07 5.42224e+07 8.53912e+07 1.16765e+08 7.15968e+07 5.41104e+07 5.37266e+07 5.26553e+07 5.21903e+07 5.20424e+07 5.19377e+07 7.29994e+07 5.18857e+07 5.62905e+07 5.17779e+07 5.89897e+07 5.0275e+07 5.25604e+07 9.74017e+07 5.09605e+07 5.01702e+07 5.0147e+07 4.97284e+07 5.38e+07 4.93746e+07 4.93682e+07 4.89997e+07 4.889e+07 7.12242e+07 4.87636e+07 4.8594e+07 4.84263e+07 4.83418e+07 4.77915e+07 4.77634e+07 4.73863e+07 4.70524e+07 4.93615e+07 4.68826e+07
threshold=4.5000000000000009 3.4850000000000008 3.5000000000000004 9.5000000000000018 7.5000000000000009 10.400019913911821 8.0537028312683123 47.000000000000007 44.500000000000007 2.5000000000000004 5.1150000000000011 21.500000000000004 24.500000000000004 17.500000000000004 22.500000000000004 21.929103493690494 0.43826219512195125 6.5000000000000009 3.1050000000000004 0.5634920634920636 18.500000000000004 10.500000000000002 10.500000000000002 21.500000000000004 47.000000000000007 44.500000000000007 24.500000000000004 14.500000000000002 5.0850000000000009 5.5000000000000009 22.500000000000004 14.500000000000002 5.5000000000000009 17.500000000000004 6.6813111603260049 49.500000000000007 21.500000000000004 24.500000000000004 22.500000000000004 47.000000000000007 21.500000000000004 16.500000000000004 5.5000000000000009 47.000000000000007 49.500000000000007 44.500000000000007 47.000000000000007 8.5000000000000018 1.5000000000000002 12.500000000000002 8.5000000000000018 47.000000000000007 44.500000000000007 1.0000000180025095e-35 44.500000000000007 44.500000000000007 47.000000000000007 7.5000000000000009 3.1521428823471074 7.0300000000000002 17.500000000000004 68.500000000000014 5.5000000000000009 10.663708806037905 4.1750000000000007 4.1250000000000009 5.5000000000000009 23.500000000000004 20.500000000000004 1.0000000180025095e-35 1.0000000180025095e-35 11.500000000000002 6.5000000000000009 27.500000000000004 29.500000000000004 44.500000000000007 43.500000000000007 8.5000000000000018 10.500000000000002 32.500000000000007 14.500000000000002 11.500000000000002 11.077657461166384 5.5000000000000009 8.1307195564731973 8.3496646806597727 11.864555549807848 12.500000000000002 22.500000000000004 17.609095171093944 1.0000000180025095e-35 0.48529411764705882 2.5000000000000004 1.0000000180025095e-35 0.22500000000000003 14.500000000000002 43.500000000000007 1.0000000180025095e-35 2.581600483914372 2.5000000000000004 10.500000000000002 1.0000000180025095e-35 10.500000000000002 6.5000000000000009 47.000000000000007 9.5000000000000018 6.5000000000000009 12.500000000000002 9.5000000000000018 58.500000000000007 58.500000000000007 7.5000000000000009 11.619425201788546 3.2350000000000008 17.500000000000004 22.500000000000004 24.500000000000004 26.500000000000004 87.500000000000014 8.4534058570861834 10.118660874664785 21.500000000000004 24.500000000000004 22.500000000000004 4.9050000000000011 3.5000000000000004 29.500000000000004 27.500000000000004 35.500000000000007 26.500000000000004 3.7650000000000001 14.500000000000002 32.500000000000007 31.000000000000004 8.5000000000000018 1.0000000180025095e-35 8.5000000000000018 3.5000000000000004 31.000000000000004 32.500000000000007 7.5000000000000009 27.500000000000004 38.500000000000007 1.5000000000000002 1.5000000000000002 4.5000000000000009 17.500000000000004 1.0000000180025095e-35 35.500000000000007 33.500000000000007 7.5000000000000009 11.077657461166384 0.36931818181818182 1.0000000180025095e-35 1.5000000000000002 13.68475425243378 37.500000000000007 10.253204822540285 5.5000000000000009 43.500000000000007 3.5000000000000004 3.5000000000000004 41.500000000000007 4.5000000000000009 0.57738095238095244 1.0000000180025095e-35 2.5000000000000004 8.5000000000000018 7.5000000000000009 6.5000000000000009 2.5000000000000004 3.7922092676162724 20.500000000000004 8.5000000000000018 3.1050000000000004 1.0000000180025095e-35 10.500000000000002 0.39230769230769236 43.500000000000007 49.500000000000007 0.51470588235294124 31.000000000000004 32.500000000000007 12.500000000000002 2.663379549980164 1.5000000000000002 4.3250000000000011 5.5000000000000009 0.22292440384626389 32.500000000000007 6.285000000000001 2.5000000000000004 1.0000000180025095e-35 1.0000000180025095e-35 6.5000000000000009 26.500000000000004 22.500000000000004 6.5000000000000009 3.7450000000000006 38.500000000000007 0.42261904761904762 27.500000000000004 17.500000000000004 15.500000000000002 3.4750000000000005 3.5000000000000004 5.5000000000000009 1.0000000180025095e-35 47.000000000000007 44.500000000000007 0.6515151515151516 1.0000000180025095e-35 17.500000000000004 14.500000000000002 1.0000000180025095e-35 4.785000000000001 38.500000000000007 29.500000000000004 26.000000000000004 32.500000000000007 41.500000000000007 7.5000000000000009 4.6250000000000009 1.5000000000000002 11.500000000000002 68.500000000000014 14.500000000000002 9.5000000000000018 51.500000000000007 38.500000000000007 40.000000000000007 3.5000000000000004 3.5467345714569096 5.0550000000000006 2.5000000000000004 12.113914012908937 17.500000000000004 3.6750000000000003 3.8721199035644536 12.500000000000002 31.000000000000004 6.8147304151207218 6.4263896942138681 5.0450000000000008 1.5000000000000002 12.500000000000002 33.500000000000007 4.1450000000000005 71.500000000000014 3.5000000000000004 4.5000000000000009 7.4164010054082619 8.5000000000000018 28.500000000000004
decision_type=2 2 2 2 2 2 2 2 2 2 2 2 2 2 2 2 2 2 2 2 2 2 2 2 2 2 2 2 2 2 2 2 2 2 2 2 2 2 2 2 2 2 2 2 2 2 2 2 2 2 2 2 2 2 2 2 2 2 2 2 2 2 2 2 2 2 2 2 2 2 2 2 2 2 2 2 2 2 2 2 2 2 2 2 2 2 2 2 2 2 2 2 2 2 2 2 2 2 2 2 2 2 2 2 2 2 2 2 2 2 2 2 2 2 2 2 2 2 2 2 2 2 2 2 2 2 2 2 2 2 2 2 2 2 2 2 2 2 2 2 2 2 2 2 2 2 2 2 2 2 2 2 2 2 2 2 2 2 2 2 2 2 2 2 2 2 2 2 2 2 2 2 2 2 2 2 2 2 2 2 2 2 2 2 2 2 2 2 2 2 2 2 2 2 2 2 2 2 2 2 2 2 2 2 2 2 2 2 2 2 2 2 2 2 2 2 2 2 2 2 2 2 2 2 2 2 2 2 2 2 2 2 2 2 2 2 2 2 2 2 2 2 2 2 2 2 2 2 2 2 2 2 2 2
left_child=2 3 9 6 10 32 17 8 11 59 23 13 14 150 -13 35 20 93 19 31 21 -17 106 33 25 26 30 197 94 78 -25 44 39 -3 42 55 60 38 -38 40 146 73 77 54 45 86 47 48 61 72 -51 52 102 -31 92 62 99 253 -59 143 -12 -47 63 201 65 70 67 68 -67 -70 -29 -9 -49 115 -75 97 -77 -24 147 208 81 82 -65 -60 174 96 87 -8 -88 90 162 -89 110 203 213 135 195 -76 220 189 101 -101 -39 144 -98 113 107 124 -30 222 111 -19 161 151 -23 -42 118 -118 164 -78 214 212 123 -123 125 -14 127 129 130 -36 131 132 133 -128 -135 154 137 -113 206 140 -140 142 181 -1 -104 -27 173 -21 149 -43 -6 -20 -69 -142 -96 205 -143 -127 185 -160 -161 169 199 -66 175 166 168 -168 -74 215 171 -16 -173 -5 -34 176 -117 -178 193 180 -180 -87 183 -183 -152 -84 187 -147 -189 -57 -124 -100 -193 -18 -195 196 236 -10 -44 -90 -201 202 -7 -2 -205 -64 -139 227 209 -22 211 -149 -110 -4 -115 248 217 -116 240 -220 229 -26 -79 -95 -179 -91 -227 -11 -229 -99 -231 232 -32 234 -234 -103 -86 -174 -239 244 -219 -73 -188 -244 -176 -120 -194 -154 -85 -199 251 -172 -253 -28
right_child=1 4 28 5 7 15 18 71 27 207 36 12 22 -15 170 16 178 43 105 29 79 114 34 24 221 145 57 64 108 53 231 -33 84 -35 126 -37 37 51 -40 -41 41 148 198 -45 -46 46 -48 49 -50 50 -52 -53 -54 -55 -56 56 -58 58 83 -61 -62 -63 155 80 163 66 -68 152 69 -71 -72 241 165 74 75 76 119 109 -80 -81 -82 -83 158 112 85 141 88 91 89 225 -92 -93 -94 223 95 -97 104 98 191 100 -102 235 103 -105 -106 -107 -108 -109 121 -111 -112 136 -114 120 216 116 117 -119 245 -121 -122 122 190 -125 -126 157 128 -129 -130 -131 -132 -133 -134 134 -136 -137 -138 138 139 -141 153 156 -144 -145 -146 186 -148 210 -150 -151 184 -153 247 -155 -156 -157 -158 -159 159 160 -162 -163 -164 -165 -166 -167 167 -169 -170 -171 250 172 237 -175 239 -177 177 224 179 -181 -182 182 -184 -185 -186 -187 242 188 -190 -191 -192 192 246 194 -196 -197 -198 249 -200 200 -202 -203 -204 204 -206 -207 -208 -209 -210 -211 -212 -213 -214 -215 -216 -217 -218 218 219 -221 -222 -223 -224 -225 -226 226 -228 228 -230 230 -232 -233 233 -235 -236 -237 -238 238 -240 -241 -242 -243 243 -245 -246 -247 -248 -249 -250 -251 -252 252 -254 -255
leaf_value=-10.262391860642543 -0.37688586941259006 2.9430582784576416 16.123342242645659 66.246147046589016 2.0879626571791254 29.903361422368974 11.960170437722681 -4.2837856148577407 -0.04994147825668227 -6.7870188368376105 0.41089595872675527 7.2721805869777514 1.9781634430212371 -0.77682293600943031 13.817762652606755 3.3757033045004401 47.808227605349778 2.2594140306275752 10.482633679823255 10.40537557834236 29.159579676892292 -1.875215359829943 5.1051870330988454 3.934118118654069 -6.8394379135613894 -0.6463479453015708 -4.2310218272211753 128.74131329812084 -4.9115402223322135 23.710602891387222 9.8599469822622439 45.492058208355921 5.949589890807033 -2.4445173161235552 5.7979202209223528 2.5308517787181648 2.2585892872882689 -2.2460179831200286 11.291833207091237 5.8879156801474153 14.387402889755544 38.467714110022897 8.3168091960011346 0.06704493420162945 1.681700080999966 63.7493113905903 10.682512839854247 -2.37468780301502 228.74151201723421 246.57610633824748 41.492290863697228 -3.0992815099624291 9.5447143126113261 -0.29726302377734026 17.587841019017102 21.618165770351133 17.55925867893939 1.8984413569478982 2.5079050410392436 -8.5583377879708191 -4.6115655885095039 175.7663502842089 20.467083434057418 14.675543911966201 22.060412850729517 69.564459682384154 20.53254034066368 118.54928574672964 257.15750979806893 102.80082845592815 22.84585896837919 0.69701323100413426 20.161163981418841 4.3818927281896434 28.523463045738755 10.091098454949426 24.080464295301827 10.260516179985407 4.7082822513429337 45.612917390183256 30.741574512737657 11.302034112238911 26.579520380561547 6.9542273924441025 73.886903663165555 5.3569268805503345 14.838303762257002 36.01754089327013 37.899238534838126 10.316430654113653 16.915757832717503 15.670674856703736 21.494389510171757 3.3273499419300374 4.0213493463833947 20.246570493552177 128.33810722363771 45.50097208229586 21.720570631441213 26.626043850203338 46.013329926606858 187.21478551313328 -2.0388182395385392 3.213967221500754 40.583862284376302 1.2482753241990039 0.83191655221019722 22.606985324113296 -2.7450046861586124 5.0031065839877193 4.3345955426365403 8.2768606844103498 12.683738143528901 1.3424334470664729 34.506606573205367 20.688681452198864 11.335244733240962 29.823569031438609 105.43317895480716 66.016174407882758 13.148194945138691 -1.1387929348612389 -2.029315357250757 5.6740003671787331 -0.34890092570252429 6.5113450863860765 34.279867370910139 1.4564311701633945 7.5698888224464005 16.522770360752776 11.413804130503557 16.743986524622148 19.766926865653137 437.24878270348836 63.121484050560632 -3.4123807350156792 5.1997791207299953 8.0085695763819515 116.78906948705283 14.070304313067073 60.124956604451199 21.156541908420188 -5.9575515698000929 -6.9683085387018142 0.7255131293722844 5.0114249562686188 5.5217513513055314 13.993764771824605 24.882471805501794 161.84945468490017 4.0811028507132789 1.6320578478609542 15.523906600723459 21.548262955127711 -0.3818535317713887 20.464659067826666 11.952477545375521 16.719661697293184 30.419346803798589 153.4049838810316 28.576544736944562 11.750967658363376 19.763291875554888 14.221046671405094 74.497534396460523 19.325075721867851 75.667417110963015 28.313042774227672 79.510234082518707 3.3511849692464026 12.8799052584192 17.569865781495437 53.518631465710087 14.057141971346264 10.599110599582104 25.696586075421557 169.84812603820598 69.309074337811253 80.720921060953572 30.498185214011421 38.216491844944002 135.77336527337249 14.406595095265187 -1.6840609158533386 8.5557996577192803 15.873447235318935 8.3762178431181962 80.1122580529846 18.794876814374316 96.085724343334732 -3.9638372222488343 10.42813640586391 33.540688593443228 44.35186205491177 15.599762998281211 23.631202704892406 103.30829952195559 5.0501960791647003 3.8484882195658203 43.33056226494179 88.45099130038119 53.693507211191843 103.48751801570744 4.5817291148458272 19.341221814048968 10.301360914515648 23.329154666195024 -7.1361572459343865 5.6846324928598282 69.353109205056995 30.763290379209963 25.907238431291763 -6.5083043373930156 2.2145483499731875 13.297928813493682 3.345038753261087 27.247526081262393 153.80845196999584 -6.3658362602681766 60.508926012990486 17.815732083411937 -0.50729629081214134 6.836906099087682 -3.5696249622716665 14.18815100442947 102.36103466959095 22.551141801299188 -4.1653115929847493 -6.2637193648794609 148.6638939537479 49.344960118290601 10.300950173511096 17.796600641624533 109.00228827086792 55.857678127818055 112.14718704477664 14.882407459593509 95.769870451360049 28.387833439282321 16.078255267611265 83.389878785236931 4.656452319126906 14.11747106142893 49.573363527911738 0.76273886815730629 31.826128440679511 17.531676208974826 60.412342070897957 1.3105626571935176 15.579708163251027 21.655168830938266 15.080475459982143 26.424650814844455 0.89299289649973046
leaf_weight=18000 6480 37380 1440 60 7200 60 20160 10080 1440 38160 27480 24570 13500 49140 2370 2880 1800 6300 3600 6480 2520 120 42750 18690 3720 1140 5580 30 54000 720 2310 720 10800 37380 5880 1530 13740 30600 13740 4200 2040 540 8100 7620 2010 180 2010 240 30 30 60 27480 13740 7200 3810 420 1530 80100 47250 621360 27480 30 1890 3150 4770 90 270 30 30 30 6840 28260 420 4080 3240 6900 1260 39150 3600 1440 2520 4410 5040 50850 60 1320 11970 1260 2400 2520 1260 1260 1260 3600 10800 720 60 180 6120 90 870 30 30600 36450 60 5040 29700 900 19800 15300 18900 27720 3600 2880 480 180 2040 2040 90 120 10800 9900 112320 9900 7650 16200 60 11760 41160 5880 18840 4440 120 30 30 15840 10710 7260 60 6480 150 2880 960 256320 108450 1320 4200 6480 480 60 10500 5760 120 510 47520 5670 6480 1800 1800 60 30 3600 450 6180 90 450 300 210 60 45450 11850 1200 240 4140 10080 1410 30 150 360 180 180 60 480 60 31440 1890 8700 60 4800 30 65880 3960 630 1200 600 390 60 1710 89550 180 120 390 180 12240 720 5040 660 42480 240 120 720 1440 19800 1440 1440 17550 480 30 60 120 120 33660 15750 11520 60 30 600 117360 43920 30 30 12540 3720 30 90 90 90 30 1950 3600 150 10800 2520 150 1440 30 1890 120 4050 2910 2700 2760 1470 22320
leaf_count=18000 6480 37380 1440 60 7200 60 20160 10080 1440 38160 27480 24570 13500 49140 2370 2880 1800 6300 3600 6480 2520 120 42750 18690 3720 1140 5580 30 54000 720 2310 720 10800 37380 5880 1530 13740 30600 13740 4200 2040 540 8100 7620 2010 180 2010 240 30 30 60 27480 13740 7200 3810 420 1530 80100 47250 621360 27480 30 1890 3150 4770 90 270 30 30 30 6840 28260 420 4080 3240 6900 1260 39150 3600 1440 2520 4410 5040 50850 60 1320 11970 1260 2400 2520 1260 1260 1260 3600 10800 720 60 180 6120 90 870 30 30600 36450 60 5040 29700 900 19800 15300 18900 27720 3600 2880 480 180 2040 2040 90 120 10800 9900 112320 9900 7650 16200 60 11760 41160 5880 18840 4440 120 30 30 15840 10710 7260 60 6480 150 2880 960 256320 108450 1320 4200 6480 480 60 10500 5760 120 510 47520 5670 6480 1800 1800 60 30 3600 450 6180 90 450 300 210 60 45450 11850 1200 240 4140 10080 1410 30 150 360 180 180 60 480 60 31440 1890 8700 60 4800 30 65880 3960 630 1200 600 390 60 1710 89550 180 120 390 180 12240 720 5040 660 42480 240 120 720 1440 19800 1440 1440 17550 480 30 60 120 120 33660 15750 11520 60 30 600 117360 43920 30 30 12540 3720 30 90 90 90 30 1950 3600 150 10800 2520 150 1440 30 1890 120 4050 2910 2700 2760 1470 22320
internal_value=2.69289e-05 5.46305 -6.30085 11.7628 3.7588 17.069 8.57247 6.00812 6.50473 -7.57273 2.05463 5.95687 6.66728 2.9376 12.1118 23.2164 31.0286 5.60372 12.1309 13.9782 24.5417 14.6238 5.94134 3.16061 3.74287 4.28514 3.85485 18.0097 -2.38356 9.36387 8.02567 16.4889 13.6482 0.249271 6.64326 20.4591 0.550221 1.08033 6.77524 15.9199 16.8318 18.3137 5.77482 7.30147 16.0559 16.6808 26.1382 41.5926 98.5296 33.8672 110.051 0.447565 0.890922 1.88554 7.95914 21.2386 31.7036 3.29874 3.67788 -8.13756 -2.10034 79.8278 20.2418 22.7203 20.9938 25.8568 51.2051 70.9136 113.941 180.279 23.3102 0.545518 29.7796 17.6964 16.2112 18.1827 13.0315 7.11976 12.5278 34.459 21.2881 19.8336 22.9767 4.50487 10.7035 14.3575 15.7801 13.5031 18.4243 24.1018 31.6546 25.8451 7.50061 1.11176 0.15716 -0.189471 43.551 20.8155 18.8883 45.8459 53.8606 86.3334 0.313998 0.760361 84.5314 7.40002 2.9344 4.49353 -3.06108 8.34657 7.27668 8.20575 5.25912 8.66654 37.1182 22.8942 25.7295 20.5799 36.0271 27.7316 10.9139 -2.64052 -2.24329 2.26761 4.07707 5.15195 8.71689 6.30846 9.59267 11.1604 13.1325 20.0509 81.197 142.559 250.601 -0.387907 8.90532 9.83169 12.6821 16.4182 37.5442 12.6399 5.66897 -7.18446 0.11718 11.5999 10.1631 14.3895 39.3016 50.8308 6.65202 5.0362 46.9763 30.3235 0.43356 16.4 14.7847 7.53226 25.9411 34.3038 111.873 5.03912 37.5494 17.6362 32.8324 35.1384 42.3237 56.1779 27.5948 4.83417 16.9514 21.5759 26.9516 14.8043 8.87643 30.7793 47.8326 68.1734 44.0015 57.5519 66.5625 11.4822 24.9548 67.1004 7.43554 23.66 12.3954 16.4476 19.5535 26.6029 -2.7445 18.1347 14.7478 41.2899 34.7692 35.3422 57.0697 8.89473 4.21914 40.5129 61.4022 65.6739 85.1116 3.47561 5.40184 13.0741 9.28556 -5.48149 28.8807 30.9891 17.3774 16.1602 -4.62667 9.16927 5.32782 5.76448 40.663 48.3247 66.7342 38.2262 45.2499 -1.13748 9.27835 -1.92748 53.5745 13.5273 26.3673 -5.12905 -4.73676 58.9538 99.1692 12.1172 15.8203 19.4055 18.6971 131.054 38.5177 32.0218 29.4136 10.967 95.2052 1.7918 10.1927 16.1112 9.36958 87.0733 21.5351 37.984 6.53789 11.6826 15.5255 14.4961 19.0233 -0.131821
internal_weight=3.24504e+06 1.73808e+06 1.50696e+06 370080 1.368e+06 138960 231120 589680 540540 1.1376e+06 778320 515970 417690 98280 49140 49680 12960 126000 105120 75600 8640 4320 368550 448560 373800 336420 317730 24570 369360 26640 37380 48960 89280 74760 298800 36720 329760 274800 27480 50400 46200 37800 210600 91440 48240 46230 4020 2010 240 1770 90 247320 219840 7920 83820 35190 3060 280350 252450 895680 54960 210 32130 19530 18510 7560 690 420 150 60 6870 49140 1680 36720 28560 24480 8280 112950 18720 4320 18900 16380 11970 172350 38880 12960 42210 22680 19530 7560 4410 2520 80010 34560 77760 74880 720 16200 12960 1530 1080 210 206100 175500 120 29520 69750 40050 291600 70200 78750 59850 125100 24480 1440 8160 6120 4080 2040 1380 15120 237600 198000 19800 39150 31500 88200 23520 64680 11760 23520 4680 240 120 60 74160 53550 42840 15120 7200 720 12240 2880 274320 139050 18690 8400 15120 1080 600 49140 9360 270 660 58320 12600 9360 18000 8820 1890 90 121500 3150 10950 1920 1440 990 510 480 117900 24570 5790 3420 4200 25920 1830 420 240 4320 720 540 1920 600 120 41940 6930 17550 6180 4860 450 178200 12600 6480 3600 1800 600 210 6060 97650 2700 300 630 240 19440 12960 6930 7920 241920 2880 2640 8640 7920 39600 2880 4320 72450 1320 840 360 180 360 37380 54900 15120 210 3150 630 199440 161280 240 60 18690 6150 3840 3810 120 150 2220 1980 15120 180 39060 11370 2670 11520 120 2520 240 54900 4620 18780 16080 4230 27900
internal_count=3245040 1738080 1506960 370080 1368000 138960 231120 589680 540540 1137600 778320 515970 417690 98280 49140 49680 12960 126000 105120 75600 8640 4320 368550 448560 373800 336420 317730 24570 369360 26640 37380 48960 89280 74760 298800 36720 329760 274800 27480 50400 46200 37800 210600 91440 48240 46230 4020 2010 240 1770 90 247320 219840 7920 83820 35190 3060 280350 252450 895680 54960 210 32130 19530 18510 7560 690 420 150 60 6870 49140 1680 36720 28560 24480 8280 112950 18720 4320 18900 16380 11970 172350 38880 12960 42210 22680 19530 7560 4410 2520 80010 34560 77760 74880 720 16200 12960 1530 1080 210 206100 175500 120 29520 69750 40050 291600 70200 78750 59850 125100 24480 1440 8160 6120 4080 2040 1380 15120 237600 198000 19800 39150 31500 88200 23520 64680 11760 23520 4680 240 120 60 74160 53550 42840 15120 7200 720 12240 2880 274320 139050 18690 8400 15120 1080 600 49140 9360 270 660 58320 12600 9360 18000 8820 1890 90 121500 3150 10950 1920 1440 990 510 480 117900 24570 5790 3420 4200 25920 1830 420 240 4320 720 540 1920 600 120 41940 6930 17550 6180 4860 450 178200 12600 6480 3600 1800 600 210 6060 97650 2700 300 630 240 19440 12960 6930 7920 241920 2880 2640 8640 7920 39600 2880 4320 72450 1320 840 360 180 360 37380 54900 15120 210 3150 630 199440 161280 240 60 18690 6150 3840 3810 120 150 2220 1980 15120 180 39060 11370 2670 11520 120 2520 240 54900 4620 18780 16080 4230 27900
is_linear=0
shrinkage=0.05


Tree=4
num_leaves=255
num_cat=0
split_feature=0 0 0 18 18 0 18 0 18 11 11 0 13 13 11 11 11 15 13 0 11 13 11 11 11 11 11 15 11 11 11 11 11 11 16 3 11 13 11 18 18 16 6 3 0 13 18 15 11 11 11 13 15 6 11 0 13 11 11 11 11 13 11 5 16 18 18 16 0 11 0 13 18 3 11 18 18 18 13 19 0 11 11 11 18 13 15 11 13 11 11 11 11 2 13 13 16 19 11 11 11 11 6 18 13 15 11 0 13 13 11 11 11 11 14 11 13 18 0 19 18 11 3 18 13 11 11 6 15 0 13 18 11 13 5 11 5 18 19 18 11 11 5 0 13 11 11 11 11 11 11 11 0 11 19 13 18 13 11 11 11 11 11 18 11 11 20 19 17 11 18 11 11 11 11 13 13 3 18 13 18 18 18 6 18 11 11 11 15 15 11 18 15 2 13 13 10 11 5 0 5 0 11 11 13 16 11 13 13 13 0 5 11 11 11 11 3 13 11 3 15 2 13 13 18 3 11 11 21 0 2 0 11 11 11 11 11 0 11 11 11 20 0 13 18 13 13 13 2 15 18 18 18 16
split_gain=4.03239e+10 5.27541e+09 2.71044e+09 2.57917e+09 1.91795e+09 1.06676e+09 7.07617e+08 5.58835e+08 5.57097e+08 5.44663e+08 8.03587e+08 4.85087e+08 4.21794e+08 3.86874e+08 3.64726e+08 4.961e+08 3.85602e+08 3.23585e+08 4.1278e+08 3.96307e+08 3.18217e+08 2.84108e+08 2.83656e+08 1.09274e+09 2.64e+08 2.96859e+08 2.39371e+08 2.34546e+08 2.25919e+08 5.03916e+08 3.61104e+08 2.98685e+08 2.12544e+08 4.95775e+08 2.03943e+08 1.94044e+08 1.90248e+08 1.84252e+08 1.80597e+08 1.70577e+08 1.534e+08 1.47879e+08 1.61288e+08 2.60636e+08 1.47193e+08 2.11647e+08 1.44161e+08 1.42718e+08 1.40668e+08 1.39657e+08 3.61327e+08 1.39106e+08 1.37066e+08 1.31546e+08 1.26507e+08 1.63624e+08 1.82375e+08 1.23728e+08 1.82501e+08 3.09315e+08 1.87826e+08 1.82463e+08 1.59614e+08 1.63842e+08 2.43845e+08 3.5065e+08 4.10344e+08 4.08125e+08 7.03802e+08 1.39241e+08 1.18038e+08 1.59922e+08 1.3218e+08 5.02505e+08 1.30161e+08 1.16089e+08 1.13362e+08 1.11339e+08 1.09873e+08 1.09431e+08 1.07994e+08 1.07311e+08 2.66081e+08 2.63097e+08 1.02922e+08 1.02913e+08 1.02187e+08 1.01675e+08 1.01528e+08 9.91361e+07 4.14506e+08 2.35061e+08 1.50351e+08 1.12945e+08 9.68764e+07 9.32046e+07 9.0875e+07 8.89775e+07 8.71664e+07 2.07725e+08 1.07285e+08 8.41014e+07 1.03638e+08 8.3825e+07 1.04647e+08 8.14636e+07 7.95916e+07 7.93265e+07 7.81789e+07 7.78169e+07 7.77404e+07 3.06345e+08 2.41448e+08 1.18547e+08 7.7327e+07 1.03368e+08 7.7026e+07 7.64528e+07 7.59899e+07 9.22499e+07 7.54882e+07 7.36094e+07 7.25627e+07 7.15385e+07 9.12812e+07 7.13143e+07 8.4068e+07 6.97707e+07 6.86816e+07 1.10737e+08 6.7138e+07 6.70418e+07 6.68667e+07 6.63731e+07 6.6216e+07 6.58984e+07 6.58596e+07 6.98869e+07 6.5208e+07 1.34556e+08 6.40208e+07 9.94109e+07 6.38492e+07 6.36589e+07 6.34112e+07 6.28688e+07 6.24906e+07 1.64408e+08 1.00819e+08 6.24766e+07 6.1742e+07 1.1902e+08 9.84369e+07 1.11988e+08 6.14601e+07 1.29382e+08 6.05067e+07 5.96933e+07 5.95215e+07 6.68439e+07 6.24295e+07 5.90486e+07 1.1011e+08 5.87751e+07 5.82205e+07 1.11859e+08 6.28912e+07 5.73543e+07 5.88103e+07 5.7214e+07 5.65667e+07 5.60386e+07 5.54744e+07 1.62466e+08 1.62115e+08 5.45075e+07 5.32227e+07 5.29536e+07 5.27398e+07 5.2583e+07 5.24557e+07 5.24201e+07 7.84529e+07 5.21881e+07 7.12693e+07 8.37392e+07 5.2127e+07 4.12255e+08 2.9287e+08 5.20565e+07 6.40539e+07 5.20424e+07 5.16612e+07 5.1453e+07 6.99491e+07 7.91203e+07 5.09291e+07 5.0818e+07 5.02719e+07 4.99988e+07 1.52647e+08 4.92034e+07 4.87147e+07 1.07795e+08 4.78438e+07 4.73938e+07 4.70431e+07 1.73405e+08 4.68268e+07 5.11282e+07 4.64999e+07 4.63456e+07 4.62591e+07 1.53093e+08 5.28126e+07 8.7822e+07 4.60826e+07 4.59455e+07 4.57561e+07 5.5021e+07 4.55983e+07 4.52129e+07 5.64849e+07 4.50017e+07 5.96778e+07 4.44535e+07 4.41167e+07 5.25585e+07 4.39442e+07 4.38568e+07 4.36689e+07 4.31294e+07 4.307e+07 5.71805e+07 4.28164e+07 1.17604e+08 5.5412e+07 1.73331e+08 4.23632e+07 4.12877e+07 5.80648e+07 4.1136e+07 5.4219e+07 4.43116e+07 4.10654e+07 4.10143e+07 4.09735e+07 4.38474e+07 4.09258e+07 4.09088e+07 4.06077e+07 8.64028e+07 9.87561e+07 4.53512e+07
