tree
version=v4
num_class=1
num_tree_per_iteration=1
label_index=0
max_feature_idx=31
objective=regression
feature_names=contextual_surprisal_lead1 ends_punct case_encoded POS_tag n_syllables morph_count zipf_frequency zipf_frequency_lag2 zipf_frequency_lag1 n_diacritics contextual_surprisal_lead2 verb_form is_content_word contextual_surprisal word_len_sq NE_type word_len contextual_surprisal_lag2 word_len_lead2 zipf_frequency_lead2 word_len_lead1 contextual_surprisal_lag1 starts_sentence is_capitalized word_len_lag1 is_inflected zipf_frequency_lead1 word_len_lag2 has_non_alpha is_NE vowel_consonant_ratio is_stopword
feature_infos=[0:99.693432799342958] [0:1] -1:0:1:3:2 -1:7:14:0:1:3:2:5:10:11:4:9:8:12:13:15 [0:15] [0:8] [0:7.7199999999999998] [0:7.7199999999999998] [0:7.7199999999999998] [0:5] [0:99.693432799342958] -1:0:1:3:2 [0:1] [0:99.693432799342958] [1:2209] -1:9:13:0:14:5:11:8:3:7:15:10:2:6:1:16:4 [1:47] [0:99.693432799342958] [0:47] [0:7.7199999999999998] [0:47] [0:99.693432799342958] [0:1] [0:1] [0:47] [0:1] [0:7.7199999999999998] [0:47] [0:1] [0:1] [0:1] [0:1]
tree_sizes=21994 22005 21944 21980 21921 21714 21836 21744 21797 21667 21621 21594 21635 21538 21517 21549 21523 21424 21471 21580 21512 21377 21446 21362 21416 21456 21490 21508 21448 21469 21484 21444 21483 21535 21475 21483 21527 21497 21540 21460 21498 21588 21512 21508 21651 21615 21621 21654 21581 21593 21774 21775 21738 21847 21744 21858 21825 21782 21785 21918 21862 21849 21920 21922 21830 21806 21935 21788 21888 21979 22066 21899 21956 21990 22001 21823 21945 21803 21978 21892 21901 21813 21921 21920 21880 21925 21933 21746 21935 22009 22012 21989 21938 21969 21971 22216 21989 21926 21904 22060 22162 22036 21976 22066 21935 22017 21883 21936 21792 22065 21779 22120 21903 22165 22026 21939

Tree=0
num_leaves=255
num_cat=3
split_feature=6 13 14 14 6 14 13 13 24 8 15 14 6 21 30 17 17 15 18 30 5 14 14 10 24 10 13 21 25 13 17 19 6 24 9 0 13 30 13 30 10 13 24 27 14 10 14 17 21 10 6 13 13 21 14 21 21 4 0 0 5 10 13 18 8 6 26 24 17 24 6 21 9 30 0 17 8 26 14 13 30 26 13 8 4 0 19 13 17 10 10 0 21 10 26 17 13 13 21 18 19 10 10 4 13 21 9 6 21 17 24 21 4 25 4 14 19 17 19 17 13 0 0 19 14 18 18 21 10 0 18 5 8 21 0 13 0 24 0 26 0 19 13 0 14 0 26 10 6 9 10 5 5 21 10 4 17 10 14 21 12 27 30 19 19 21 4 30 13 27 14 0 26 26 26 8 6 0 0 0 12 10 17 13 19 21 21 19 21 27 6 13 21 17 0 17 13 8 6 21 13 0 8 21 0 10 6 10 13 17 6 13 13 21 8 8 0 27 18 30 6 12 21 18 0 6 13 21 8 13 0 19 30 13 26 0 30 11 26 14 6 13 4 13 0 0 21 0 8 13 5 14 8 0
split_gain=4.65161e+08 1.52513e+08 8.48832e+07 6.3449e+07 6.84349e+07 2.98784e+07 3.15704e+07 2.03712e+07 3.30731e+07 1.76773e+07 1.7055e+07 1.56386e+07 1.52963e+07 1.52663e+07 1.98428e+07 1.51391e+07 1.30115e+07 1.02253e+07 1.12756e+07 9.58345e+06 9.52635e+06 8.975e+06 7.54506e+06 7.52175e+06 7.42865e+06 6.82419e+06 6.3554e+06 6.25122e+06 5.96291e+06 8.63022e+06 5.71716e+06 5.59023e+06 5.55295e+06 5.00532e+06 4.88325e+06 4.86419e+06 4.71463e+06 4.56239e+06 4.41427e+06 4.71187e+06 4.38929e+06 4.25773e+06 4.08273e+06 3.84869e+06 3.68902e+06 3.65335e+06 3.62712e+06 3.45363e+06 3.20742e+06 5.72939e+06 3.12822e+06 4.13457e+06 3.0961e+06 3.04815e+06 3.03229e+06 2.90796e+06 2.80627e+06 2.71894e+06 2.64935e+06 4.23497e+06 4.37002e+06 2.6456e+06 2.65555e+06 2.61684e+06 2.56455e+06 2.55261e+06 2.47615e+06 2.44244e+06 2.4369e+06 2.40796e+06 2.37807e+06 2.32395e+06 2.96533e+06 2.83774e+06 2.2887e+06 2.27484e+06 2.21954e+06 2.209e+06 2.19966e+06 2.1178e+06 2.10146e+06 2.08126e+06 2.07162e+06 1.95702e+06 2.47828e+06 1.92471e+06 1.92259e+06 1.89992e+06 1.86201e+06 1.84905e+06 1.8455e+06 1.84489e+06 1.83359e+06 1.825e+06 1.80301e+06 1.77733e+06 1.80343e+06 1.75944e+06 1.74067e+06 1.76392e+06 1.73636e+06 1.69998e+06 1.6966e+06 1.67438e+06 2.30058e+06 1.75792e+06 1.67941e+06 1.6572e+06 1.82345e+06 1.63984e+06 1.73555e+06 1.84194e+06 1.68503e+06 1.61897e+06 1.60538e+06 1.5888e+06 1.52889e+06 1.50967e+06 1.50395e+06 1.48247e+06 1.51556e+06 1.53456e+06 1.48185e+06 1.4745e+06 1.46685e+06 1.43987e+06 1.38536e+06 1.58418e+06 1.37888e+06 1.36226e+06 1.35574e+06 1.35231e+06 1.31906e+06 1.31884e+06 1.31807e+06 1.31728e+06 1.51226e+06 1.30629e+06 1.36027e+06 1.29906e+06 1.27868e+06 1.43306e+06 1.26327e+06 3.05033e+06 1.56323e+06 1.25923e+06 1.25809e+06 1.22754e+06 1.44472e+06 1.2095e+06 1.20745e+06 1.16778e+06 1.67706e+06 1.16722e+06 1.15641e+06 1.27217e+06 2.20643e+06 1.15445e+06 1.14805e+06 1.11741e+06 1.16879e+06 1.09748e+06 1.07226e+06 1.0714e+06 1.19205e+06 1.17383e+06 1.78913e+06 1.07081e+06 1.05003e+06 1.04533e+06 1.04227e+06 1.04198e+06 1.02937e+06 1.02888e+06 1.23862e+06 1.06268e+06 1.02662e+06 991157 984679 1.0976e+06 983295 978000 964141 954039 1.59443e+06 2.36005e+06 1.66306e+06 1.2731e+06 1.78221e+06 1.19507e+06 1.26207e+06 1.10814e+06 1.41555e+06 1.31377e+06 1.03982e+06 951911 949703 937081 931653 912158 959546 1.14265e+06 925696 899935 896242 1.18401e+06 889671 884440 883041 1.71512e+06 1.2126e+06 971634 882654 874988 872674 868285 867680 979631 952316 865393 1.01822e+06 1.06767e+06 1.05712e+06 854314 842632 840976 835814 828995 828822 828617 823152 820120 811494 800054 798032 797954 794986 792378 791302 783407 780176 779204 778922 775788 769352 764889 764582 759280 758954 756856 755276 820414 755172 752782
threshold=4.535000000000001 19.386002826059826 20.500000000000004 56.500000000000007 3.1150000000000007 90.500000000000014 30.069199382029876 11.630413443853472 11.500000000000002 7.455000000000001 0 42.500000000000007 3.7150000000000003 4.9099184249223029 0.40370370370370373 9.8199350519382484 18.613928754020471 1 8.5000000000000018 0.39230769230769236 5.5000000000000009 12.500000000000002 90.500000000000014 2.5499832386985215 2.5000000000000004 8.890561960541687 4.6480799984632029 6.1393235059162761 1.0000000180025095e-35 3.7615137328316952 1.3247569491595501 3.3850000000000002 3.4350000000000005 4.5000000000000009 1.0000000180025095e-35 3.8451760692051158 3.69889474216339 0.42261904761904762 11.630413443853472 0.6515151515151516 0.97373773601313196 11.90458405827534 6.5000000000000009 6.5000000000000009 90.500000000000014 8.4478201431195235 30.500000000000004 15.929147684856643 13.893648887522163 0.19873068259487411 3.7150000000000003 16.137516339699363 23.719963289913448 5.335424829005599 156.50000000000003 15.817106555757844 3.8831746040173485 2.5000000000000004 11.903748222592146 12.467752255415261 5.5000000000000009 1.0000000180025095e-35 6.2395797173451824 5.5000000000000009 7.455000000000001 5.1150000000000011 7.0550000000000006 2.5000000000000004 5.9092571543775714 1.5000000000000002 3.6750000000000003 3.3211574867596503 1.5000000000000002 0.42261904761904762 1.1104664371975024 7.3775893695588461 7.5950000000000006 5.9250000000000007 132.50000000000003 10.804127957262631 0.32051282051282054 4.535000000000001 10.647334470158725 3.3150000000000004 3.5000000000000004 0.020198425172751052 4.1250000000000009 6.8056145643053485 7.9945973589884796 37.868275926390837 8.963115593530576 11.903748222592146 2.7415623667225675 2.3712813116578282 7.4650000000000007 13.214896523851575 13.206576996805724 6.9830608406376342 15.109363553572456 12.500000000000002 7.455000000000001 12.357205419076317 0.61585319042258413 3.5000000000000004 9.8789799636498152 4.4943500383191148 1.0000000180025095e-35 3.4750000000000005 3.7187468070416405 3.19421881198432 6.5000000000000009 2.8055170391509674 3.5000000000000004 1.0000000180025095e-35 4.5000000000000009 72.500000000000014 7.455000000000001 8.2439490871963859 7.330000000000001 1.0000000180025095e-35 2.680658225814931 1.5124008991535416 7.1947889454632721 6.1450000000000005 42.500000000000007 1.0000000180025095e-35 10.500000000000002 0.40919780524992805 13.528320441711189 5.9689382299146816 7.5000000000000009 5.5000000000000009 7.330000000000001 0.78807184447803935 37.868275926390837 14.364758472641254 13.646861010164406 9.5000000000000018 14.118005590393912 6.4650000000000007 2.6978672720636374 4.3350000000000009 12.475318804122622 3.4020409274604293 72.500000000000014 1.7329257392137032 5.9850000000000012 0.074989036312095123 3.0250000000000004 2.5000000000000004 4.2482150037449964 4.5000000000000009 5.5000000000000009 0.013346014268881852 0.0041775937906626008 4.5000000000000009 7.6600408836643972 0.043442681902884958 12.500000000000002 10.154980473476867 1.0000000180025095e-35 13.500000000000002 0.77500000000000013 4.6650000000000009 3.3450000000000002 0.65220309954364575 3.5000000000000004 0.55050505050505061 8.4253139774796644 9.5000000000000018 90.500000000000014 0.0041775937906626008 4.9850000000000012 7.1750000000000007 5.6500000000000012 6.3700000000000001 6.3000000000000007 3.3736266418154797 7.5791684341917671 4.1820078745382459 1.0000000180025095e-35 0.21181820761131642 5.4283291690710849 10.5390538492102 4.5050000000000008 2.6590494763961887 2.6196645034440262 3.2250000000000005 5.5417506954192017 1.5000000000000002 4.4650000000000007 4.0554184750289863 6.8695353561515287 0.79930480532781822 10.378256262028904 1.5970192870831081 2.5917687239935967 6.9600000000000009 4.6950000000000012 5.3900219254005535 7.3912544082860423 6.9819765813897279 4.2550000000000008 3.1512052630729284 12.717534472321649 3.597037264765794 4.2550000000000008 0.017171086452986654 6.5519704232292577 14.330003627364535 3.8650000000000007 8.8515417493558584 16.919551249166819 7.5008379200837689 7.0300000000000002 5.1050000000000013 7.9825550531581984 2.5000000000000004 10.500000000000002 0.5634920634920636 4.7550000000000008 1.0000000180025095e-35 1.2636290292636227 7.5000000000000009 7.8633604938027863 5.6850000000000014 15.841333923767539 12.244800065656968 5.5850000000000009 2.6359755960258311 4.7875762514352571 4.7950000000000008 0.39230769230769236 18.630810055081213 3.9250000000000003 13.459045862190395 0.44173441734417346 2 7.455000000000001 56.500000000000007 3.4350000000000005 7.1010817903835592 4.5000000000000009 11.630413443853472 6.155584809520656 7.4009101525223491 18.498688081182852 16.312111476896732 6.8950000000000005 10.804127957262631 1.5000000000000002 56.500000000000007 4.745000000000001 4.7020957934982412
decision_type=2 2 2 2 2 2 2 2 2 2 9 2 2 2 2 2 2 9 2 2 2 2 2 2 2 2 2 2 2 2 2 2 2 2 2 2 2 2 2 2 2 2 2 2 2 2 2 2 2 2 2 2 2 2 2 2 2 2 2 2 2 2 2 2 2 2 2 2 2 2 2 2 2 2 2 2 2 2 2 2 2 2 2 2 2 2 2 2 2 2 2 2 2 2 2 2 2 2 2 2 2 2 2 2 2 2 2 2 2 2 2 2 2 2 2 2 2 2 2 2 2 2 2 2 2 2 2 2 2 2 2 2 2 2 2 2 2 2 2 2 2 2 2 2 2 2 2 2 2 2 2 2 2 2 2 2 2 2 2 2 2 2 2 2 2 2 2 2 2 2 2 2 2 2 2 2 2 2 2 2 2 2 2 2 2 2 2 2 2 2 2 2 2 2 2 2 2 2 2 2 2 2 2 2 2 2 2 2 2 2 2 2 2 2 2 2 2 2 2 2 2 2 2 2 2 2 2 2 2 2 2 2 2 2 2 2 2 9 2 2 2 2 2 2 2 2 2 2 2 2 2 2 2 2
left_child=1 3 21 10 7 9 23 22 17 16 55 42 20 15 -15 45 34 18 66 -11 54 33 93 40 38 35 159 -22 30 -30 -24 122 -29 146 52 37 115 -19 57 50 -7 -37 68 47 58 -8 85 48 119 -50 51 76 75 107 61 82 -21 124 64 60 -60 -6 114 -55 98 126 -9 92 135 -43 71 89 103 -74 -17 -3 -40 97 142 101 -48 -32 -1 -51 -85 -28 -80 -61 91 161 130 -16 -23 145 131 96 -71 -31 169 231 182 149 -98 106 -105 -106 238 108 -25 134 112 -112 140 234 153 157 213 236 176 -14 121 -121 -27 132 232 -69 127 -66 -103 -56 181 -79 -92 167 147 229 177 150 -139 -107 215 -142 144 -144 207 -5 -2 -82 -149 162 -117 -46 172 -63 -135 183 -157 -13 -87 160 -26 216 199 164 -146 166 -165 -122 -99 219 -119 -150 -153 174 175 -94 -44 -137 179 -145 -116 -59 -39 191 187 186 189 -185 -189 -186 -191 192 -156 -193 206 -120 -148 241 -152 200 201 202 -70 -175 -143 228 -187 -45 209 210 -167 -210 -160 -36 -88 246 218 -218 -64 220 221 -38 -222 -77 -169 -81 -52 -123 -206 -4 -134 -100 -12 -84 -54 -214 -104 248 -73 -221 -75 -95 -72 -35 -42 -126 -111 -131 -201 -96 251 -159 -243 -171
right_child=2 5 11 4 12 6 13 8 -10 19 24 36 43 14 88 74 -18 25 -20 56 27 67 28 53 26 31 46 32 29 77 81 -33 -34 243 116 41 44 100 39 -41 244 69 118 78 151 -47 80 -49 49 83 226 -53 113 63 129 -57 -58 90 59 87 -62 62 70 -65 65 -67 -68 125 79 95 242 72 73 240 -76 223 -78 94 86 225 109 -83 233 84 -86 158 214 -89 -90 -91 123 -93 173 197 249 -97 102 168 99 -101 -102 128 117 104 105 139 -108 -109 -110 110 111 -113 -114 -115 180 137 -118 170 195 120 133 227 -124 -125 245 -127 -128 -129 -130 247 -132 -133 230 154 -136 136 -138 138 -140 -141 141 204 143 178 163 -147 196 148 171 -151 198 152 -154 -155 155 156 -158 250 212 -161 -162 -163 -164 165 -166 208 -168 224 -170 253 -172 -173 -174 203 -176 -177 -178 -179 -180 -181 -182 -183 -184 184 185 194 -188 188 -190 190 -192 193 -194 -195 -196 -197 -198 -199 -200 237 -202 -203 -204 -205 205 -207 -208 -209 211 -211 -212 -213 235 -215 -216 -217 217 -219 -220 239 222 -223 -224 -225 -226 -227 -228 -229 -230 -231 -232 -233 -234 -235 -236 -237 -238 -239 -240 -241 -242 252 -244 -245 -246 -247 -248 -249 -250 -251 -252 -253 -254 -255
leaf_value=381.39902414933755 367.23083483293431 368.45872563659674 369.16413030505697 385.06474452254139 390.33967417890489 391.39017749243806 370.12040971046406 405.15204520078788 447.79850606230991 418.66347998038134 374.01746971390043 378.88259384946303 368.75503308693482 383.54851962278838 425.1364529217463 424.83091292355732 407.20298095197518 379.35246244676222 383.22688914415477 381.24802108430737 376.38812118040471 368.1684138663814 406.38697273510144 390.00252452346592 366.92187379791812 381.3022311140063 385.87017164951908 405.06894262270748 411.32615090800755 378.80750197872084 396.0114404344406 396.34499369051508 386.6073845780067 365.64121952540103 384.54182785768887 403.07303830102512 378.14848747698352 397.96885449069686 380.67170617308795 400.14980167570195 400.39668997490793 393.27006504849868 369.11104835943007 381.12417518074477 374.19902262261104 389.90889918604887 380.88335164725589 386.4222857097011 404.26157442054972 375.52387968193307 373.54128087779588 370.78575541689099 385.31737102898637 388.84284901063199 380.58106007394787 372.04580380738054 398.00809154795712 379.85323536613203 392.77499041551778 370.50915616584217 375.04269672022303 385.8717931998641 375.302135425443 378.30166216517637 389.56266484912737 370.89328077934334 421.76654196490063 377.45888961357844 380.46100494079315 386.28690714095416 386.43124267272498 374.62480757111223 376.30081426426716 393.77188604252234 406.06628204472082 375.59315132678131 389.69468866848615 374.0291292295812 388.19995165323809 378.43404582220376 380.07746597580984 383.25904635904146 388.55398849861609 398.08638588333588 379.71344471128543 364.84988199724961 376.21139958699467 376.50379883787804 431.17300792934418 390.72863989845092 375.00054559781915 413.40046885573605 379.12237736099507 373.76582013465048 388.95963172555105 371.69975893501902 393.69677538535342 391.02041918353183 371.94922403996634 389.26183494590862 379.58341166190826 383.51816472575496 382.27013558333817 377.21222459960842 390.2651845956629 383.71675008962114 381.25373112830323 383.65140794903721 402.23736421929107 369.50503933151549 387.25026198867056 372.64620031639691 385.00209457220677 393.77635804052909 389.89374475720689 374.50522520995486 374.74316254591292 381.01548555638522 376.88845826018724 377.31454263249435 372.70483889271026 370.85112482932476 390.01988599104681 385.1954135078617 379.32053343500144 368.05539059107576 386.12709713172495 376.33198278417717 373.95275702138758 388.9775053324995 370.46544033086565 380.78995237796158 389.77469724859554 383.46819822584666 380.67831539912214 377.03630578042652 386.41328718453758 382.1315301111606 367.92266000502627 378.23500550183917 380.14683691139697 374.62581744471834 387.23243908352708 373.30513885610969 379.25968711156708 371.88443506051601 367.32575919698257 368.11356732915669 383.38600884421214 382.8093293327691 373.89143753591662 380.29442681214397 371.21192169809035 374.68476789120524 383.79699530725918 376.64451327066712 387.70090165100555 370.74296892130843 371.08703979537722 367.05356949015805 371.02382253552821 387.50629915849515 377.77153839272256 386.50365575397348 374.01606878967152 386.48338255341071 371.02358688934584 375.59311736114819 383.98189226257631 373.13051728549556 390.5439370753312 372.40640811537639 376.40092042097012 383.18299676075259 368.68958184407023 371.25234727808038 366.65587085491859 368.1696340328017 375.21826854012079 383.12751751363487 378.86423054998141 374.81762999727783 391.38191266457414 372.92611569455062 388.7099676468485 374.13731573386843 391.97345308124022 377.81824965988369 388.49644139400453 375.5329413853097 387.70374381096275 376.97999014115231 375.19012105383467 373.58506563674769 377.78841306430621 370.60261136261892 369.75715781585575 381.22518330234669 369.69841935730466 370.08436466322104 372.60308577618389 367.61509085733661 370.52655927313754 372.99866449126779 377.68999259152366 374.35117354909431 369.63000042988546 374.04956998943089 374.57437836954199 387.04534923139414 378.07476190162822 378.31630013843738 384.40706316563342 391.06383567257279 381.59629381961076 375.17510368125875 371.69885078297511 380.42244084678208 383.20687404964565 372.48303769571442 368.69305991602818 372.57877652785231 371.66463232590075 383.45557933182806 385.541917996775 372.68120378065106 379.61464976236124 377.73208651998169 387.04081836849122 370.67144672139432 379.38470172038461 377.28243770846143 371.25224822957739 398.38216726017436 379.20759885890584 371.39417757274828 377.32146484964017 375.03113642128824 383.97552752889777 375.06685300610525 386.24955442014306 381.58990831912263 376.6643245408074 369.45898755765376 411.72183973388695 371.70485750614466 379.0087227986981 379.18714599292053 372.88276661396742 379.75846394396149 370.30351311412886 377.2203542714314 376.14276391812342 377.02488987519143
leaf_weight=120 4773 105 1369 20 47 93 36 48 23 48 383 43 99 40 71 20 48 88 48 40 67 865 48 143 206 110 22 71 24 135 44 260 96 6844 96 24 96 87 256 24 24 43 2358 47 380 66 111 68 22 246 337 85 66 95 159 39 67 107 71 204 68 24 769 155 24 169 44 41 24 168 140 371 70 46 96 123 93 198 72 174 47 118 163 23 90 72 140 375 47 24 243 69 45 118 47 47 23 71 118 24 24 45 107 327 65 263 161 72 39 174 22 937 47 24 23 463 24 72 85 142 775 487 88 68 116 4600 48 372 229 118 166 118 23 46 47 65 24 71 22 184 199 693 95 39 143 184 655 213 22 23 199 356 91 720 69 733 48 113 1371 313 1105 23 63 22 447 46 120 183 213 335 48 972 325 24 581 878 520 61 235 105 164 969 161 46 24 378 24 92 68 184 24 341 155 1732 132 206 1040 223 396 433 395 413 875 217 47 87 154 713 269 67 622 489 24 113 163 230 38 209 40 967 358 822 1824 48 24 100 68 48 48 2733 111 185 863 24 283 23 337 204 24 421 143 119 24 136 47 46 24 24 550 43 1876 86 137 197
leaf_count=120 4773 105 1369 20 47 93 36 48 23 48 383 43 99 40 71 20 48 88 48 40 67 865 48 143 206 110 22 71 24 135 44 260 96 6844 96 24 96 87 256 24 24 43 2358 47 380 66 111 68 22 246 337 85 66 95 159 39 67 107 71 204 68 24 769 155 24 169 44 41 24 168 140 371 70 46 96 123 93 198 72 174 47 118 163 23 90 72 140 375 47 24 243 69 45 118 47 47 23 71 118 24 24 45 107 327 65 263 161 72 39 174 22 937 47 24 23 463 24 72 85 142 775 487 88 68 116 4600 48 372 229 118 166 118 23 46 47 65 24 71 22 184 199 693 95 39 143 184 655 213 22 23 199 356 91 720 69 733 48 113 1371 313 1105 23 63 22 447 46 120 183 213 335 48 972 325 24 581 878 520 61 235 105 164 969 161 46 24 378 24 92 68 184 24 341 155 1732 132 206 1040 223 396 433 395 413 875 217 47 87 154 713 269 67 622 489 24 113 163 230 38 209 40 967 358 822 1824 48 24 100 68 48 48 2733 111 185 863 24 283 23 337 204 24 421 143 119 24 136 47 46 24 24 550 43 1876 86 137 197
internal_value=373.121 377.68 369.708 376.743 378.554 390.39 396.146 384.623 388.338 384.484 373.803 371.867 377.025 406.464 415.543 396.994 381.877 387.585 400.916 400.113 379.48 367.409 380.927 389.269 373.454 386.235 372.482 389.297 383.697 381.829 391.24 391.523 394.471 366.644 380.495 384.37 373.19 389.258 375.188 378.35 398.571 382.343 370.526 375.967 373.856 382.929 373.302 375.222 375.102 379.55 377.723 380.672 378.264 386.238 378.932 384.573 391.756 374.306 373.405 376.274 384.108 378.559 378.415 382.312 373.059 376.122 413.142 368.827 371.143 381.751 379.156 378.807 379.993 384.906 409.343 374.249 383.08 380.966 377.222 372.114 374.105 386.735 386.537 378.028 383.472 371.222 380.859 374.392 422.377 377.029 375.66 419.385 370.051 377.265 378.336 381.131 381.718 383.513 372.708 376.242 392.459 371.759 380.408 379.08 380.49 382.583 376.951 390.096 392.639 373.907 374.654 372.983 375.689 381.234 376.089 371.595 386.703 379.863 369.014 374.82 374.922 372.696 385.183 378.423 372.684 368.139 378.112 377.138 375.527 383.768 374.67 376.555 377.198 375.21 372.467 370.337 374.938 373.09 378.768 381.462 375.397 376.318 376.827 379.225 376.446 373.182 367.647 372.158 371.849 371.412 372.591 376.468 377.585 375.047 375.591 375.505 377.326 370.782 371.005 369.738 370.379 376.723 371.323 377.115 375.288 377.774 373.43 373.558 385.747 372.478 384.838 372.65 378.437 370.984 370.498 371.637 368.667 372.743 377.215 380.469 380.229 375.319 393.702 375.089 376.282 375.391 379.468 380.257 382.363 378.167 376.944 374.505 377.845 374.144 373.818 372.439 368.817 378.66 371.101 371.183 370.442 369.792 370.793 374.017 375.446 378.568 372.832 374.488 378.187 379.422 378.656 376.989 371.318 388.075 379.11 373.086 376.487 379.08 375.694 372.229 371.765 373.162 371.177 377.805 376.752 376.335 374.562 371.469 382.424 370.168 381.179 375.206 372.102 389.828 380.366 378.049 378.516 372.247 375.196 373.267 388.09 377.128 385.005 365.716 407.937 377.158 370.659 387.328 371.665 384.576 370.614 373.543 378.677 374.573
internal_weight=74740 31993 42747 29795 18435 2198 1113 3710 1850 1085 11360 22048 14725 445 227 218 930 1827 140 155 4434 20699 1860 668 11014 1687 7056 234 1059 849 210 458 167 13448 882 1229 11099 360 3958 863 164 869 10949 10291 7830 102 5432 6457 6389 381 839 434 649 504 4200 346 107 3095 6678 718 139 3899 3852 250 5960 613 92 7251 7780 845 2921 2757 1654 259 116 276 349 825 3834 3528 3920 162 307 359 113 1512 375 579 187 1103 1687 140 2610 801 406 802 755 419 5347 327 272 3254 587 1395 839 512 556 254 182 3809 2508 959 1549 373 931 3269 233 564 3169 6008 5909 677 198 445 1408 4641 444 396 274 301 1242 316 377 5232 1301 4252 150 1151 93 447 1502 1074 3459 474 2985 204 6468 1254 1207 2980 1058 1152 772 744 4250 4204 781 2118 1490 1624 1311 1079 2957 2225 590 1635 142 982 284 5020 120 994 681 1745 1504 923 2878 126 379 144 187 1076 248 3423 1126 920 256 206 160 232 208 2297 224 2073 664 291 1695 597 595 2894 1707 1312 899 241 875 182 532 760 1493 735 668 758 1418 209 303 428 1056 247 809 4488 3100 918 2182 171 207 274 405 535 95 4102 134 303 1246 187 349 47 444 1187 395 1388 189 374 164 6980 71 162 198 142 983 90 2075 199 256 532
internal_count=74740 31993 42747 29795 18435 2198 1113 3710 1850 1085 11360 22048 14725 445 227 218 930 1827 140 155 4434 20699 1860 668 11014 1687 7056 234 1059 849 210 458 167 13448 882 1229 11099 360 3958 863 164 869 10949 10291 7830 102 5432 6457 6389 381 839 434 649 504 4200 346 107 3095 6678 718 139 3899 3852 250 5960 613 92 7251 7780 845 2921 2757 1654 259 116 276 349 825 3834 3528 3920 162 307 359 113 1512 375 579 187 1103 1687 140 2610 801 406 802 755 419 5347 327 272 3254 587 1395 839 512 556 254 182 3809 2508 959 1549 373 931 3269 233 564 3169 6008 5909 677 198 445 1408 4641 444 396 274 301 1242 316 377 5232 1301 4252 150 1151 93 447 1502 1074 3459 474 2985 204 6468 1254 1207 2980 1058 1152 772 744 4250 4204 781 2118 1490 1624 1311 1079 2957 2225 590 1635 142 982 284 5020 120 994 681 1745 1504 923 2878 126 379 144 187 1076 248 3423 1126 920 256 206 160 232 208 2297 224 2073 664 291 1695 597 595 2894 1707 1312 899 241 875 182 532 760 1493 735 668 758 1418 209 303 428 1056 247 809 4488 3100 918 2182 171 207 274 405 535 95 4102 134 303 1246 187 349 47 444 1187 395 1388 189 374 164 6980 71 162 198 142 983 90 2075 199 256 532
cat_boundaries=0 1 2 3
cat_threshold=33036 18560 1
is_linear=0
shrinkage=1


Tree=1
num_leaves=255
num_cat=13
split_feature=6 13 14 14 6 14 13 13 8 15 14 6 21 30 7 17 30 3 5 14 15 18 14 10 8 9 7 1 21 13 25 13 10 8 17 6 9 13 8 10 19 27 7 8 14 3 8 17 7 17 8 6 21 21 10 14 28 3 8 21 10 21 21 7 10 13 26 1 8 6 13 26 6 21 9 30 6 27 17 8 26 14 26 13 3 7 10 6 3 8 4 13 19 26 8 10 10 26 14 13 4 21 7 4 13 21 9 4 14 7 26 19 8 19 8 17 3 8 10 21 7 19 17 27 10 5 5 13 19 25 7 6 7 18 13 27 17 26 13 8 14 19 10 19 13 6 9 7 10 7 13 19 21 6 3 10 8 7 17 17 27 8 6 8 21 15 9 22 19 19 21 4 8 13 13 26 7 5 14 8 17 12 17 17 17 7 8 7 13 6 17 3 5 21 13 10 7 13 17 5 6 27 10 6 3 27 18 13 17 6 13 21 8 30 30 9 26 18 17 21 7 8 7 7 6 10 30 6 30 6 14 18 14 8 5 7 21 7 10 26 30 13 17 30 26 10 17 6 19 13 6 3 26 4
split_gain=4.1984e+08 1.37668e+08 7.66098e+07 5.72685e+07 6.17725e+07 2.69702e+07 2.84982e+07 1.83877e+07 1.59573e+07 1.53938e+07 1.41132e+07 1.38063e+07 1.37798e+07 1.79108e+07 1.40888e+07 1.17458e+07 8.65122e+06 8.63263e+06 8.59884e+06 8.10004e+06 7.90552e+06 1.01786e+07 6.81077e+06 6.79046e+06 5.82017e+06 8.06496e+06 1.19275e+07 1.05236e+07 5.64246e+06 5.63523e+06 5.38269e+06 7.79284e+06 5.23448e+06 5.22778e+06 5.16108e+06 5.01242e+06 4.40747e+06 4.25512e+06 4.02828e+06 3.96317e+06 3.68224e+06 3.4734e+06 3.42223e+06 3.35706e+06 3.3293e+06 3.23916e+06 3.21768e+06 3.11737e+06 3.08431e+06 3.06339e+06 3.57771e+06 3.39771e+06 3.40378e+06 2.89565e+06 5.1735e+06 2.73688e+06 2.70608e+06 2.7016e+06 2.69562e+06 2.62479e+06 2.5341e+06 2.53292e+06 2.47492e+06 2.41122e+06 2.38831e+06 2.39677e+06 2.23534e+06 2.20604e+06 2.19954e+06 2.50336e+06 2.23644e+06 2.57606e+06 2.14639e+06 2.09745e+06 2.6767e+06 2.56136e+06 2.07878e+06 2.02865e+06 1.99822e+06 2.45646e+06 1.99365e+06 1.98543e+06 1.87901e+06 1.86998e+06 1.84732e+06 1.83573e+06 1.80308e+06 1.79328e+06 2.35088e+06 1.76684e+06 2.23794e+06 1.73934e+06 1.73548e+06 1.70577e+06 2.04458e+06 1.66965e+06 1.64701e+06 1.62769e+06 1.60716e+06 1.58803e+06 1.58328e+06 1.52201e+06 1.51368e+06 1.51116e+06 2.07648e+06 1.58695e+06 1.51572e+06 1.44915e+06 1.43389e+06 1.55594e+06 1.41065e+06 1.3799e+06 1.37217e+06 2.78415e+06 1.37194e+06 1.33808e+06 1.38059e+06 1.33184e+06 1.32247e+06 1.32005e+06 1.73273e+06 1.27506e+06 1.27143e+06 3.33547e+06 1.74447e+06 1.23786e+06 1.22889e+06 1.29167e+06 1.64858e+06 1.21052e+06 1.27171e+06 1.19735e+06 1.19495e+06 1.59268e+06 1.25231e+06 1.22905e+06 1.18137e+06 1.17243e+06 1.14025e+06 1.77669e+06 1.4109e+06 1.137e+06 1.13357e+06 1.20194e+06 1.11568e+06 1.56713e+06 2.81115e+06 1.1155e+06 1.07443e+06 1.20745e+06 1.07033e+06 1.06262e+06 1.05393e+06 1.05383e+06 1.05095e+06 1.04207e+06 1.03251e+06 994805 1.25276e+06 1.00904e+06 991047 986564 976063 972462 1.22348e+06 1.00596e+06 968187 967487 967016 1.07592e+06 1.05925e+06 1.61537e+06 952058 947938 918535 907436 931175 901338 904548 897160 896261 888008 870558 860597 850796 846079 845722 834780 1.18684e+06 834688 834308 834193 832753 831013 998311 978507 863927 827136 1.53472e+06 821168 1.16665e+06 815278 798407 797216 924428 1.32328e+06 1.42714e+06 797065 1.54825e+06 1.09476e+06 876912 789725 787633 786412 776777 768026 828666 898971 1.25462e+06 1.48923e+06 1.1086e+06 1.93802e+06 1.44719e+06 1.02271e+06 1.00334e+06 931639 875534 771887 761456 754835 842778 752902 751463 749830 744788 744781 735062 729407 725382 725370 792724 722792 721601 721183 714508 707694 707081 704460 704233 703291 702175 701684 978122 700599
threshold=4.535000000000001 19.386002826059826 20.500000000000004 56.500000000000007 3.1150000000000007 90.500000000000014 30.069199382029876 11.630413443853472 7.455000000000001 0 42.500000000000007 3.7150000000000003 4.9099184249223029 0.40370370370370373 4.7150000000000007 18.613928754020471 0.39230769230769236 1 5.5000000000000009 12.500000000000002 2 8.5000000000000018 90.500000000000014 2.5499832386985215 4.1150000000000011 1.0000000180025095e-35 3.6850000000000005 1.0000000180025095e-35 6.1393235059162761 5.6347841944554853 1.0000000180025095e-35 3.7615137328316952 8.890561960541687 6.6150000000000011 1.3247569491595501 3.4350000000000005 1.0000000180025095e-35 3.69889474216339 5.7250000000000005 0.97373773601313196 3.3850000000000002 6.5000000000000009 4.6250000000000009 6.4850000000000003 90.500000000000014 3 3.8650000000000007 15.929147684856643 4.0050000000000008 5.1633272077406884 6.1150000000000011 3.2750000000000004 8.7143378735433004 13.893648887522163 0.19873068259487411 156.50000000000003 1.0000000180025095e-35 4 7.5950000000000006 15.817106555757844 8.3957439684209163 3.8831746040173485 8.8673357989392922 3.4850000000000008 1.0000000180025095e-35 6.2395797173451824 7.0550000000000006 1.0000000180025095e-35 7.455000000000001 5.0650000000000004 15.070329022857511 3.2150000000000003 3.6750000000000003 3.3211574867596503 1.5000000000000002 0.42261904761904762 5.8050000000000006 4.5000000000000009 6.0172546319239819 6.9200000000000008 5.9250000000000007 132.50000000000003 4.535000000000001 10.647334470158725 5 7.0300000000000002 0.61585319042258413 4.3250000000000011 6 3.3150000000000004 3.5000000000000004 23.719963289913448 4.1250000000000009 3.7150000000000003 5.0850000000000009 37.868275926390837 2.3712813116578282 7.4650000000000007 30.500000000000004 6.9830608406376342 3.5000000000000004 5.4283291690710849 5.8050000000000006 3.5000000000000004 9.8789799636498152 4.4943500383191148 1.0000000180025095e-35 4.5000000000000009 72.500000000000014 7.455000000000001 3.9850000000000008 7.455000000000001 3.2750000000000004 3.7850000000000006 5.0150000000000006 1.0000000180025095e-35 7 6.2100000000000009 32.222227669098054 13.041789868953328 5.0250000000000012 7.330000000000001 11.391865466917828 2.5000000000000004 0.66587368874217556 4.5000000000000009 4.5000000000000009 5.4771156596239878 6.1350000000000007 1.0000000180025095e-35 5.0650000000000004 5.0950000000000006 4.285000000000001 9.5000000000000018 2.680658225814931 3.5000000000000004 0.93527820170526177 6.4650000000000007 12.475318804122622 7.5950000000000006 72.500000000000014 4.955000000000001 8.5978399215365489 5.4250000000000007 18.05157612010877 3.0650000000000004 1.0000000180025095e-35 3.9750000000000005 4.2482150037449964 4.7750000000000012 8.0107258059950688 3.5150000000000001 0.013346014268881852 4.5050000000000008 8 0.043442681902884958 7.455000000000001 3.5650000000000004 8.3105404955131146 7.3775893695588461 13.500000000000002 7.455000000000001 5.2750000000000012 7.0000000000000009 2.7415623667225675 9 1.5000000000000002 1.0000000180025095e-35 4.6650000000000009 3.3450000000000002 0.65220309954364575 3.5000000000000004 5.995000000000001 8.4253139774796644 8.8868595180339138 4.9850000000000012 4.1750000000000007 5.5000000000000009 90.500000000000014 7.5950000000000006 9.0700685084144421 1.0000000180025095e-35 9.0700685084144421 7.6068397709083628 9.0700685084144421 5.4350000000000014 6.9600000000000009 6.9200000000000008 16.919551249166819 4.6150000000000011 7.8872922236356464 10 3.5000000000000004 10.5365922615284 13.814620031520159 4.5603411573163815 6.2100000000000009 3.69889474216339 2.2741479182076261 1.5000000000000002 4.4050000000000011 5.5000000000000009 0.017171086452986654 4.7550000000000008 11 12.500000000000002 1.5000000000000002 6.5519704232292577 14.330003627364535 3.8650000000000007 8.8515417493558584 7.5008379200837689 7.0300000000000002 0.42261904761904762 0.48529411764705882 4.5000000000000009 6.4350000000000014 4.5000000000000009 8.7811156411856128 6.8357744738565556 7.120000000000001 5.745000000000001 7.455000000000001 5.3250000000000011 3.8650000000000007 0.21181820761131642 0.55050505050505061 4.1050000000000013 0.55050505050505061 3.9350000000000005 30.500000000000004 6.5000000000000009 90.500000000000014 5.0250000000000012 4.5000000000000009 5.0050000000000008 12.244800065656968 4.7750000000000012 25.404506713927148 4.2650000000000006 0.32051282051282054 18.630810055081213 16.935446745672813 0.44173441734417346 7.455000000000001 11.391865466917828 4.9872785763426277 3.4350000000000005 5.0850000000000009 7.1010817903835592 3.7850000000000006 12 7.1750000000000007 6.5000000000000009
decision_type=2 2 2 2 2 2 2 2 2 9 2 2 2 2 2 2 2 9 2 2 9 2 2 2 2 2 2 2 2 2 2 2 2 2 2 2 2 2 2 2 2 2 2 2 2 9 2 2 2 2 2 2 2 2 2 2 2 9 2 2 2 2 2 2 2 2 2 2 2 2 2 2 2 2 2 2 2 2 2 2 2 2 2 2 9 2 2 2 9 2 2 2 2 2 2 2 2 2 2 2 2 2 2 2 2 2 2 2 2 2 2 2 2 2 2 2 9 2 2 2 2 2 2 2 2 2 2 2 2 2 2 2 2 2 2 2 2 2 2 2 2 2 2 2 2 2 2 2 2 2 2 2 2 2 9 2 2 2 2 2 2 2 2 2 2 9 2 2 2 2 2 2 2 2 2 2 2 2 2 2 2 2 2 2 2 2 2 2 2 2 2 9 2 2 2 2 2 2 2 2 2 2 2 2 9 2 2 2 2 2 2 2 2 2 2 2 2 2 2 2 2 2 2 2 2 2 2 2 2 2 2 2 2 2 2 2 2 2 2 2 2 2 2 2 2 2 2 2 2 2 2 9 2 2
left_child=1 3 19 9 7 8 23 22 15 59 43 18 14 -14 60 36 -10 118 55 38 21 66 96 39 25 26 27 -22 -20 62 34 -32 33 86 -24 -30 48 108 150 -7 192 47 63 76 68 119 -27 53 117 57 98 52 58 115 -55 64 -28 85 77 83 -8 -18 87 -35 -6 107 -9 -16 70 129 112 -72 73 95 103 235 121 -52 154 162 99 138 -36 -1 -46 -31 -26 88 197 -56 -91 180 -83 -15 -95 160 141 125 214 -33 102 -40 185 106 -105 -106 244 152 155 148 -88 211 113 -39 -111 -13 161 234 201 120 -25 136 203 -124 -125 -82 151 -128 -129 130 182 237 133 135 184 -118 -4 -107 140 142 202 -5 143 -140 145 146 187 -62 149 -110 -2 -81 -66 157 -45 -12 -90 158 -100 -159 -67 239 -80 165 -165 190 -57 199 169 -142 171 -170 -126 -101 -138 176 -86 178 -150 -104 -50 -109 -70 -112 -134 229 249 -59 -189 -115 -133 245 -34 195 -195 -147 -196 -19 -199 200 -136 -11 -43 -114 205 206 -205 208 209 -172 -209 -38 -94 -148 -51 216 217 220 219 227 225 -222 -223 -221 -225 250 -218 243 -47 230 -53 -79 -171 -226 -3 -76 -78 -21 -193 -117 -241 -85 -89 -219 -75 -176 -74 -77 -232 -98 -201 -166 -253 -42
right_child=2 5 10 4 11 6 12 20 16 17 37 41 13 93 67 -17 61 29 28 131 24 -23 30 45 32 46 56 -29 35 49 31 80 40 42 82 -37 111 44 101 -41 253 81 -44 78 84 228 -48 -49 91 50 51 100 -54 54 89 166 -58 144 -60 -61 147 -63 -64 -65 65 72 -68 -69 69 -71 71 -73 246 74 75 247 236 231 79 126 97 92 -84 241 175 -87 110 242 156 90 -92 -93 212 94 -96 -97 186 -99 153 173 -102 -103 179 104 105 137 -108 181 109 114 183 -113 122 189 -116 116 132 -119 -120 -121 -122 -123 123 124 172 -127 127 128 -130 -131 -132 163 134 -135 167 -137 174 -139 139 -141 168 -143 -144 -145 -146 193 213 -149 177 -151 -152 -153 -154 -155 -156 -157 -158 159 -160 -161 -162 -163 -164 164 251 -167 -168 -169 170 232 207 -173 -174 -175 191 -177 -178 -179 -180 -181 -182 -183 -184 -185 -186 -187 -188 188 -190 -191 -192 238 -194 194 196 -197 -198 198 -200 215 -202 -203 -204 204 -206 -207 -208 210 -210 -211 -212 -213 -214 -215 -216 -217 226 218 -220 223 221 222 -224 224 233 -227 -228 -229 -230 -231 248 -233 -234 -235 -236 -237 -238 -239 -240 240 -242 -243 -244 -245 -246 -247 -248 -249 -250 -251 -252 252 -254 -255
leaf_value=7.8647032054635915 -7.0824096628662296 9.3037488624325348 -4.8243596836922249 11.349763897283752 16.359803957189978 17.356935266342123 49.137517565874319 30.433057620867373 43.270325795925089 -6.1541594921314982 5.4744182660795424 -4.1476530970827001 9.9076797485351555 33.041445380477541 -2.850740594414793 32.381659569611422 7.7219191935405762 0.99372218586484928 3.1042443091663272 -0.81281326227915407 23.534482058449896 9.6018808962649462 31.606367615206082 23.250014304505552 19.551675586783006 8.1176408212665265 14.797395327229609 70.960030015722495 30.353027098893122 11.687866620986053 36.30305414160258 5.402623129155705 17.103202714292912 15.038206075223611 21.748749063020394 12.813002555365371 10.850616267841392 11.501065579682116 -5.6428446697063146 33.080487042305009 20.615380538306887 7.6041018181118618 20.960478605507358 -1.664991904974167 0.26066202018548085 7.8346747224792841 19.687254052779195 12.637433783703441 -4.4291466731553299 -0.33819050569865888 10.074980022888404 -3.0283776741299526 25.683205030567912 29.590826537058902 2.2830203373952398 12.28358030649062 26.921489952906395 9.1002848893381465 15.447907093841062 -1.0213381194092734 23.244826113984093 23.644827269868244 -4.7811885088961263 5.2757511092443741 12.116134828353818 3.1977292575463463 46.219014871039363 13.582995514606466 -0.84368770534394733 -0.52542592128550758 15.028434731593102 2.1835660734722446 15.005444389375009 1.4288731629918829 -4.582619620448324 19.620816977991201 -4.9296583929922351 1.3069067800740095 6.7853646293797114 2.9465478639682043 -0.55452383977048147 14.326285378050045 9.6318090268331105 14.662047774538829 11.876019067697333 -2.0703637368009171 0.19725284368272811 -2.9223730196414359 -1.6160766850155701 23.722755288458487 6.2634240633110361 5.3469582869801799 2.9362255321537742 53.452898316580992 42.007906956348613 16.731146658901356 0.61284215091952432 10.883564469863257 11.178503101333014 17.005942446873664 15.35446021052317 -3.8067659075488751 5.2901001930454754 3.8869616095934472 16.288527566460058 10.066399694150594 7.7265825931364391 15.937973516637626 8.8058963372702301 11.966306287037856 5.0137308029588032 1.5416267044811327 0.2569130257169534 -3.4327310499959438 0.67196514848406297 -2.7097286472365303 14.812989322773152 16.727141927913497 7.165633520316252 10.429457817276539 14.487854672896574 0.27785116895800921 19.807676769193279 8.2120473052211285 2.2228369664131535 5.8272388321048592 -1.3747593441079466 -1.7867393169729238 4.9749345484136889 2.7063795719860502 13.466224412746142 -5.3157053648723016 0.1180078444992005 17.522983880260671 16.572583808740639 2.9417843804015953 -3.0052481888169531 4.8586798607558421 11.766539345480394 19.328038918301139 5.8322028575286771 -1.1745344067966723 1.4808782633937116 4.8366222750366372 -3.6478101864798256 -1.7448045429624699 2.321242291505381 33.572903983900524 -4.7556743451737304 0.33971628096722922 -5.1067869025329422 -2.9578953648021105 1.4858261254914453 8.9452811604973679 -3.8815009309476829 -2.3812394092866676 1.8873690512272732 2.3605084462506696 2.4464445082854396 -1.1146294632578282 13.669383319218952 7.1170950415853298 1.3926847532262328 -5.2397831462473698 -0.79612449051452394 -0.44465468255971691 6.3957707501123018 -1.6220137855598784 12.716786145139062 -1.7781240654654367 12.695948248726687 -1.9923940890139087 -1.9823887978084642 10.318338055706771 3.8253303120879227 2.9534463800334176 5.250136087152967 7.4637043790698545 -0.7269381892927318 15.824852675896185 2.451735766728719 5.4564795943729631 7.8702619882537492 10.236200627545804 -7.6433630933285999 -2.4669952656801488 7.6993913648829562 0.96068995763710152 10.327287815365622 1.8147389436902988 -3.8776490859614534 -2.278033460248055 8.9678081450251135 0.04838282396801552 9.1716723137934686 0.35078006749248186 1.8646342138016518 -1.863991469643715 6.6666737130135365 -2.4850956125378119 0.99400290592082807 -2.814258983528096 0.88238370514838804 8.7337558592001958 -1.7222783025523918 12.026682868974033 -0.62272597785575134 1.3809722813962781 13.229404891763114 4.70634922928362 4.9358238828910981 17.046722309590443 8.0520244726149457 -3.661632189572865 -4.9898595255968985 11.127451454257567 0.7705758093107774 1.5933235450817804 9.4832975814707527 16.75117181047278 1.7333888915238491 15.91855243092515 5.2260466678922342 12.009622432559794 1.3565368565806155 0.45706919701904208 4.2002683701464685 -0.074838390302755686 0.16333172296208975 3.2148516148215052 4.9268909778089798 6.728161737921531 2.4486574967920576 6.3825026777848137 2.7520221353942951 6.5087950317874519 -1.8775311938600123 -3.8753766768969733 6.7294081246182005 -4.7850755996235321 1.0166090125842946 24.003585086126051 5.876516247982801 7.5545821754491005 10.314289064130348 -2.0836486196988315 8.3700498969754236 12.472821090922835 -0.25958992707419604 5.2788252352504514 7.0669536835693298 -3.9519645476769547 1.8421753290108189 29.961867760622649
leaf_weight=120 7035 151 645 20 47 93 20 48 48 517 43 99 40 21 36 48 40 286 67 420 24 48 48 86 23 190 136 23 71 91 24 135 44 138 44 96 96 69 4092 71 142 47 115 1684 381 115 88 68 105 253 139 121 24 22 246 190 70 132 72 39 43 67 395 117 24 1056 44 47 41 312 46 255 72 371 22 46 1721 228 136 84 127 72 118 163 64 33 107 711 1048 23 90 199 140 94 72 24 118 90 48 71 24 1560 164 327 65 263 161 23 47 48 239 24 1237 95 61 245 24 47 23 91 167 351 24 71 242 189 544 145 238 209 72 2969 482 24 24 230 2390 184 88 23 143 184 146 217 179 886 92 72 239 398 761 813 720 48 823 2075 263 386 282 455 23 46 219 571 450 150 111 163 22 169 46 120 303 213 135 397 310 24 334 23 86 164 95 118 38 108 223 114 48 373 1530 694 112 262 71 1500 94 68 234 24 24 283 713 43 2419 23 749 269 67 622 489 113 163 136 139 24 1303 133 92 20 291 48 93 46 137 867 217 293 45 655 116 89 278 162 61 48 223 362 23 65 616 24 24 82 24 81 92 143 150 256 96 718 81 24
leaf_count=120 7035 151 645 20 47 93 20 48 48 517 43 99 40 21 36 48 40 286 67 420 24 48 48 86 23 190 136 23 71 91 24 135 44 138 44 96 96 69 4092 71 142 47 115 1684 381 115 88 68 105 253 139 121 24 22 246 190 70 132 72 39 43 67 395 117 24 1056 44 47 41 312 46 255 72 371 22 46 1721 228 136 84 127 72 118 163 64 33 107 711 1048 23 90 199 140 94 72 24 118 90 48 71 24 1560 164 327 65 263 161 23 47 48 239 24 1237 95 61 245 24 47 23 91 167 351 24 71 242 189 544 145 238 209 72 2969 482 24 24 230 2390 184 88 23 143 184 146 217 179 886 92 72 239 398 761 813 720 48 823 2075 263 386 282 455 23 46 219 571 450 150 111 163 22 169 46 120 303 213 135 397 310 24 334 23 86 164 95 118 38 108 223 114 48 373 1530 694 112 262 71 1500 94 68 234 24 24 283 713 43 2419 23 749 269 67 622 489 113 163 136 139 24 1303 133 92 20 291 48 93 46 137 867 217 293 45 655 116 89 278 162 61 48 223 362 23 65 616 24 24 82 24 81 92 143 150 256 96 718 81 24
internal_value=0.000157504 4.33187 -3.24182 3.441 5.16177 16.4074 21.876 10.9279 10.7962 0.648519 -1.19089 3.70892 31.6786 40.3046 22.6822 8.31893 25.6449 0.316828 6.04136 -5.4264 14.4575 26.4087 7.41664 15.342 13.2456 17.6711 24.1308 46.8442 15.3684 0.716222 10.0479 8.27328 11.3635 9.31933 17.2152 20.2839 7.00587 0.0655616 -6.15271 24.1801 16.7994 2.70391 13.7993 -2.46453 0.698135 12.4619 11.7857 1.99603 4.88673 1.48155 2.5322 3.99414 7.30265 1.88257 6.10904 5.52135 18.9283 0.463775 6.46246 10.8803 32.6435 17.7052 -1.09099 10.5628 5.16646 5.02947 38.0249 6.4602 0.269892 2.86191 -0.0477803 4.15093 5.73362 5.40266 6.52896 11.1972 -3.22184 5.04061 -1.45232 -0.344801 7.45356 3.89601 12.9342 12.7464 3.18036 7.42901 5.91349 -0.537441 0.274231 4.66219 9.83497 2.07683 7.3516 46.7978 48.5171 3.71328 3.93699 4.95459 0.796062 9.87322 2.65181 -5.13615 2.42266 5.66151 7.00128 8.98915 3.6389 2.81982 -1.44957 -0.0290343 5.23339 12.9039 -0.271613 2.13247 5.65208 1.61445 1.71106 9.11541 -4.57749 15.1733 17.4743 -2.61059 -0.524242 1.55996 0.845907 3.26304 -1.08546 0.191198 2.41522 5.39585 8.09563 -4.07928 2.04808 5.23629 1.86213 4.06888 -2.8661 7.92431 3.52117 5.79943 3.15922 0.0582728 5.10536 6.83929 0.196085 0.403092 2.91889 29.7347 -0.623806 1.23569 -6.88963 -2.4047 1.83033 1.6916 -2.41488 -2.2215 -0.906243 1.39353 3.71958 0.480465 3.42219 -0.0216139 3.45996 -4.30269 -3.32248 -4.68634 10.1152 2.15268 3.79452 2.05877 4.42071 0.293803 -0.11504 11.9957 -2.48586 4.56042 6.38686 -2.00984 -2.40788 6.59361 -1.33126 6.7535 5.24454 6.74232 -0.45052 1.74391 5.26215 6.14932 3.74067 0.749031 -4.81605 -1.15519 11.2719 -0.0638431 1.96736 -0.427418 5.01256 2.87249 4.74586 2.30746 8.80166 -4.97318 1.29902 -0.822615 -1.23553 0.227557 -0.11369 4.81317 5.98668 5.25836 3.67463 14.2072 5.69005 -1.24751 -1.9885 2.22788 2.17289 2.75456 3.93196 3.34591 1.95363 4.06579 8.87479 5.78182 5.14123 1.02884 1.26046 1.5949 5.34475 2.18055 0.429607 2.83062 0.850561 4.08088 7.42079 3.02129 -4.57966 -2.23084 -1.96084 -0.377206 0.462222 15.8732 -2.6343 3.8694 1.97123 1.53832 11.2905 14.222 2.00317 3.80724 5.15602 -2.4456 -3.32283 21.9839
internal_weight=74740 31993 42747 29795 18435 2198 1113 3710 1085 11360 22048 14725 445 227 218 930 155 11014 4434 20699 1850 140 1860 668 1710 531 253 47 234 10191 1059 849 1179 857 210 167 882 11099 13448 164 322 10291 370 10949 7830 504 278 6457 649 7162 3524 1913 552 6389 381 4200 206 3638 528 346 135 107 3029 255 3899 3852 92 83 6678 729 5949 301 2921 2757 1654 259 6263 456 4686 2179 825 3834 162 307 1152 124 487 2634 1899 359 113 390 375 187 166 1103 801 406 1611 419 1361 5652 1337 1395 839 512 556 931 3269 1151 464 233 5648 537 109 6008 5909 259 823 344 253 4319 5111 640 616 316 1824 927 383 417 208 7251 4937 278 4659 254 3968 447 3459 474 2985 204 451 305 3514 3335 522 115 1042 445 7796 897 744 1219 2507 2118 1311 1171 330 841 1079 972 355 6469 1820 4649 301 4139 2225 590 1635 142 545 284 3323 771 374 597 573 187 191 187 136 357 520 1150 597 294 162 468 4499 933 156 2813 427 2386 165 588 302 3976 48 800 760 4471 3234 815 792 1493 735 668 758 209 303 228 392 3928 3904 2384 965 873 1419 432 141 365 345 987 1520 508 160 1042 387 317 447 299 212 70 1944 782 717 926 681 187 735 215 395 216 164 189 266 374 120 1249 799 166
internal_count=74740 31993 42747 29795 18435 2198 1113 3710 1085 11360 22048 14725 445 227 218 930 155 11014 4434 20699 1850 140 1860 668 1710 531 253 47 234 10191 1059 849 1179 857 210 167 882 11099 13448 164 322 10291 370 10949 7830 504 278 6457 649 7162 3524 1913 552 6389 381 4200 206 3638 528 346 135 107 3029 255 3899 3852 92 83 6678 729 5949 301 2921 2757 1654 259 6263 456 4686 2179 825 3834 162 307 1152 124 487 2634 1899 359 113 390 375 187 166 1103 801 406 1611 419 1361 5652 1337 1395 839 512 556 931 3269 1151 464 233 5648 537 109 6008 5909 259 823 344 253 4319 5111 640 616 316 1824 927 383 417 208 7251 4937 278 4659 254 3968 447 3459 474 2985 204 451 305 3514 3335 522 115 1042 445 7796 897 744 1219 2507 2118 1311 1171 330 841 1079 972 355 6469 1820 4649 301 4139 2225 590 1635 142 545 284 3323 771 374 597 573 187 191 187 136 357 520 1150 597 294 162 468 4499 933 156 2813 427 2386 165 588 302 3976 48 800 760 4471 3234 815 792 1493 735 668 758 209 303 228 392 3928 3904 2384 965 873 1419 432 141 365 345 987 1520 508 160 1042 387 317 447 299 212 70 1944 782 717 926 681 187 735 215 395 216 164 189 266 374 120 1249 799 166
cat_boundaries=0 1 2 3 4 5 6 7 8 9 10 11 12 13
cat_threshold=33036 5634 18560 2181 32800 16389 16645 18692 1165 8960 18464 2337 16421
is_linear=0
shrinkage=0.05


Tree=2
num_leaves=255
num_cat=12
split_feature=6 13 14 14 6 14 13 13 24 8 15 14 6 21 30 7 17 15 19 30 3 5 24 14 10 10 21 13 25 13 14 17 19 6 14 13 10 24 7 14 24 6 3 30 21 10 14 8 21 17 6 6 14 20 10 21 21 17 9 30 10 13 21 7 6 13 20 5 8 6 13 17 7 8 24 10 13 9 21 10 6 14 7 13 13 3 2 6 3 21 8 21 17 4 4 6 10 7 21 3 6 28 8 19 29 10 19 21 3 7 7 20 8 4 14 7 21 10 21 19 19 8 19 8 19 20 7 24 10 21 7 17 9 13 22 19 17 20 7 20 13 25 7 6 13 19 10 13 6 10 21 30 17 19 19 7 7 7 7 24 21 24 15 17 31 10 7 8 24 21 24 8 5 10 8 8 13 13 8 7 20 17 17 6 10 9 6 24 13 11 7 7 21 5 19 17 8 8 14 8 7 13 5 14 14 12 13 13 8 8 17 25 14 17 7 6 8 21 6 19 4 6 31 19 10 21 6 6 21 24 13 7 7 8 4 8 7 17 13 5 20 5 6 3 13 7 13 13 13 17 5 5 21 8
split_gain=3.78946e+08 1.24265e+08 6.91374e+07 5.16904e+07 5.5759e+07 2.43445e+07 2.57265e+07 1.6598e+07 2.6967e+07 1.44048e+07 1.38945e+07 1.27399e+07 1.24612e+07 1.24368e+07 1.61665e+07 1.27185e+07 1.06032e+07 8.33464e+06 9.18836e+06 7.80967e+06 7.79122e+06 7.76166e+06 7.70906e+06 6.14789e+06 6.12947e+06 5.49885e+06 5.09298e+06 5.08621e+06 4.85902e+06 7.03675e+06 4.70312e+06 4.65909e+06 4.59739e+06 4.5245e+06 4.05589e+06 3.84002e+06 3.57743e+06 3.48558e+06 3.13412e+06 3.00526e+06 2.95558e+06 5.16087e+06 2.92362e+06 2.82358e+06 2.61738e+06 4.53664e+06 2.47009e+06 2.45315e+06 2.3692e+06 2.34747e+06 2.33566e+06 2.64488e+06 2.36873e+06 2.33373e+06 2.28947e+06 2.2862e+06 2.2337e+06 2.19616e+06 2.17821e+06 2.16803e+06 2.15605e+06 2.16318e+06 2.13768e+06 2.03703e+06 2.03021e+06 2.06494e+06 2.01795e+06 1.99143e+06 1.98543e+06 2.25951e+06 2.01876e+06 1.93838e+06 1.9026e+06 1.86208e+06 2.62229e+06 2.93968e+06 2.14039e+06 2.02895e+06 1.84599e+06 1.8281e+06 1.82804e+06 1.82375e+06 1.72969e+06 1.72741e+06 1.68797e+06 1.66702e+06 1.64575e+06 1.61843e+06 2.12173e+06 1.60087e+06 1.56567e+06 1.61982e+06 1.55262e+06 1.58107e+06 1.51963e+06 1.51125e+06 1.48634e+06 1.46878e+06 1.4818e+06 1.45205e+06 1.43576e+06 1.39329e+06 1.38719e+06 1.37019e+06 1.41873e+06 1.63473e+06 1.43413e+06 1.36636e+06 1.35861e+06 1.33972e+06 1.42038e+06 1.30832e+06 1.67676e+06 1.30813e+06 1.29421e+06 1.40448e+06 1.27073e+06 1.55197e+06 1.34209e+06 1.25368e+06 1.24543e+06 1.23859e+06 2.51311e+06 1.23845e+06 1.2267e+06 1.21877e+06 2.04976e+06 1.19957e+06 1.19387e+06 1.1914e+06 1.56413e+06 1.18548e+06 1.17419e+06 1.16917e+06 1.15392e+06 1.15492e+06 1.14377e+06 1.14057e+06 1.10938e+06 1.10715e+06 1.10316e+06 1.09268e+06 1.14792e+06 1.0899e+06 1.08829e+06 1.07992e+06 1.0737e+06 1.06125e+06 2.36639e+06 1.06058e+06 1.03541e+06 1.02834e+06 1.09819e+06 1.02664e+06 1.02236e+06 1.01826e+06 1.00665e+06 1.00514e+06 1.00166e+06 982852 1.11549e+06 977029 976596 974516 1.36434e+06 969729 1.08998e+06 967051 1.25268e+06 951647 943188 1.53809e+06 1.76251e+06 940628 940124 931862 894290 888864 2.01298e+06 1.60663e+06 1.48441e+06 1.09304e+06 886652 885122 875283 873798 873430 872893 869295 863274 851240 1.52058e+06 846865 846533 839859 839146 836216 830990 826622 822093 818875 814345 813735 816392 806577 801956 801545 796905 790538 786988 785778 783483 777934 777618 774852 773461 759590 754993 753368 751818 1.51872e+06 1.37048e+06 744272 741450 734702 712769 709758 707848 703800 702661 701770 701069 894624 828268 697910 695491 957171 685023 715902 681657 758657 667370 665702 663145 654898 654775 671715 652992 652517 651439 646407 642355 632948 678493
threshold=4.535000000000001 19.386002826059826 20.500000000000004 56.500000000000007 3.1150000000000007 90.500000000000014 30.069199382029876 11.630413443853472 11.500000000000002 7.455000000000001 0 42.500000000000007 3.7150000000000003 4.9099184249223029 0.40370370370370373 4.7150000000000007 18.613928754020471 1 5.8900000000000015 0.39230769230769236 2 5.5000000000000009 2.5000000000000004 90.500000000000014 2.5499832386985215 8.890561960541687 6.1393235059162761 5.6347841944554853 1.0000000180025095e-35 3.7615137328316952 6.5000000000000009 1.3247569491595501 3.3850000000000002 3.4350000000000005 30.500000000000004 3.69889474216339 0.97373773601313196 6.5000000000000009 5.2350000000000012 90.500000000000014 5.5000000000000009 3.0250000000000004 3 0.36931818181818182 13.893648887522163 0.19873068259487411 156.50000000000003 7.330000000000001 15.817106555757844 5.1633272077406884 3.9950000000000006 3.9250000000000003 132.50000000000003 7.5000000000000009 8.3957439684209163 3.8831746040173485 8.8673357989392922 27.818748034147372 1.0000000180025095e-35 0.22500000000000003 1.0000000180025095e-35 6.2395797173451824 5.335424829005599 6.9050000000000011 5.1150000000000011 15.070329022857511 5.5000000000000009 4.5000000000000009 7.455000000000001 5.0650000000000004 15.070329022857511 2.6964207904807247 3.8550000000000004 4.1150000000000011 3.5000000000000004 6.8695353561515287 16.137516339699363 1.0000000180025095e-35 0.90486036117342294 8.3957439684209163 3.4350000000000005 182.50000000000003 5.0850000000000009 18.630810055081213 10.647334470158725 4 5 4.3250000000000011 6 14.429539102499339 7.455000000000001 5.3900219254005535 7.9945973589884796 8.0000000000000018 3.5000000000000004 5.2750000000000012 2.3712813116578282 3.0650000000000004 7.6799974069670833 7 3.6750000000000003 1.0000000180025095e-35 7.5950000000000006 7.455000000000001 1.0000000180025095e-35 37.868275926390837 5.1550000000000011 11.571016827620888 8 4.9850000000000012 4.955000000000001 7.5000000000000009 3.5950000000000002 4.5000000000000009 72.500000000000014 7.455000000000001 3.2436876437045226 6.2052579566300841 3.8407961870355924 7.330000000000001 7.455000000000001 3.2750000000000004 3.7850000000000006 5.0150000000000006 3.7850000000000006 3.5000000000000004 4.6950000000000012 5.5000000000000009 32.222227669098054 13.041789868953328 5.0250000000000012 0.036657803748997506 1.0000000180025095e-35 4.1045296903245507 1.0000000180025095e-35 3.1450000000000005 4.6790836548995429 6.5000000000000009 4.8550000000000013 10.500000000000002 8.295772828984731 1.0000000180025095e-35 5.0650000000000004 3.0850000000000004 8.0107258059950688 7.0550000000000006 4.6904183434873072 4.1045296903245507 5.6500000000000012 3.143226643934101 2.2144110343003107 0.5634920634920636 3.5314519222899854 4.955000000000001 4.1250000000000009 3.6650000000000005 3.9750000000000005 6.1150000000000011 4.3950000000000005 8.5000000000000018 0.61342449442276226 3.5000000000000004 9 14.816549695020251 1.0000000180025095e-35 4.2482150037449964 4.7750000000000012 7.4650000000000007 4.5000000000000009 0.013346014268881852 6.5000000000000009 5.2250000000000005 3.5000000000000004 0.043442681902884958 6.3250000000000011 7.455000000000001 11.556395768240678 9.622151950753965 5.745000000000001 6.660000000000001 8.5000000000000018 0.90185397544935297 4.8152139854458991 4.7750000000000012 2.2832721137838505 1.5000000000000002 6.3000000000000007 9.5000000000000018 16.730476403517649 10 3.0650000000000004 4.035000000000001 2.9044378482915874 3.5000000000000004 5.4250000000000007 1.5970192870831081 6.2100000000000009 5.7150000000000007 12.500000000000002 5.9350000000000014 6.6150000000000011 4.8356965601747763 5.5000000000000009 90.500000000000014 20.500000000000004 1.0000000180025095e-35 8.4253139774796644 16.730476403517649 7.330000000000001 4.2750000000000012 9.0700685084144421 1.0000000180025095e-35 110.50000000000001 4.1723718585930536 4.8550000000000013 3.7850000000000006 7.0300000000000002 8.9945994255281274 4.6150000000000011 4.6850000000000014 4.5000000000000009 4.4650000000000007 1.0000000180025095e-35 6.4350000000000014 12.357205419076317 7.5008379200837689 4.5150000000000006 4.1150000000000011 6.8357744738565556 4.5000000000000009 6.0011812453981994 4.6850000000000014 4.1250000000000009 7.5950000000000006 8.0000000000000018 4.4250000000000007 6.8950000000000005 9.3410364619119441 4.1045296903245507 1.5000000000000002 3.5000000000000004 1.0000000180025095e-35 4.5050000000000008 11 0.29065194833019675 7.4650000000000007 11.556395768240678 18.630810055081213 4.7054969224017045 16.935446745672813 3.5000000000000004 1.0000000180025095e-35 3.1512052630729284 6.4350000000000014
decision_type=2 2 2 2 2 2 2 2 2 2 9 2 2 2 2 2 2 9 2 2 9 2 2 2 2 2 2 2 2 2 2 2 2 2 2 2 2 2 2 2 2 2 9 2 2 2 2 2 2 2 2 2 2 2 2 2 2 2 2 2 2 2 2 2 2 2 2 2 2 2 2 2 2 2 2 2 2 2 2 2 2 2 2 2 2 9 9 2 9 2 2 2 2 2 2 2 2 2 2 9 2 2 2 2 2 2 2 2 9 2 2 2 2 2 2 2 2 2 2 2 2 2 2 2 2 2 2 2 2 2 2 2 2 2 2 2 2 2 2 2 2 2 2 2 2 2 2 2 2 2 2 2 2 2 2 2 2 2 2 2 2 2 9 2 2 2 2 2 2 2 2 2 2 2 2 2 2 2 2 2 2 2 2 2 2 2 2 2 2 9 2 2 2 2 2 2 2 2 2 2 2 2 2 2 2 2 2 2 2 2 2 2 2 2 2 2 2 2 2 2 2 2 2 2 2 2 2 2 2 2 2 2 2 2 2 2 2 2 2 2 2 2 2 9 2 2 2 2 2 2 2 2 2 2
left_child=1 3 22 10 7 9 24 23 17 16 48 37 21 15 -15 54 34 18 -9 -11 128 46 62 96 36 43 -23 56 31 -30 229 -25 137 -28 -3 114 -7 64 50 68 41 53 129 -19 86 -46 60 73 84 59 51 138 82 90 -8 -21 87 197 72 -43 -6 113 95 94 65 97 -20 -17 70 141 121 100 196 77 75 76 223 -45 -53 89 -74 -79 109 151 241 -41 131 88 159 143 91 251 93 -16 -47 150 153 184 124 155 103 -80 -81 104 106 -106 -63 146 187 110 162 112 -31 169 173 165 139 132 -119 186 225 122 -37 -117 167 -72 -127 147 222 130 -26 -40 161 -101 135 182 -84 -27 209 -73 204 142 210 -51 -32 212 -61 148 -123 250 -2 152 -76 -5 -54 -66 -56 214 -113 160 -22 -118 192 217 -165 166 -116 168 -99 -62 -88 -172 -173 -13 -152 -90 243 244 181 180 228 -179 -110 -100 -4 -48 -39 -42 -67 -157 -87 -192 199 -112 -64 -121 -36 -55 -145 -52 -34 224 203 -167 -137 -115 -199 -148 -120 -14 -70 -98 -114 -203 -108 -140 -156 -149 -124 220 -194 -222 -12 -75 -135 -60 -104 -44 -180 -24 -103 232 233 -215 -38 -185 -237 238 -171 240 -175 -1 -200 -129 -133 246 -183 -86 -177 -89 -33 -29 -221 -254
right_child=2 5 11 4 12 6 13 8 -10 19 20 35 38 14 92 67 -18 25 66 55 27 26 30 28 42 32 33 40 29 111 144 149 200 -35 58 39 234 119 44 85 108 49 227 47 45 63 185 -49 -50 79 52 78 154 57 156 -57 -58 -59 120 107 61 71 194 -65 99 188 -68 -69 69 -71 125 116 80 74 83 -77 -78 81 101 102 -82 -83 136 -85 247 190 170 249 175 -91 -92 -93 -94 -95 -96 -97 211 98 183 133 -102 230 226 -105 105 -107 157 -109 134 -111 193 158 145 205 115 123 117 118 208 195 -122 127 218 -125 -126 126 -128 176 -130 -131 -132 177 -134 201 -136 140 -138 -139 215 -141 -142 -143 -144 198 -146 -147 207 163 -150 -151 174 -153 -154 -155 216 189 -158 -159 -160 -161 -162 -163 -164 164 -166 202 -168 -169 -170 237 171 172 -174 239 -176 248 -178 178 179 -181 -182 245 -184 235 -186 -187 -188 -189 -190 -191 191 -193 219 -195 -196 -197 -198 206 242 -201 -202 213 -204 -205 -206 -207 -208 -209 -210 -211 -212 -213 -214 231 -216 -217 -218 -219 -220 252 221 -223 -224 -225 -226 -227 -228 -229 -230 -231 -232 -233 -234 -235 -236 236 -238 -239 -240 -241 -242 -243 -244 -245 -246 -247 -248 -249 -250 -251 -252 -253 253 -255
leaf_value=5.6942173650383836 -3.9542833222619542 -0.3856709266555805 -1.3523678449215621 10.785099067260969 15.543550793431113 16.490020610797036 46.692863970609451 9.1227847926581962 67.427388542967961 41.111307194128855 -5.1665562886012397 5.2013323843894037 7.5792581264321548 9.4135311136221951 45.437399942616686 12.905287792626964 30.765943283747237 27.120396963095761 43.913304948914892 7.3367859494386982 -0.49821426353774667 2.9492633777297206 -5.9453415669351637 30.029334472172476 22.0888632467538 8.2018047068565316 28.837510349981898 -5.8111428564128209 34.495434639166994 11.705858384566355 -5.1920577106146055 10.24547669154741 19.616120101229679 12.17301909498072 8.2785603549338553 10.926844305067435 35.02461891255308 -3.6462358391550724 -3.7387161148461696 0.24796553481054928 -0.18295147451009039 16.108687767824289 6.7222080358877996 16.945943769236539 28.117980213510506 22.54175341057055 11.669724151098622 17.670615346061549 -0.97040165982892757 12.160597030354733 -2.6886648116024237 18.05475146087112 13.72727703641705 -0.51657421124445924 22.085281137413329 22.464347460159786 -4.542189658045678 24.404373058936407 10.308649902115505 -1.8441981714659059 11.512841570723602 6.9746004398521464 -3.1128834645106922 2.1361644561697797 4.5932122651140466 9.3207679953962863 28.914568790427861 -2.7085984154751426 -0.80160592002590203 -0.49916316131413341 -0.018855130803675901 2.2869457275372 5.8926419123529232 7.2271685173045261 1.5044549266268268 3.6678692292706154 21.501616027929987 6.7290272460859173 5.1269620404927947 4.2207671853705291 -3.7286622545834458 18.170784628202043 4.7051835980107519 18.578324120591727 13.929394650346001 -0.78680231065260742 -0.33952255590053521 -2.7762750533726495 -1.5352805956147488 14.589922280529226 8.6292391340513337 7.4317687655633593 52.488835367579377 33.822415775206032 6.6801789303215173 -4.6076416823534112 7.9926552722894888 -2.2137349851446624 -3.4528830135145294 -3.4964876548683281 14.256212617686323 4.1530042583022375 15.371218704645802 -1.3995685945903675 1.9607071315000604 15.898060261263391 16.939026833371994 4.7134069636034175 9.2485855624427717 -4.1619032592867518 3.0172616897874578 14.049854089233529 0.38963861324512533 15.144524905382296 8.3665363959699164 11.369234795282884 1.2568454246280647 12.556272423644424 3.7272373065057631 3.5656658795689591 1.4648652282493242 1.0695366945726192 -3.2612748813679291 0.63842184992351625 -2.5863124659713748 20.088418664576107 4.4345289141595323 1.4480519424217639 6.8089028961214666 9.908557295746915 13.763895452172367 -6.5740043887844344 9.2244285739838343 -0.5549862854411729 8.1659142878354345 -6.2214400137209829 14.775523458334797 16.327099275217044 0.8742012910713437 8.1383321166944551 -1.6178822554162817 2.5711253270927314 12.793847118204413 -4.9402150480421883 -3.7176460279431063 11.487370975200946 0.43756741802232968 -0.57511608936033043 18.821402916571905 8.8750096873263722 9.6016921777448214 -0.45254512263549374 7.7015734118803367 -1.1158396657428813 2.1945419849422101 -2.624163068332388 31.896587698800229 17.197930592034922 7.700255379869029 -3.0196908260542568 4.8305773739979241 6.9616373680946086 6.2397770935007593 1.8149667560116765 14.660601790126783 -4.5179900568058091 0.32273461586325292 6.1116935175683924 6.781605184356625 3.8054064253334787 1.1385030378642937 14.607886997479421 -2.5822605350977699 -3.090039202716206 -0.6826216678458823 3.4836207912604986 0.77798024244766661 -1.1850029628190526 4.8710645385037843 11.133640539059579 -3.6558477262945033 5.3657925398511379 1.2402206433085092 -1.9063510105750958 4.6728519671984685 6.0762699632790582 -5.910814539451275 8.0209593145135667 0.35356346701278163 2.2150890643574992 11.272116938452143 4.0645234526490412 -0.18293796130948684 12.016770339879489 -0.83232058387326102 -2.3361276037712688 15.892560699082232 3.482412147295447 1.421553454562666 1.3576634994362606 26.979199737905191 -3.7462149349272185 7.0920674759322679 -0.69060208657943212 1.3843373802522969 5.1838218590168612 11.355388677984289 9.8279545222525968 -3.1529212668306812 2.7222296815326636 7.477162517157514 3.9015465098424458 5.0714096376090776 -1.7864395993764006 6.4840177519205913 11.624684043638887 7.8408059083925741 2.2866520905648904 1.7240263159458451 7.9779176542575287 3.4906911074846962 16.650470556362041 0.53622191378459838 14.036084095562854 6.3102222428570522 16.19514012943845 4.2916845267417871 -2.9233708302629484 14.340092145357884 -6.9987184342739033 13.733450651119206 -2.6080014670333349 4.0006449588552107 8.1814106393184058 24.270638664530519 1.0558115495707951 6.5070135223234047 -1.9359217924319214 0.33230977597924749 -2.5573286062284506 3.1574313729962613 15.328275815178365 6.3756988738659572 -2.1533948957225828 1.892805789244127 7.798033662019205 1.1541822698376925 22.808386035776731 -1.8730110819947996 5.5839095341219451 20.663777601685116 1.2764807513759848 3.9362854788706416 1.1566577837657868
leaf_weight=98 315 166 93 20 47 93 20 48 23 48 738 43 94 40 95 47 48 24 44 40 131 67 2332 48 86 134 71 37 24 95 6045 23 213 96 157 69 47 2358 81 381 52 21 138 137 22 23 190 92 39 24 147 47 48 23 43 67 395 24 96 737 24 346 880 209 104 70 48 36 41 312 118 663 215 72 104 93 70 167 221 388 64 44 82 23 163 72 1399 711 1048 24 138 113 47 45 44 3523 160 217 99 2219 72 24 47 47 166 24 24 142 47 81 47 95 131 23 47 48 111 41 566 85 24 85 95 61 1632 24 159 135 23 91 167 23 354 335 39 37 43 64 22 92 1396 209 72 49 1580 48 1031 2387 24 95 24 83 229 184 94 255 72 70 181 65 392 232 132 197 23 239 398 67 47 306 627 46 22 84 285 180 386 185 107 132 48 143 130 103 171 111 520 86 44 133 83 616 464 59 746 206 47 42 1470 856 47 615 24 334 577 164 142 23 45 737 95 437 275 366 68 70 163 255 373 70 111 24 62 91 44 113 21 22 24 4969 96 661 104 22 24 263 116 126 288 1876 115 22 71 1619 2054 70 280 24 83 24 44 231 700 320
leaf_count=98 315 166 93 20 47 93 20 48 23 48 738 43 94 40 95 47 48 24 44 40 131 67 2332 48 86 134 71 37 24 95 6045 23 213 96 157 69 47 2358 81 381 52 21 138 137 22 23 190 92 39 24 147 47 48 23 43 67 395 24 96 737 24 346 880 209 104 70 48 36 41 312 118 663 215 72 104 93 70 167 221 388 64 44 82 23 163 72 1399 711 1048 24 138 113 47 45 44 3523 160 217 99 2219 72 24 47 47 166 24 24 142 47 81 47 95 131 23 47 48 111 41 566 85 24 85 95 61 1632 24 159 135 23 91 167 23 354 335 39 37 43 64 22 92 1396 209 72 49 1580 48 1031 2387 24 95 24 83 229 184 94 255 72 70 181 65 392 232 132 197 23 239 398 67 47 306 627 46 22 84 285 180 386 185 107 132 48 143 130 103 171 111 520 86 44 133 83 616 464 59 746 206 47 42 1470 856 47 615 24 334 577 164 142 23 45 737 95 437 275 366 68 70 163 255 373 70 111 24 62 91 44 113 21 22 24 4969 96 661 104 22 24 263 116 126 288 1876 115 22 71 1619 2054 70 280 24 83 24 44 231 700 320
internal_value=0.000228775 4.11558 -3.07981 3.26918 4.904 15.5883 20.7838 10.3822 13.7357 10.2572 0.616181 -1.13147 3.52368 30.0976 38.2924 21.5507 7.90349 13.0561 25.0912 24.3651 0.301057 5.73959 -5.15512 7.04627 14.5757 11.837 14.6009 0.680488 9.54623 7.86011 -5.75524 16.3559 16.5845 19.271 6.65592 0.0622828 22.9727 -2.34156 2.56888 0.66321 1.40758 2.12053 11.8393 10.1629 1.76062 6.31803 5.24554 9.82296 10.337 1.4146 3.51094 5.30687 2.82657 5.92997 31.0152 16.8214 -1.03644 10.11 8.28831 0.168119 4.90839 4.77823 -3.60345 4.57078 -1.77216 -0.730666 36.1278 6.13783 0.256341 2.71897 -0.0454736 5.44719 6.37054 9.17275 7.79131 11.1884 14.1872 12.2064 8.77052 2.57767 3.68504 9.12249 2.41729 5.26669 12.1099 3.02154 1.50138 -0.510552 0.260535 1.79798 4.06788 2.41389 44.4614 41.7309 12.1508 -4.20593 3.74029 -0.998564 -1.36696 -2.39857 7.51447 7.48594 5.37739 6.86108 7.41744 3.72868 8.79609 -0.0058801 -0.0394668 2.17786 2.35326 7.08118 5.66748 2.67902 -1.37705 -0.0274785 4.64412 5.56347 3.80901 -3.73937 12.2593 -0.258135 2.02594 5.37005 -2.02344 3.94367 6.49738 -0.498152 -4.34863 14.4154 16.6014 2.22153 7.20386 -2.68548 -0.346307 -0.500054 8.17846 10.8351 3.85006 3.00095 -0.841072 5.12634 7.69134 1.60687 -4.88659 4.40163 -0.380295 0.151958 4.99192 12.2885 -1.93752 4.52641 5.76718 0.0556071 7.03256 0.198102 28.2504 12.6797 9.89012 2.72891 3.49598 5.1164 2.13979 -0.032539 3.16399 -0.592561 1.174 0.751756 -0.610311 1.7389 0.406483 1.91384 9.05067 -2.11042 0.118992 -0.86093 -1.40068 2.38635 3.6201 6.95018 3.86064 2.09178 3.37079 0.851003 2.5506 9.60974 -4.0556 4.5987 5.86313 -0.975731 4.33253 4.92186 1.90825 8.03307 -2.06669 -0.611586 10.0397 8.44171 1.44681 0.764418 20.957 -1.85966 -1.90933 -2.28754 0.925062 6.4164 9.56119 0.643399 3.22007 3.27249 4.98257 4.99915 3.56127 -2.31049 9.2269 9.05771 5.77731 -0.298827 0.711562 2.59872 1.17541 5.84084 -4.72457 11.0348 0.243471 13.4975 11.961 5.07775 6.6155 -6.66235 11.8225 -1.54443 -0.11528 -1.21928 31.4288 1.73554 2.72554 1.41155 2.12183 -2.26218 0.520056 7.4718 1.65021 -1.88015 1.79873 3.3214 2.57891 15.0806 1.79304 -2.50256 17.108 0.296144 3.3807 3.06445
internal_weight=74740 31993 42747 29795 18435 2198 1113 3710 1850 1085 11360 22048 14725 445 227 218 930 1827 140 155 11014 4434 20699 1860 668 1687 234 10191 1059 849 14926 210 458 167 882 11099 164 10949 10291 7830 7162 4798 504 1229 5539 298 4200 1205 346 4048 4752 1311 3441 750 135 107 3029 231 716 1954 3899 3852 5773 276 7780 2922 92 83 6678 729 5949 2921 483 1113 765 326 233 348 388 2094 279 211 3136 439 307 1152 5241 2634 1899 1638 519 381 187 140 67 4147 801 2808 2544 4858 817 341 456 745 698 190 508 1933 2364 3011 2930 825 549 931 3269 1151 2104 1349 652 3169 233 5648 537 109 1963 301 183 5111 823 344 253 3147 697 4366 2226 2187 125 198 923 755 2010 417 208 1614 7625 454 1791 2971 109 162 624 416 333 204 305 492 115 162 276 588 523 343 2824 2862 220 1042 445 331 264 744 2094 695 68 2118 309 1311 2140 3066 989 311 179 678 177 581 264 301 2878 138 114 388 771 699 2692 106 1626 291 204 207 1590 1003 260 2147 597 573 614 187 184 1054 611 831 136 597 406 1768 92 92 257 2642 468 1689 599 135 800 163 379 209 68 160 131 7301 120 1153 492 388 71 482 379 720 594 2075 199 120 1541 1754 2077 493 423 187 263 735 67 268 1090 1020
internal_count=74740 31993 42747 29795 18435 2198 1113 3710 1850 1085 11360 22048 14725 445 227 218 930 1827 140 155 11014 4434 20699 1860 668 1687 234 10191 1059 849 14926 210 458 167 882 11099 164 10949 10291 7830 7162 4798 504 1229 5539 298 4200 1205 346 4048 4752 1311 3441 750 135 107 3029 231 716 1954 3899 3852 5773 276 7780 2922 92 83 6678 729 5949 2921 483 1113 765 326 233 348 388 2094 279 211 3136 439 307 1152 5241 2634 1899 1638 519 381 187 140 67 4147 801 2808 2544 4858 817 341 456 745 698 190 508 1933 2364 3011 2930 825 549 931 3269 1151 2104 1349 652 3169 233 5648 537 109 1963 301 183 5111 823 344 253 3147 697 4366 2226 2187 125 198 923 755 2010 417 208 1614 7625 454 1791 2971 109 162 624 416 333 204 305 492 115 162 276 588 523 343 2824 2862 220 1042 445 331 264 744 2094 695 68 2118 309 1311 2140 3066 989 311 179 678 177 581 264 301 2878 138 114 388 771 699 2692 106 1626 291 204 207 1590 1003 260 2147 597 573 614 187 184 1054 611 831 136 597 406 1768 92 92 257 2642 468 1689 599 135 800 163 379 209 68 160 131 7301 120 1153 492 388 71 482 379 720 594 2075 199 120 1541 1754 2077 493 423 187 263 735 67 268 1090 1020
cat_boundaries=0 1 2 3 4 5 6 7 8 9 10 11 12
cat_threshold=33036 18560 5634 2181 16389 10 16645 1033 40 8832 9 28673
is_linear=0
shrinkage=0.05


Tree=3
num_leaves=255
num_cat=9
split_feature=6 6 6 3 4 4 4 7 24 5 30 21 6 15 8 10 17 7 19 4 17 0 21 5 5 24 8 4 4 0 30 26 7 8 21 15 27 17 8 8 7 8 20 1 30 6 24 0 17 21 26 21 30 21 1 10 4 6 21 15 5 5 21 21 19 23 7 17 7 30 0 7 8 0 17 0 30 7 6 8 17 10 8 8 10 4 21 7 5 20 0 7 5 7 3 8 24 12 7 8 4 7 30 17 26 0 8 5 19 21 26 10 6 24 10 21 17 17 0 19 21 26 0 20 8 0 0 19 30 4 27 1 9 8 3 6 7 27 17 17 26 6 6 3 21 31 30 26 26 21 24 5 24 26 5 19 27 30 5 6 21 26 5 17 21 0 17 26 6 21 4 6 21 19 7 5 26 29 10 26 10 5 7 2 0 9 0 6 26 30 27 26 0 27 7 1 0 6 31 7 22 0 8 8 27 6 6 19 10 0 6 7 7 26 26 7 24 7 12 27 24 21 19 0 26 10 7 8 6 15 0 30 10 20 9 8 6 8 5 0 10 5 7 17 5 24 19 9 19 6 26 21 21 7
split_gain=3.42036e+08 1.01264e+08 5.75633e+07 4.38806e+07 2.5275e+07 1.74406e+07 1.66823e+07 1.64842e+07 2.51638e+07 1.59936e+07 1.34085e+07 1.01953e+07 1.00481e+07 9.02064e+06 1.0189e+07 1.07035e+07 8.81971e+06 9.94304e+06 8.53782e+06 7.83114e+06 7.67878e+06 7.31754e+06 6.3084e+06 6.30521e+06 5.75295e+06 5.75052e+06 5.74662e+06 5.72974e+06 5.57803e+06 5.49842e+06 5.46633e+06 5.14937e+06 4.77222e+06 4.40746e+06 4.40617e+06 4.18391e+06 3.90823e+06 3.89753e+06 3.77574e+06 3.67748e+06 3.4977e+06 3.38741e+06 3.84273e+06 3.38467e+06 3.06197e+06 2.94095e+06 2.69357e+06 2.62925e+06 2.63664e+06 2.55692e+06 2.52218e+06 2.51923e+06 2.46416e+06 4.74034e+06 2.25634e+06 2.22608e+06 2.20512e+06 2.19574e+06 2.1785e+06 2.07034e+06 2.0573e+06 2.13627e+06 2.03837e+06 2.48995e+06 1.98911e+06 4.35388e+06 2.8227e+06 2.43552e+06 2.42395e+06 2.09915e+06 1.97653e+06 1.96152e+06 2.19723e+06 3.61066e+06 1.96005e+06 2.59987e+06 1.94507e+06 1.8305e+06 1.96843e+06 1.7842e+06 1.71863e+06 1.65004e+06 1.63456e+06 1.61584e+06 1.60057e+06 1.56814e+06 1.56265e+06 1.55723e+06 1.5418e+06 1.54171e+06 1.53195e+06 1.48701e+06 1.48192e+06 1.4789e+06 2.05296e+06 1.44365e+06 1.47617e+06 1.55816e+06 2.01373e+06 1.41223e+06 1.38548e+06 1.36584e+06 1.34429e+06 2.80318e+06 1.65481e+06 2.44835e+06 2.64562e+06 1.29136e+06 1.28507e+06 1.28157e+06 1.27757e+06 1.27001e+06 1.51199e+06 1.26786e+06 1.64583e+06 1.51772e+06 1.36539e+06 2.1106e+06 1.2909e+06 1.26806e+06 1.60848e+06 1.26757e+06 1.25301e+06 2.20412e+06 2.16557e+06 1.24559e+06 1.22977e+06 1.22748e+06 1.21783e+06 1.56535e+06 1.1875e+06 1.18344e+06 1.16832e+06 1.15514e+06 1.15268e+06 1.31914e+06 1.11429e+06 1.10851e+06 1.10188e+06 1.32208e+06 1.15463e+06 1.10119e+06 1.29807e+06 1.46985e+06 1.08862e+06 1.08459e+06 1.08119e+06 1.08182e+06 1.31569e+06 1.0768e+06 1.06743e+06 1.05896e+06 1.0459e+06 1.03525e+06 1.53589e+06 1.06763e+06 1.01444e+06 1.07602e+06 1.0099e+06 1.00414e+06 1.00222e+06 996643 992546 968311 964976 1.07404e+06 959753 1.36454e+06 1.14452e+06 938065 984284 930139 1.35348e+06 926550 909987 907095 906911 900442 898280 897230 1.8832e+06 892944 891508 888109 884901 874014 1.10427e+06 855375 849966 843475 843333 828676 824108 851597 1.05392e+06 820305 817196 817132 980890 1.09655e+06 1.04661e+06 942250 1.2852e+06 1.01781e+06 804483 794738 930669 782967 776406 776325 771668 769832 1.23325e+06 769542 754672 742904 742232 741839 737911 733380 721530 719476 716433 714845 706294 877572 706040 2.20444e+06 1.35587e+06 729473 702584 702036 692872 692424 764445 685246 682951 681827 1.03688e+06 676401 675669 675648 669542 1.14219e+06 680944 660135 1.03029e+06 656484 656400 654161 645732 647693 644393 698924
threshold=4.535000000000001 3.1450000000000005 5.9450000000000012 0 4.5000000000000009 3.5000000000000004 2.5000000000000004 4.535000000000001 11.500000000000002 1.5000000000000002 0.36931818181818182 5.1449296001407845 3.6450000000000005 1 3.1450000000000005 0.94837326171159508 6.4974041117288071 3.7350000000000008 7.1750000000000007 2.5000000000000004 16.712518071854795 11.173707494422695 8.6086459354555611 5.5000000000000009 5.5000000000000009 2.5000000000000004 6.2350000000000003 6.5000000000000009 2.5000000000000004 1.0801775836538108 0.39230769230769236 7.0300000000000002 5.1950000000000012 6.285000000000001 6.1393235059162761 2 2.5000000000000004 4.7706565052820489 6.7600000000000007 3.1450000000000005 7.455000000000001 4.1250000000000009 6.5000000000000009 1.0000000180025095e-35 0.57738095238095244 7.0300000000000002 2.5000000000000004 1.1104664371975024 13.488457862188666 8.0524454434326938 3.2150000000000003 9.3545537393261444 0.5634920634920636 4.984742873837523 1.0000000180025095e-35 37.868275926390837 1.0000000180025095e-35 5.1350000000000007 5.335424829005599 3 5.5000000000000009 3.5000000000000004 1.6335293120521228 10.668849843746967 4.7950000000000008 1.0000000180025095e-35 7.4650000000000007 8.8534687901019087 6.9050000000000011 0.32051282051282054 0.0041775937906626008 4.2950000000000008 3.0750000000000006 17.761946737624942 11.391865466917828 12.29701811798085 0.61250000000000016 5.0850000000000009 5.0750000000000011 7.330000000000001 23.911996202223477 8.3957439684209163 7.5950000000000006 6.9600000000000009 0.017171086452986654 4.5000000000000009 15.109363553572456 4.6550000000000011 5.5000000000000009 3.5000000000000004 1.0000000180025095e-35 6.3700000000000001 4.5000000000000009 7.0550000000000006 4 4.0750000000000011 12.500000000000002 1.0000000180025095e-35 5.5850000000000009 1.0000000180025095e-35 12.500000000000002 4.0850000000000009 0.42261904761904762 14.330003627364535 4.4250000000000007 10.529426873103093 3.9850000000000008 7.5000000000000009 4.6150000000000011 8.1758244213004669 7.120000000000001 11.501082318421988 3.3950000000000005 2.5000000000000004 15.384454014557223 4.6617020563074432 15.929147684856643 17.318809120270611 2.7826300179307721 4.2150000000000007 18.498688081182852 4.3350000000000009 11.501082318421988 5.5000000000000009 7.0000000000000009 4.0374616159675805 6.4309785645554607 6.9600000000000009 0.44173441734417346 2.5000000000000004 12.500000000000002 1.0000000180025095e-35 2.5000000000000004 3.2750000000000004 5 3.7350000000000008 4.7150000000000007 7.5000000000000009 4.4656521532828926 4.638782272392258 6.8950000000000005 5.0950000000000006 4.9450000000000012 6 0.74273235920071612 1.0000000180025095e-35 0.39230769230769236 4.1450000000000005 6.9600000000000009 6.5033781010891776 1.5000000000000002 2.5000000000000004 9.5000000000000018 5.6500000000000012 2.5000000000000004 7.4650000000000007 7.5000000000000009 0.48529411764705882 5.5000000000000009 3.8650000000000007 5.8918631730346087 7.5950000000000006 2.5000000000000004 6.9097479956109682 7.6364675661378012 11.261764676128069 22.133635739652309 4.8850000000000007 3.8450000000000002 5.0171177909448552 3.5000000000000004 6.4850000000000003 9.5506971579171012 7.4650000000000007 6.9600000000000009 3.5000000000000004 3.8050000000000002 1.0000000180025095e-35 1.7792396351951525 3.7750000000000004 7.5751313295687881 2.5000000000000004 7.5950000000000006 7 8.1789913098334548 1.0000000180025095e-35 23.558283888562141 6.2750000000000012 6.3400000000000007 0.32051282051282054 9.5000000000000018 4.285000000000001 0.21389569354024507 1.5000000000000002 6.7600000000000007 1.0000000180025095e-35 21.362517785216145 4.1050000000000013 1.0000000180025095e-35 7.1750000000000007 1.0000000180025095e-35 4.8729848066842134 5.1550000000000011 4.6350000000000007 9.5000000000000018 4.955000000000001 5.0050000000000008 4.1450000000000005 8.3055382081301179 18.583376380059992 3.8850000000000002 6.8950000000000005 6.0950000000000006 5.9150000000000009 5.2550000000000008 5.6650000000000009 10.500000000000002 7.1750000000000007 1.0000000180025095e-35 2.5000000000000004 5.5000000000000009 5.7211977372947578 5.6500000000000012 14.747985607741018 3.8550000000000004 4.9896932654556201 7.455000000000001 4.3150000000000004 5.1150000000000011 8 2.438287472260487 0.6515151515151516 6.6340611821390931 3.5000000000000004 1.0000000180025095e-35 4.7950000000000008 6.0950000000000006 7.120000000000001 5.5000000000000009 18.294935849148086 7.6799974069670833 4.5000000000000009 4.8550000000000013 7.7062313825557203 4.5000000000000009 3.5000000000000004 4.7750000000000012 1.5000000000000002 3.7250000000000005 3.5450000000000004 3.3650000000000007 3.5349140355864317 0.13980033820106932 4.4650000000000007
decision_type=2 2 2 9 2 2 2 2 2 2 2 2 2 9 2 2 2 2 2 2 2 2 2 2 2 2 2 2 2 2 2 2 2 2 2 9 2 2 2 2 2 2 2 2 2 2 2 2 2 2 2 2 2 2 2 2 2 2 2 9 2 2 2 2 2 2 2 2 2 2 2 2 2 2 2 2 2 2 2 2 2 2 2 2 2 2 2 2 2 2 2 2 2 2 9 2 2 2 2 2 2 2 2 2 2 2 2 2 2 2 2 2 2 2 2 2 2 2 2 2 2 2 2 2 2 2 2 2 2 2 2 2 2 2 9 2 2 2 2 2 2 2 2 9 2 2 2 2 2 2 2 2 2 2 2 2 2 2 2 2 2 2 2 2 2 2 2 2 2 2 2 2 2 2 2 2 2 2 2 2 2 2 2 9 2 2 2 2 2 2 2 2 2 2 2 2 2 2 2 2 2 2 2 2 2 2 2 2 2 2 2 2 2 2 2 2 2 2 2 2 2 2 2 2 2 2 2 2 2 9 2 2 2 2 2 2 2 2 2 2 2 2 2 2 2 2 2 2 2 2 2 2 2 2
left_child=1 3 6 19 7 28 46 8 10 36 11 47 23 32 15 -15 17 169 20 89 27 52 29 84 -22 58 -19 38 35 54 -23 92 -9 125 -25 62 100 134 41 -36 43 42 136 91 191 187 77 -5 214 56 204 151 53 128 150 70 -31 59 161 152 61 -24 -3 -64 65 66 69 82 -67 -58 132 80 73 163 133 145 -71 78 108 86 166 156 127 -34 -7 138 122 -69 -54 126 -48 -17 -29 94 -83 137 97 98 -97 -42 -6 -52 103 104 105 106 -72 -79 110 162 -2 112 -96 114 115 211 119 -118 -117 144 197 -88 226 124 223 -20 -1 164 -18 -130 146 -51 -30 149 248 175 -11 178 140 -140 -81 142 -92 235 -115 -76 -99 176 242 -59 -16 -21 -8 -106 -155 -156 157 -37 -111 -107 215 236 -55 -73 165 213 167 -39 -169 170 -12 172 -60 218 -127 -136 -148 249 -86 180 -137 -56 -123 -158 -80 208 241 189 -145 240 -108 -40 -74 -194 250 -41 -38 198 199 200 210 -201 203 -203 -32 -110 -207 -135 -146 -125 -121 212 -104 -66 -49 -141 -199 -180 -170 -129 221 -189 -173 -124 -63 -226 228 -228 229 -61 -89 -113 -43 234 -220 -144 -4 -143 -239 -126 -27 -187 244 -244 -149 -209 -247 -138 -14 -150 251 -195 -252 -254
right_child=2 5 25 4 9 12 57 13 -10 18 16 -13 37 14 22 40 21 26 33 51 24 30 60 34 -26 45 -28 31 55 49 50 -33 83 -35 39 81 196 71 44 195 99 232 -44 -45 -46 -47 90 48 -50 131 101 -53 88 109 181 -57 64 74 171 79 -62 224 63 -65 67 68 -68 87 -70 76 102 72 192 -75 75 -77 -78 107 184 85 -82 93 -84 -85 95 -87 121 230 -90 -91 141 -93 -94 -95 111 96 -98 130 -100 -101 -102 -103 113 -105 153 159 190 -109 205 158 -112 231 -114 116 -116 118 117 -119 -120 120 -122 182 123 209 239 174 -128 219 129 -131 -132 -133 -134 207 135 179 247 -139 139 160 -142 237 143 188 185 -147 147 148 177 -151 -152 -153 -154 154 155 -157 183 -159 -160 -161 -162 -163 -164 -165 -166 -167 -168 168 173 -171 -172 222 -174 -175 -176 -177 -178 -179 217 -181 -182 -183 -184 -185 -186 186 -188 220 -190 -191 -192 -193 193 194 -196 -197 -198 216 -200 201 -202 202 -204 -205 -206 206 -208 245 -210 -211 -212 -213 -214 -215 -216 -217 -218 -219 233 -221 -222 -223 -224 -225 225 -227 227 -229 -230 -231 -232 -233 -234 -235 -236 -237 -238 238 -240 -241 -242 -243 243 -245 -246 246 -248 -249 -250 -251 252 -253 253 -255
leaf_value=-2.9140763147431823 1.6309306318832075 -5.0843667867111044 -2.6416477921099575 44.369835996864758 36.40858846335302 14.768022721891951 6.9542884503473434 40.319122406259119 64.070613040346089 14.64250474445382 9.9451821725802265 5.2163205217808475 5.7123017489435366 47.383732551929761 9.1238028288966397 16.397938985802437 -0.16928785960820761 43.440421644367454 30.738398220331341 13.686875142299286 19.207032015673274 37.638625066606828 -2.984051337973963 2.8020199926528426 47.9359877463693 -2.8643067776232729 18.916547413824006 25.146659920864941 5.5928057434407865 -8.6007801707513725 10.652001370110757 8.7406685509861433 10.992384591972327 38.628658000830988 10.78901336661983 -0.86038841877189798 16.072193886531338 3.4881274266796449 8.1223083329547716 27.397662854496442 0.36100360946958904 6.2411415548394595 22.683892782615988 27.45946792472953 32.777819009044855 -6.4824736162711423 2.5337885229835866 11.356965126770671 29.899457386351941 12.131089794809258 18.873817146056709 14.029422366956664 4.8011027788789491 4.2397052646177933 15.819837467804616 9.4216294599497381 23.963743280848384 6.9898962495934605 0.83545037462110983 -0.56369297987553735 -3.426602771659804 -1.4976644407258748 11.521200878767262 0.58599526826362047 -0.2186358486080533 12.552638435771907 0.50425921219518821 23.071875624439031 27.662560626027755 7.865971602779755 16.721048246990154 2.9634943627203794 9.1141891483629589 26.718442667447604 -0.46266351457120214 17.884237495992192 23.048459332237414 -3.1721133512070301 -1.201844184955619 1.1618630901756541 0.5577734270704432 7.6008118481412952 18.645263315716061 22.929572312004108 2.9189331651999439 11.651749459169155 -4.0499423172944402 4.0262381488774102 -3.5381345821919279 -4.2879099332078985 -3.2852300334483377 6.3640700843477038 40.524766216683688 -2.900709804709745 14.862175368471263 12.390111938032948 17.750918803495519 11.855651273573757 3.8420534066550331 14.644737927222147 51.671560284172813 8.7044323350358166 1.4490305140296433 9.6625454765826291 -0.28890127185735542 6.3469611643513799 3.4497685798238629 5.2971850253754731 -0.92098076829342268 7.7612356590423364 9.7586318928913123 -1.6418277868455897 2.0234281546346664 9.647443418839865 9.845575703125709 -0.29427322270420248 14.160571057087665 1.5303781945563848 5.6348009361456439 -1.178682765972584 7.7241680390144385 4.0537564366005405 5.3733853932822422 0.85451023444058716 16.599363043708152 15.930752646796385 6.335316645171325 11.97154343173059 -2.4684847142574564 8.6430106118760648 -2.1793485771338545 25.770003707379228 17.740093133063731 -3.1448243600271901 10.988733557703092 16.566980477982039 10.428428559724466 3.2819789727880355 14.315672744656005 2.3010680610854592 -4.2585458725113723 -3.9450048955315307 -1.7308749030458284 -0.24075584895621588 -1.7196281463984648 4.5827569558681187 4.8255579005156051 -2.7772542423017992 5.2671536629131497 -0.055038887154967568 -2.3260166134496196 2.8619587614457056 -0.6994878014533854 15.020029159799154 1.7929572663459734 12.509870438457028 3.7962356355890359 -3.0145925308896437 18.538048224627229 -1.3734958406681332 7.3604048521406176 3.1140038141390174 14.981929893445992 9.4862559165864351 10.258008447010651 7.7488481917316792 15.846090304208495 2.1806197240980247 11.38044130487075 5.4873487807113266 18.16474717729103 -4.0727860339557305 -5.7207046381933333 17.466990599694189 26.8990777481641 1.2185961551220807 10.25958716329389 -1.6597659330538779 13.114988995284989 -0.41139524384353482 1.1582617102617883 4.7083277419687874 14.220635003370862 -0.45414784373411915 -3.3731936912428853 0.3463397338619702 15.182679422815045 -5.5081658915010934 -3.8536892763167381 -4.5647905289811614 11.124187525751275 15.743518798156357 7.8922366739918335 -1.4598142682462678 -1.0404083953639685 16.565681327724853 29.714097385496888 -0.98272502616678414 10.817398970354642 5.8017860695125876 11.223395823305518 2.0417600228732495 -3.6543243014358229 12.981888926177598 2.9084339471715901 12.249465551415915 1.371680282728345 -0.29486367060614826 2.2353575902368754 -4.3823590543902142 1.4233057421190261 4.6084158102789194 -3.2460453870432411 3.6933969333886854 21.758369037639081 -3.3464763691942334 5.4610612799960982 8.1111394784236666 5.8985903782434397 5.8585737831894953 -5.8900858121492448 -3.8383544035177 -1.137468776304011 -1.4741504645152326 9.5474281127314153 3.7418779592569202 8.3742725085741085 -0.25394167517354538 11.456583073438503 -3.6883882903490601 11.476337792223532 3.2587991795296234 1.2151708012282265 4.6391975918127208 10.31034642154364 6.4834808169242226 -4.7024461559990831 -2.2908279421592939 8.7525882689290011 5.9416704984811641 3.3099487091388813 4.8861378437870782 2.3997613347166458 9.1466519750933717 2.5945048420472379 0.92997200691618953 -2.6068934377425026 4.8480395435586283 2.1425307058894254 9.9421016551468053 -0.5775715511017111 3.3837464840827423 0.54831756086216832 3.795301086389653
leaf_weight=76 156 36 478 20 48 47 183 24 23 69 84 71 138 23 22 86 135 48 24 24 64 24 125 67 24 245 48 48 112 22 112 45 70 43 96 1415 24 438 48 71 69 177 64 47 24 5430 112 28 120 48 159 67 319 24 23 96 23 67 457 4968 195 42 149 80 223 70 113 24 43 480 65 142 46 22 350 24 22 1922 1577 411 166 116 21 48 47 40 45 44 67 619 1717 65 24 220 24 142 22 48 134 23 23 42 1345 140 545 58 161 46 606 229 70 454 475 48 70 117 48 106 426 822 70 207 94 317 47 94 68 69 41 139 70 24 24 748 48 24 95 96 24 637 129 4427 35 376 213 153 214 110 355 283 258 364 59 24 654 24 136 982 24 153 91 45 215 95 48 96 24 112 96 48 65 528 95 23 24 47 120 39 135 1121 112 84 24 766 668 134 20 1400 287 2411 46 143 67 177 227 24 21 1461 24 163 20 181 97 24 48 24 107 981 297 91 436 160 156 288 48 64 46 166 208 171 2858 1199 343 64 91 229 91 395 23 185 114 87 112 254 187 92 2545 180 24 22 54 211 484 72 127 250 1166 119 1917 95 115 113 194 1139
leaf_count=76 156 36 478 20 48 47 183 24 23 69 84 71 138 23 22 86 135 48 24 24 64 24 125 67 24 245 48 48 112 22 112 45 70 43 96 1415 24 438 48 71 69 177 64 47 24 5430 112 28 120 48 159 67 319 24 23 96 23 67 457 4968 195 42 149 80 223 70 113 24 43 480 65 142 46 22 350 24 22 1922 1577 411 166 116 21 48 47 40 45 44 67 619 1717 65 24 220 24 142 22 48 134 23 23 42 1345 140 545 58 161 46 606 229 70 454 475 48 70 117 48 106 426 822 70 207 94 317 47 94 68 69 41 139 70 24 24 748 48 24 95 96 24 637 129 4427 35 376 213 153 214 110 355 283 258 364 59 24 654 24 136 982 24 153 91 45 215 95 48 96 24 112 96 48 65 528 95 23 24 47 120 39 135 1121 112 84 24 766 668 134 20 1400 287 2411 46 143 67 177 227 24 21 1461 24 163 20 181 97 24 48 24 107 981 297 91 436 160 156 288 48 64 46 166 208 171 2858 1199 343 64 91 229 91 395 23 185 114 87 112 254 187 92 2545 180 24 22 54 211 484 72 127 250 1166 119 1917 95 115 113 194 1139
internal_value=0.000382525 3.91018 -2.92582 8.6928 10.2085 2.25565 -1.35437 8.7506 12.1564 16.3504 11.6001 21.6627 3.84041 6.60783 6.01626 14.6194 10.0555 18.022 14.6886 -0.10723 12.9504 8.57524 5.14175 6.39559 27.0878 -5.06812 31.211 11.6625 1.09817 6.3797 14.5686 22.036 18.706 24.5978 13.8398 -0.246346 34.1015 2.86047 10.2339 17.7082 12.0054 8.29513 11.6249 15.7472 15.9625 -5.5805 -2.64472 27.0638 25.2761 7.46365 13.0249 5.08301 6.64002 8.2116 0.936979 1.85319 7.10708 -0.0436437 -3.51673 0.425187 0.912092 2.64971 5.74774 7.70299 7.29443 9.27791 7.67346 5.93706 18.3219 9.21614 1.76958 3.95159 3.04418 7.38612 -1.00076 1.84149 8.53581 -1.77342 -1.0369 0.283147 5.35754 -0.597252 4.8864 15.8635 5.63383 1.90685 -0.061293 11.2194 3.35306 -3.204 -3.26674 12.0858 30.3219 0.85591 1.57103 5.45985 4.89501 4.75342 8.24288 3.94402 41.4187 16.7543 1.67456 2.8598 2.30876 4.79323 7.92772 -2.97389 0.854108 11.2775 4.15158 0.816876 2.64379 1.34347 2.30284 2.06285 0.849961 5.47373 4.35744 0.682959 0.230089 3.62042 -0.22272 1.8832 5.8313 20.3248 1.45502 4.56152 3.42084 6.11207 4.19755 16.7069 7.74794 -1.42938 1.629 0.480034 9.11675 8.04321 1.61855 2.7779 -0.133552 -3.35779 -2.51352 -0.836062 2.32348 1.07262 4.46593 4.24571 3.58487 1.29516 -1.42343 3.53491 4.88689 1.34614 2.61537 2.17411 -1.20518 -1.74301 8.79048 0.750693 2.4265 -4.26672 13.9055 5.58102 3.43973 2.89895 5.95116 5.76979 6.9049 11.5823 13.5407 -1.89956 -0.293696 7.59348 18.1825 6.1615 6.78041 5.62454 9.35532 0.0540054 3.88766 7.10937 5.11577 0.2241 -1.84805 1.92065 3.78825 -4.98074 -1.77826 -4.25414 5.15977 13.8335 2.50267 2.35256 2.16328 24.6815 22.4903 0.0696287 0.799092 0.660531 -0.095995 2.73934 1.08504 3.32829 8.33223 -0.157478 3.37242 -1.73262 0.583546 -0.314292 -0.276835 1.3125 0.960881 1.98647 17.9463 1.78505 -0.785681 10.359 7.28635 7.62033 -5.34149 -4.73801 -2.91713 2.60049 4.59537 5.39531 -0.458931 1.36301 -0.630026 -0.684196 9.40552 -0.853276 4.29447 6.67908 7.98929 3.91225 -4.37669 -3.81477 -0.987926 13.2148 -1.74847 3.12348 2.32655 3.27496 0.101142 -1.29181 -1.98242 7.32905 2.37098 6.25609 2.58175 0.428003 3.01304 3.32283
internal_weight=74740 31993 42747 8223 7005 23770 24659 5648 2181 1357 2158 287 10033 3467 3325 313 1871 293 1241 1218 1056 1578 3012 2781 88 18088 96 968 13737 2330 385 117 142 185 258 4940 116 7252 851 191 290 636 347 198 215 13597 12426 216 196 1943 361 455 1193 807 387 8797 1871 12233 4491 8211 682 487 265 229 1849 751 638 1098 113 525 8701 3845 2337 259 4022 527 502 5176 3208 7969 1508 4675 916 118 2523 1396 6573 182 386 763 7250 151 72 1376 1156 2476 2032 2010 276 92 71 201 8565 1870 1730 483 272 1968 963 492 226 1040 499 6695 2274 2204 4421 154 543 4267 3344 276 6297 635 227 142 144 895 315 180 1734 72 136 3495 3407 1352 283 444 1356 816 540 7138 2507 790 923 503 1664 1616 1282 350 280 388 242 1247 702 678 3299 2397 253 211 792 3068 239 237 655 607 1342 1318 880 197 149 1423 552 768 118 95 334 489 348 1257 136 107 231 902 2245 875 365 8167 663 2710 207 191 2078 2032 1965 95 45 3274 1767 1743 1278 465 302 205 160 737 131 3145 510 408 1258 1661 1501 511 76 701 1507 301 745 240 5457 2599 871 158 362 320 5662 486 5176 5153 158 541 289 649 395 127 3023 4631 204 69 299 345 793 556 237 2397 1416 214 2055 450 1738 290 1448 1333
internal_count=74740 31993 42747 8223 7005 23770 24659 5648 2181 1357 2158 287 10033 3467 3325 313 1871 293 1241 1218 1056 1578 3012 2781 88 18088 96 968 13737 2330 385 117 142 185 258 4940 116 7252 851 191 290 636 347 198 215 13597 12426 216 196 1943 361 455 1193 807 387 8797 1871 12233 4491 8211 682 487 265 229 1849 751 638 1098 113 525 8701 3845 2337 259 4022 527 502 5176 3208 7969 1508 4675 916 118 2523 1396 6573 182 386 763 7250 151 72 1376 1156 2476 2032 2010 276 92 71 201 8565 1870 1730 483 272 1968 963 492 226 1040 499 6695 2274 2204 4421 154 543 4267 3344 276 6297 635 227 142 144 895 315 180 1734 72 136 3495 3407 1352 283 444 1356 816 540 7138 2507 790 923 503 1664 1616 1282 350 280 388 242 1247 702 678 3299 2397 253 211 792 3068 239 237 655 607 1342 1318 880 197 149 1423 552 768 118 95 334 489 348 1257 136 107 231 902 2245 875 365 8167 663 2710 207 191 2078 2032 1965 95 45 3274 1767 1743 1278 465 302 205 160 737 131 3145 510 408 1258 1661 1501 511 76 701 1507 301 745 240 5457 2599 871 158 362 320 5662 486 5176 5153 158 541 289 649 395 127 3023 4631 204 69 299 345 793 556 237 2397 1416 214 2055 450 1738 290 1448 1333
cat_boundaries=0 1 2 3 4 5 6 7 8 9
cat_threshold=1562 49408 33093 35840 2088 128 17412 2 8704
is_linear=0
shrinkage=0.05


Tree=4
num_leaves=255
num_cat=11
split_feature=6 13 14 14 6 14 13 13 24 8 15 14 6 21 30 7 17 15 18 3 30 24 14 4 13 6 26 14 14 13 30 24 20 0 27 4 18 14 26 6 14 3 26 17 0 17 21 30 26 7 26 15 21 21 4 21 0 8 9 26 7 7 0 0 19 21 17 1 8 6 20 27 14 0 7 13 18 6 30 14 13 3 8 4 6 3 30 13 4 19 0 8 26 21 6 21 0 27 7 26 6 7 19 19 6 8 23 17 17 13 1 8 13 13 13 0 17 7 21 21 4 17 3 21 14 21 8 0 7 26 24 17 8 3 17 19 0 13 13 19 13 21 20 24 7 0 19 30 19 8 7 13 27 27 21 0 21 4 13 13 0 14 13 0 0 21 17 17 0 0 0 7 6 24 27 0 7 27 24 21 7 0 8 4 20 26 2 24 21 27 17 8 21 19 19 21 4 13 21 13 17 8 26 30 23 17 6 13 0 0 30 3 6 21 12 8 9 4 13 13 21 13 13 13 8 13 6 21 21 24 17 19 13 8 21 21 13 14 7 0 27 20 17 6 0 6 0 0 0 6 8 0 18 0
split_gain=3.08737e+08 1.01624e+08 5.69137e+07 4.23322e+07 4.53578e+07 1.99527e+07 2.09783e+07 1.37075e+07 2.19707e+07 1.17778e+07 1.14108e+07 1.04192e+07 1.0225e+07 1.02155e+07 1.29531e+07 1.0413e+07 8.61132e+06 6.79214e+06 7.49733e+06 6.4643e+06 6.34501e+06 6.27126e+06 5.14458e+06 4.57574e+06 4.34546e+06 4.11869e+06 4.22457e+06 3.88491e+06 3.45602e+06 3.31051e+06 3.23614e+06 2.94473e+06 2.93567e+06 3.20611e+06 2.72902e+06 2.69733e+06 2.63256e+06 2.5515e+06 2.48933e+06 3.31932e+06 3.13691e+06 2.38731e+06 2.92627e+06 2.2952e+06 2.2798e+06 2.26828e+06 2.19206e+06 3.79695e+06 2.15957e+06 2.8403e+06 2.41037e+06 2.15072e+06 1.96878e+06 1.95885e+06 1.88906e+06 1.88564e+06 1.86238e+06 1.85251e+06 1.82525e+06 1.82438e+06 3.08806e+06 2.02366e+06 1.79877e+06 2.88913e+06 2.95109e+06 1.78707e+06 1.76234e+06 1.70738e+06 1.6787e+06 1.84497e+06 1.64237e+06 1.63337e+06 1.63113e+06 1.81146e+06 1.61827e+06 1.60003e+06 1.544e+06 1.51753e+06 1.48375e+06 1.48154e+06 1.43736e+06 1.43325e+06 1.41971e+06 1.648e+06 1.40836e+06 1.75e+06 1.38566e+06 1.37242e+06 1.37221e+06 1.34469e+06 1.28157e+06 1.56767e+06 1.27121e+06 1.23937e+06 1.23436e+06 1.22836e+06 1.34443e+06 1.25146e+06 4.09949e+06 1.57577e+06 1.66312e+06 1.22466e+06 1.21264e+06 1.25481e+06 1.30711e+06 1.27434e+06 1.19515e+06 1.18978e+06 1.34246e+06 1.1725e+06 1.14823e+06 1.14589e+06 1.42137e+06 1.13673e+06 1.12639e+06 1.25648e+06 1.16752e+06 1.19849e+06 1.12878e+06 1.15464e+06 1.34339e+06 1.41347e+06 1.11185e+06 1.23137e+06 1.10829e+06 1.25067e+06 1.29846e+06 1.09007e+06 1.13326e+06 1.52417e+06 2.12716e+06 1.74916e+06 1.13772e+06 1.08542e+06 1.08152e+06 1.08007e+06 1.0531e+06 1.05259e+06 1.04616e+06 1.03327e+06 1.02765e+06 1.18164e+06 1.02707e+06 1.00135e+06 995835 1.04421e+06 979845 976969 976403 961702 947874 947558 942916 941899 1.09455e+06 926943 910400 903831 898421 893525 2.22006e+06 1.11478e+06 888578 883328 848188 845423 844505 831627 831306 831072 2.30553e+06 992762 870956 1.94303e+06 1.34001e+06 820897 820279 819201 815896 939216 815835 806461 799514 794913 899082 792186 948380 1.00862e+06 781554 777089 780653 773551 773431 767580 926737 903106 1.30722e+06 765938 761014 751785 751035 750594 745513 776141 741848 740736 737806 735408 730003 831156 728222 838825 796908 895061 817092 727982 726864 720990 703046 696497 688109 686522 1.08879e+06 680490 1.22231e+06 774470 679516 672033 662310 1.04075e+06 659536 653908 653499 664948 653454 1.15125e+06 648312 645669 644368 642955 642604 679634 640710 640574 1.07773e+06 893587 1.06966e+06 801509 700448 627650 626047 625472 621876 616952
threshold=4.535000000000001 19.386002826059826 20.500000000000004 56.500000000000007 3.1150000000000007 90.500000000000014 30.069199382029876 11.630413443853472 11.500000000000002 7.455000000000001 0 42.500000000000007 3.7150000000000003 4.9099184249223029 0.40370370370370373 4.7150000000000007 18.613928754020471 1 8.5000000000000018 2 0.39230769230769236 2.5000000000000004 90.500000000000014 6.5000000000000009 5.6347841944554853 3.9350000000000005 3.1150000000000007 6.5000000000000009 30.500000000000004 3.69889474216339 0.32051282051282054 6.5000000000000009 9.5000000000000018 4.2990467119819602 6.5000000000000009 2.5000000000000004 3.5000000000000004 90.500000000000014 5.8350000000000009 3.0250000000000004 20.500000000000004 3 3.7550000000000003 15.929147684856643 14.747985607741018 27.818748034147372 13.893648887522163 0.55050505050505061 7.4650000000000007 7.4650000000000007 5.9250000000000007 4 15.817106555757844 8.8673357989392922 6.5000000000000009 3.8831746040173485 1.1104664371975024 7.120000000000001 1.0000000180025095e-35 4.1450000000000005 6.830000000000001 7.1750000000000007 11.903748222592146 12.467752255415261 5.995000000000001 5.335424829005599 5.9092571543775714 1.0000000180025095e-35 7.455000000000001 5.1150000000000011 5.5000000000000009 1.5000000000000002 156.50000000000003 5.9689382299146816 3.8550000000000004 8.2473854402965276 1.0000000180025095e-35 3.4350000000000005 0.18333333333333332 132.50000000000003 6.8056145643053485 5 3.3150000000000004 3.5000000000000004 4.3250000000000011 6 0.4494949494949495 10.647334470158725 3.5000000000000004 4.1250000000000009 21.362517785216145 5.0850000000000009 3.7350000000000008 15.109363553572456 5.2750000000000012 16.935446745672813 0.24089515450257079 11.500000000000002 4.3250000000000011 7.0850000000000009 3.6950000000000007 7.5950000000000006 5.0550000000000006 4.955000000000001 4.4050000000000011 3.7350000000000008 1.0000000180025095e-35 10.104884679002945 11.108918018878814 11.115156861521514 1.0000000180025095e-35 6.5450000000000008 6.2395797173451824 0.69592880711442906 2.680658225814931 1.5124008991535416 1.0000000180025095e-35 3.2050000000000005 1.6335293120521228 1.9665661482113139 4.5000000000000009 7.6600408836643972 7 0.18360542113968384 72.500000000000014 13.650079321510001 3.9750000000000005 0.9661707143534819 3.1150000000000007 6.4850000000000003 9.5000000000000018 6.4974041117288071 4.2750000000000012 8 4.7263649532920953 7.330000000000001 5.9061659382109628 5.7211977372947578 5.1464066301420575 7.455000000000001 8.6000292606820334 1.4948344192117633 5.5000000000000009 2.5000000000000004 5.0650000000000004 7.8099676629248345 3.2250000000000005 0.59166666666666679 4.2350000000000012 7.5950000000000006 5.0250000000000012 8.0107258059950688 6.5000000000000009 7.5000000000000009 3.4846715399113237 12.881062337829968 2.2144110343003107 3.5000000000000004 8.8515417493558584 12.475318804122622 3.4020409274604293 72.500000000000014 16.137516339699363 6.8367300094647492 8.0524454434326938 4.2177288431051023 1.9176151562528596 10.395552213260876 1.9128149484846282 4.7875762514352571 4.9942678319859199 7.5950000000000006 4.2750000000000012 1.5000000000000002 4.5000000000000009 4.2360680410972069 5.995000000000001 9.5000000000000018 8.5000000000000018 0.61342449442276226 3.9750000000000005 18.294935849148086 7.455000000000001 2.5000000000000004 4.5000000000000009 4.1450000000000005 9 5.5000000000000009 3.3667739930918512 6.5000000000000009 8.8534687901019087 5.6650000000000009 3.4440296317553298 4.6650000000000009 3.3450000000000002 0.65220309954364575 3.5000000000000004 9.8789799636498152 10.403672546104014 14.848488838153672 1.5970192870831081 6.3250000000000011 4.9850000000000012 0.54195804195804198 1.0000000180025095e-35 2.6571657473141799 5.6150000000000011 10.017945707667453 7.5791684341917671 4.1820078745382459 0.5634920634920636 10 4.7550000000000008 1.2636290292636227 1.0000000180025095e-35 5.3350000000000009 1.5000000000000002 3.5000000000000004 14.203215168685817 9.9396437480539586 20.584484469775173 9.3807083879170694 9.8789799636498152 6.5519704232292577 7.4650000000000007 8.8515417493558584 6.3000000000000007 12.244800065656968 4.6617020563074432 2.5000000000000004 0.36531486254059331 4.7950000000000008 11.442413704750509 6.7350000000000003 6.9465938597014558 3.590601501987857 12.116635915066768 90.500000000000014 4.3950000000000005 1.7329257392137032 8.5000000000000018 3.5000000000000004 6.4309785645554607 5.0750000000000011 0.0094630840307135516 4.9450000000000012 8.7249296758487329 0.0041775937906626008 3.0298704709933122 5.035000000000001 7.0300000000000002 4.7020957934982412 6.5000000000000009 14.581503961701957
decision_type=2 2 2 2 2 2 2 2 2 2 9 2 2 2 2 2 2 9 2 9 2 2 2 2 2 2 2 2 2 2 2 2 2 2 2 2 2 2 2 2 2 9 2 2 2 2 2 2 2 2 2 9 2 2 2 2 2 2 2 2 2 2 2 2 2 2 2 2 2 2 2 2 2 2 2 2 2 2 2 2 2 9 2 2 2 9 2 2 2 2 2 2 2 2 2 2 2 2 2 2 2 2 2 2 2 2 2 2 2 2 2 2 2 2 2 2 2 2 2 2 2 2 9 2 2 2 2 2 2 2 2 2 2 9 2 2 2 2 2 2 2 2 2 2 2 2 2 2 2 2 2 2 2 2 2 2 2 2 2 2 2 2 2 2 2 2 2 2 2 2 2 2 2 2 2 2 2 2 2 2 2 2 2 2 2 2 9 2 2 2 2 2 2 2 2 2 2 2 2 2 2 2 2 2 2 2 2 2 2 2 2 9 2 2 2 2 2 2 2 2 2 2 2 2 2 2 2 2 2 2 2 2 2 2 2 2 2 2 2 2 2 2 2 2 2 2 2 2 2 2 2 2 2 2
left_child=1 3 21 10 7 9 25 22 17 16 52 31 23 15 -15 56 28 18 70 158 -11 65 138 51 53 26 -7 -23 -3 113 -19 66 48 -34 43 -28 -35 62 39 40 -26 -32 44 46 164 149 114 82 50 -50 86 -6 87 84 57 -22 -8 127 74 60 92 -62 68 64 -64 94 133 -17 93 144 -9 -37 76 -74 215 122 -61 -76 -41 159 -65 202 -48 -84 85 178 -24 -1 107 -81 91 -16 204 177 156 96 207 99 109 100 111 231 103 105 -105 106 198 137 -109 -99 -52 112 -98 -13 115 -14 -116 -118 185 143 169 -122 148 -124 -115 126 -126 -44 175 130 176 -131 -133 243 -104 226 168 -80 -5 -60 141 -101 -63 -120 -70 -146 -73 -125 152 192 220 -29 188 -150 -155 189 -2 221 -12 161 -161 240 -135 -134 -43 -59 -113 -160 -77 171 -171 252 173 -172 -175 -129 -130 210 179 -21 -58 191 -87 184 -139 -119 187 205 -68 190 239 -67 -42 194 -163 196 -195 -168 -40 -174 -137 -158 203 -39 -53 -187 -138 -78 209 -162 212 -212 214 -214 -31 -30 -176 -201 232 -194 -148 -107 -223 224 -197 -225 -33 -117 -185 -230 -224 -95 233 -142 235 -114 -213 -196 -38 -140 241 -36 -149 245 247 248 -247 -245 -4 -248 -91 -179 -121 -27
